tree
version=v3
num_class=1
num_tree_per_iteration=1
label_index=0
max_feature_idx=108
objective=regression
feature_names=dt__day_of_week dt__day_of_month dt__hour dt__is_quarter_start dt__is_quarter_end dt__is_month_start dt__is_month_end dt__is_weekend fear_and_greed_value funding_rate funding_rate__lag1 funding_rate__lag3 funding_rate__lag5 funding_rate__diff1 funding_rate__diff3 funding_rate__diff5 index_price mark_price price_diff funding_rate_expcumsum_0.5 funding_rate_expcumsum_1 funding_rate_expcumsum_2 funding_rate_expcumsum_3 funding_rate_expcumsum_5 funding_rate_expcumsum_10 funding_rate_expcumsum_20 funding_rate_rol_mean_3 funding_rate_rol_std_3 funding_rate_rol_max_3 funding_rate_rol_min_3 funding_rate_rol_skew_3 funding_rate_rol_mean_5 funding_rate_rol_std_5 funding_rate_rol_max_5 funding_rate_rol_min_5 funding_rate_rol_skew_5 funding_rate_rol_kurt_5 funding_rate_rol_mean_10 funding_rate_rol_std_10 funding_rate_rol_max_10 funding_rate_rol_min_10 funding_rate_rol_skew_10 funding_rate_rol_kurt_10 funding_rate_rol_mean_20 funding_rate_rol_std_20 funding_rate_rol_max_20 funding_rate_rol_min_20 funding_rate_rol_skew_20 funding_rate_rol_kurt_20 index_price_expcumsum_0.5 index_price_expcumsum_1 index_price_expcumsum_2 index_price_expcumsum_3 index_price_expcumsum_5 index_price_expcumsum_10 index_price_expcumsum_20 index_price_rol_mean_3 index_price_rol_std_3 index_price_rol_max_3 index_price_rol_min_3 index_price_rol_skew_3 index_price_rol_mean_5 index_price_rol_std_5 index_price_rol_max_5 index_price_rol_min_5 index_price_rol_skew_5 index_price_rol_kurt_5 index_price_rol_mean_10 index_price_rol_std_10 index_price_rol_max_10 index_price_rol_min_10 index_price_rol_skew_10 index_price_rol_kurt_10 index_price_rol_mean_20 index_price_rol_std_20 index_price_rol_max_20 index_price_rol_min_20 index_price_rol_skew_20 index_price_rol_kurt_20 mark_price_expcumsum_0.5 mark_price_expcumsum_1 mark_price_expcumsum_2 mark_price_expcumsum_3 mark_price_expcumsum_5 mark_price_expcumsum_10 mark_price_expcumsum_20 mark_price_rol_mean_3 mark_price_rol_std_3 mark_price_rol_max_3 mark_price_rol_min_3 mark_price_rol_skew_3 mark_price_rol_mean_5 mark_price_rol_std_5 mark_price_rol_max_5 mark_price_rol_min_5 mark_price_rol_skew_5 mark_price_rol_kurt_5 mark_price_rol_mean_10 mark_price_rol_std_10 mark_price_rol_max_10 mark_price_rol_min_10 mark_price_rol_skew_10 mark_price_rol_kurt_10 mark_price_rol_mean_20 mark_price_rol_std_20 mark_price_rol_max_20 mark_price_rol_min_20 mark_price_rol_skew_20 mark_price_rol_kurt_20
feature_infos=-1:0:1:3:2:5:6:4 -1:23:20:19:17:6:5:25:9:14:3:28:4:26:11:22:13:24:18:7:27:15:16:21:12:8:10:1:30:2:29:31 -1:8:16:0 [0:1] [0:1] [0:1] [0:1] [0:1] [8:60] [-0.0099997501820325851:0.0020556598901748657] [-0.0099997501820325851:0.0020556598901748657] [-0.0099997501820325851:0.0020556598901748657] [-0.0099997501820325851:0.0010273900115862489] [-0.0076000001281499863:0.0076000001281499863] [-0.008347650058567524:0.0076000001281499863] [-0.010099750012159348:0.010099750012159348] [0.0009329100139439106:47459.03515625] [0.00093223998555913568:47442.5] [-40.278358459472656:19.951461791992188] [-0.0015651186695322394:0.00028024273342452943] [-0.0058065834455192089:0.00077013066038489342] [-0.014826986007392406:0.0012324624694883823] [-0.02268289215862751:0.0013620798708871007] [-0.034624107182025909:0.0015048399800434709] [-0.051938913762569427:0.0024640173651278019] [-0.06764499843120575:0.0038138271775096655] [-0.0099997501820325851:0.00075188669143244624] [0:0.0043878620490431786] [-0.0099997501820325851:0.0020556598901748657] [-0.0099997501820325851:0.00014586000179406255] [-1.7329801321029663:1.732050895690918] [-0.0099997501820325851:0.00045693400898016989] [0:0.0042324825190007687] [-0.0099997501820325851:0.0020556598901748657] [-0.0099997501820325851:9.9999997473787516e-05] [-2.2361106872558594:2.2360680103302002] [-3.3333332538604736:5.1193437576293945] [-0.0072063780389726162:0.00032894598552957177] [0:0.0046717571094632149] [-0.0025548299308866262:0.0020556598901748657] [-0.0099997501820325851:9.9999997473787516e-05] [-3.1622786521911621:3.1622776985168457] [-2.8867008686065674:10.411819458007812] [-0.004653311800211668:0.00022301750141195953] [0:0.0042690755799412727] [-0.00072849000571295619:0.0020556598901748657] [-0.0099997501820325851:9.9999997473787516e-05] [-4.4721403121948242:4.4721360206604004] [-2.8867008686065674:20.007556915283203] [0.00014807192201260477:7426.41748046875] [0.00056591053726151586:27603.173828125] [0.0015570708783343434:72979.8515625] [0.0026015425100922585:119234.9375] [0.0046826610341668129:211842.3125] [0.010234844870865345:439280.96875] [0.019999336451292038:885820.3125] [0.00099619000684469938:47437.4296875] [1.7684739077594713e-06:3225.81396484375] [0.0010139299556612968:47722.98046875] [0.0009329100139439106:47404.92578125] [-1.7320507764816284:1.7320507764816284] [0.001019475981593132:47375.0234375] [1.0814785127877258e-05:3477.00439453125] [0.0010565599659457803:47732.19140625] [0.0009329100139439106:47184.59375] [-2.2280433177947998:2.234316349029541] [-3.3310379981994629:4.9937376976013184] [0.0010261570569127798:47270.72265625] [2.116302857757546e-05:4615.80126953125] [0.0010795400012284517:47732.19140625] [0.0009329100139439106:47005.3984375] [-2.9183228015899658:3.0526905059814453] [-2.5887072086334229:9.4742317199707031] [0.0010372354881837964:47173.625] [3.6456982343224809e-05:4399.18994140625] [0.0011190000222995877:47732.19140625] [0.0009329100139439106:46216.33203125] [-3.469351053237915:4.0539236068725586] [-2.5887072086334229:17.351350784301758] [0.00014796618779655546:7424.326171875] [0.00056553137255832553:27595.2265625] [0.0015561261679977179:72961.96875] [0.0025986682157963514:119210.4609375] [0.0046783150173723698:211785.390625] [0.010226002894341946:439189.125] [0.01999950036406517:885593.9375] [0.00099574669729918242:47424.53515625] [3.8695395687682321e-07:3211.244384765625] [0.0010130000300705433:47709.37890625] [0.00093223998555913568:47395.69921875] [-1.7320722341537476:1.7320507764816284] [0.0010186380241066217:47363] [1.0565049706201535e-05:3466.98486328125] [0.0010554899927228689:47723.234375] [0.00093223998555913568:47177.2890625] [-2.2307629585266113:2.2335269451141357] [-3.3323955535888672:4.9909248352050781] [0.0010248719481751323:47259.88671875] [2.1286907212925144e-05:4609.1337890625] [0.0010789399966597557:47723.234375] [0.00093223998555913568:47002.36328125] [-2.9140338897705078:3.0515165328979492] [-2.5951182842254639:9.4683809280395508] [0.0010360844898968935:47163.61328125] [3.623278098530136e-05:4397.1376953125] [0.0011185399489477277:47723.234375] [0.00093223998555913568:46216.69140625] [-3.4636242389678955:4.0450954437255859] [-2.5951182842254639:17.295860290527344]
tree_sizes=2157 2149 2128 2148 2147 2195 2161 2166 2144 2172 2145 2154 2179 2188 2142 2147 2188 2149 2189 2199 2149 2162 2168 2224 2166 2134 2160 2147 2150 2172 2166 2144 2157 2196 2124 2157 2155 2176 2160 2164 2174 2147 2185 2180 2137 2178 2115 2178 2209 2187 2148 2232 2179 2135 2208 2161 2154 2151 2165 2133 2113 2155 2152 2184 2216 2169 2146 2129 2175 2172 2180 2200 2222 2240 2168 2173 2153 2148 2139 2187 2143 2171 2183 2135 2164 2146 2129 2189 2165 2175 2152 2168 2175 2169 2190 2135 2164 2171 2111 2174 2159 2185 2155 2114 2154 2141 2162 2168 2138 2216 2165 2189 2152 2152 2204 2149 2134 2174 2195 2178 2188 2166 2169 2189 2137 2178 2173 2172 2164 2148 2169 2150 2144 2199 2172 2200 2160 2156 2144 2203 2151 2220 2133 2170 2150 2178 2180 2154 2144 2205 2133 2208 2145 2133 2199 2183 2145 2190 2196 2129 2141 2175 2188 2214 2160 2178 2173 2191 2212 2129 2193 2169 2150 2157 2139 2133 2213 2138 2183 2183 2186 2138 2113 2196 2214 2180 2175 2174 2183 2126 2185 2172 2190 2185 2152 2177 2156 2188 2187 2178

Tree=0
num_leaves=20
num_cat=3
split_feature=22 20 22 20 22 22 25 57 1 8 1 55 8 8 24 8 25 1 46
split_gain=0.00828326 0.00252318 0.00248244 0.000397231 0.000382644 0.000311125 0.000268334 0.000155237 0.000149151 0.000125596 0.000121793 0.000110307 0.000102324 8.99503e-05 7.51442e-05 6.9736e-05 6.3914e-05 6.13464e-05 4.33056e-05
threshold=-0.0007604052370879798 -0.00060724103241227556 -1.4571715837519149e-05 -0.00029583372815977777 -0.00034817252890206868 0.00017056476644938814 -0.0052107169758528462 0.015447016805410387 0 50.500000000000007 1 1.1735777258872988 20.500000000000004 12.500000000000002 -0.0030659163603559132 13.500000000000002 -0.0087055508047342283 2 9.9209999461891143e-05
decision_type=2 2 2 2 2 2 2 2 1 2 1 2 2 2 2 2 2 1 2
left_child=1 6 4 7 10 15 9 -3 12 11 -2 -1 -6 -12 -9 -4 -5 -10 -7
right_child=2 3 5 16 8 18 -8 14 17 -11 13 -13 -14 -15 -16 -17 -18 -19 -20
leaf_value=-3.3681720308170604e-05 -3.2421713489914232e-05 -3.5117223236120957e-05 -3.1467059479964325e-05 -3.61982367731147e-05 -3.4425993494522703e-05 -3.0126673024143783e-05 -3.6270685317129194e-05 -3.9622377957281975e-05 -3.1230350469947128e-05 -3.4080464231105894e-05 -3.5305266912958242e-05 -4.8775379349112337e-05 -3.196755042721188e-05 -3.3372001108628148e-05 -3.5871718100247413e-05 -3.0656826130774046e-05 -3.4161416767188842e-05 -3.1906582317057681e-05 -2.9751435871601782e-05
leaf_weight=6.9999999999999991 952 153 885 162 227 6717 28 257 1706 8.9999999999999982 223 139 248 868 96 4307 601 2039 3373
leaf_count=7 952 153 885 162 227 6717 28 257 1706 9 223 139 248 868 96 4307 601 2039 3373
internal_value=-3.12709e-05 -3.73247e-05 -3.08421e-05 -3.59293e-05 -3.22385e-05 -3.02695e-05 -4.62581e-05 -3.77525e-05 -3.1783e-05 -4.76499e-05 -3.31722e-05 -4.82526e-05 -3.31446e-05 -3.37774e-05 -3.87572e-05 -3.0795e-05 -3.4652e-05 -3.16e-05 -2.99999e-05
internal_weight=0 1452 21545 1269 6263 15282 183 506 4220 155 2043 146 475 1091 353 5192 763 3745 10090
internal_count=22997 1452 21545 1269 6263 15282 183 506 4220 155 2043 146 475 1091 353 5192 763 3745 10090
cat_boundaries=0 1 2 3
cat_threshold=67111936 4030853914 4027179410
is_linear=0
shrinkage=0.263555


Tree=1
num_leaves=20
num_cat=3
split_feature=21 21 19 43 21 22 8 24 1 1 75 50 74 8 8 1 8 26 44
split_gain=0.00829674 0.00269993 0.00201165 0.000551165 0.000424423 0.000355778 0.000238653 0.000196276 0.000133289 0.000101715 9.84217e-05 9.51394e-05 8.95663e-05 7.8103e-05 7.03005e-05 6.58751e-05 6.15145e-05 5.63913e-05 4.96638e-05
threshold=-0.00055196223547682155 -1.8163087588618506e-05 -0.00013950467837275934 -0.00056604898418299843 -0.0002395885167061351 0.00017056476644938814 25.500000000000004 -0.0039653645362704984 0 1 0.065671797841787352 0.70503374934196483 0.026961146853864196 20.500000000000004 12.500000000000002 2 12.500000000000002 -0.00064516332349739958 0.00025020581961143767
decision_type=2 2 2 2 2 2 2 2 1 1 2 2 2 2 2 1 2 2 2
left_child=2 4 3 6 9 13 10 11 16 -2 -1 -4 -5 15 -11 -3 -6 -14 -12
right_child=1 5 7 12 8 -7 -8 -9 -10 14 18 -13 17 -15 -16 -17 -18 -19 -20
leaf_value=-1.7592088989675269e-06 -8.1721078518860548e-07 -4.1915546021519036e-07 -2.4749012525899391e-06 -2.5427623748126821e-06 -1.8654825721784428e-06 8.4424580063850891e-07 -3.3230891176058693e-06 -2.4232538009380664e-06 -2.4325954152290282e-07 -2.5386885865761965e-06 -1.5400386137717174e-06 -4.7812011999986585e-06 -7.2057759569850452e-06 4.2221900513198591e-07 -1.478885764946053e-06 2.8390313051757818e-07 -7.4901299751420879e-07 -1.7894367728727575e-06 -1.3250242638356752e-05
leaf_weight=5.9999999999999991 721 742 116 42 207 10090 19 517 3221 274 3.9999999999999991 283 81 4012 1006 900 643 14.999999999999998 98
leaf_count=6 721 742 116 42 207 10090 19 517 3221 274 4 283 81 4012 1006 900 643 15 98
internal_value=0 2.59115e-07 -4.53365e-06 -8.76287e-06 -7.41764e-07 6.4535e-07 -1.15117e-05 -3.22871e-06 -4.12232e-07 -1.40681e-06 -1.25486e-05 -4.1876e-06 -5.62625e-06 2.89541e-07 -1.71041e-06 -3.52334e-08 -1.02749e-06 -6.60813e-06 -1.29695e-05
internal_weight=0 21816 1181 265 6072 15744 127 916 4071 2001 108 399 138 5654 1280 1642 850 96 102
internal_count=22997 21816 1181 265 6072 15744 127 916 4071 2001 108 399 138 5654 1280 1642 850 96 102
cat_boundaries=0 1 2 3
cat_threshold=76811264 1883365650 96800268
is_linear=0
shrinkage=0.00176828


Tree=2
num_leaves=20
num_cat=5
split_feature=21 21 28 21 21 21 69 1 25 1 68 24 1 66 43 21 0 1 18
split_gain=0.00814334 0.00264678 0.00202069 0.000536651 0.000416424 0.00033628 0.000205115 0.000134817 0.000123564 9.38713e-05 7.59191e-05 6.67831e-05 6.46916e-05 5.21644e-05 4.99789e-05 4.99066e-05 4.98563e-05 3.99958e-05 4.20756e-05
threshold=-0.00055196223547682155 -1.8163087588618506e-05 -0.00082356002531014372 -0.00096450117416679848 -0.00024796495563350612 0.00013218799722380939 1.2176114320755007 0 -0.007338654249906539 1 0.058435771614313133 0.00032278310391120618 2 -2.8410210609436031 -0.00031226250575855369 -0.00012601241178344932 3 4 -4.72899992018938e-05
decision_type=2 2 2 2 2 2 2 1 2 1 2 2 1 2 2 2 1 1 2
left_child=2 4 8 6 9 11 -4 17 13 -2 -5 12 -3 -1 -12 -9 -11 18 -6
right_child=1 5 3 10 7 -7 -8 15 -10 16 14 -13 -14 -15 -16 -17 -18 -19 -20
leaf_value=-3.605645980340391e-06 -1.4032885744772624e-06 -2.9389288150651899e-07 -5.5845188467760631e-06 -3.1930347614776816e-06 -1.9421893587298569e-06 1.4012506273274635e-06 -1.0677872796519448e-05 -7.9562774407431434e-07 -1.7913958602226699e-06 -4.4209416820381848e-06 -6.3789670334154531e-06 8.333638580943707e-07 5.414391950507576e-07 -2.1307878830833445e-05 -3.9336409767190525e-06 -7.7949192571716177e-08 -2.4288343039788778e-06 -1.2664172436473124e-06 -5.3953741190499926e-06
leaf_weight=5.9999999999999991 765 1073 146 292 118 8643 221 1350 4.9999999999999991 170 226 3657 2371 76 209 1837 981 811 40
leaf_count=6 765 1073 146 292 118 8643 221 1350 5 170 226 3657 2371 76 209 1837 981 811 40
internal_value=0 4.11652e-07 -7.20908e-06 -6.04074e-06 -1.17882e-06 1.02541e-06 -8.85351e-06 -6.71336e-07 -1.97633e-05 -2.27042e-06 -4.51995e-06 5.66629e-07 2.81805e-07 -2.05453e-05 -5.31888e-06 -3.82297e-07 -2.79355e-06 -1.58823e-06 -2.91219e-06
internal_weight=0 21816 1181 1094 6072 15744 367 4156 87 1916 727 7101 3444 82 435 3187 1151 969 158
internal_count=22997 21816 1181 1094 6072 15744 367 4156 87 1916 727 7101 3444 82 435 3187 1151 969 158
cat_boundaries=0 1 2 3 4 5
cat_threshold=76811328 1883366170 230693960 4 2048
is_linear=0
shrinkage=0.00283801


Tree=3
num_leaves=20
num_cat=3
split_feature=26 19 23 46 24 19 23 78 1 68 1 8 1 93 8 9 10 43 31
split_gain=0.00773495 0.00241437 0.00221948 0.000573861 0.000348322 0.000331907 0.000295422 0.00017573 0.000134824 9.27298e-05 8.36207e-05 8.34568e-05 8.27924e-05 7.93958e-05 7.23441e-05 6.65317e-05 6.44944e-05 5.61912e-05 5.38916e-05
threshold=-0.00031352332734968508 -0.00013950467837275934 -1.911091567308176e-05 -0.0022467250237241383 -0.0039653645362704984 -2.7437719836598259e-05 0.00029312276456039404 2.5811009407043461 0 0.043332971632480628 1 13.500000000000002 2 1.2173659801483157 19.500000000000004 7.3445000452920808e-05 -0.00024543500330764795 -0.00014803725207457316 -7.6147000072523938e-05
decision_type=2 2 2 2 2 2 2 2 1 2 1 2 1 2 2 2 2 2 2
left_child=1 3 5 7 13 10 11 -1 18 -5 14 -4 -6 -3 -2 17 -11 -10 -7
right_child=2 4 6 9 12 8 -8 -9 15 16 -12 -13 -14 -15 -16 -17 -18 -19 -20
leaf_value=-1.2208993242810804e-05 -3.8863227162535358e-06 -2.5094435306010599e-06 -1.6645119472018013e-07 -2.3630379639399785e-06 -2.8993348165137378e-06 -1.0679359010204555e-06 8.6029048117430216e-07 -2.9353590359069953e-06 -8.1063719210848463e-07 -7.0006664094656947e-06 -1.1289297837177897e-06 4.3189336931164044e-07 -1.5159599528539214e-06 -4.7886285343465302e-06 -1.2664264359400354e-06 3.1760649272613353e-07 -8.1596389672168616e-07 -1.1504965236541996e-07 -4.454826621571548e-07
leaf_weight=123 78 107 917 43 334 873 9635 14.999999999999998 498 73 1487 4530 508 291 81 835 8.9999999999999982 1558 1002
leaf_count=123 78 107 917 43 334 873 9635 15 498 73 1487 4530 508 291 81 835 9 1558 1002
internal_value=0 -3.95291e-06 2.89612e-07 -8.86073e-06 -2.84942e-06 -6.03578e-07 6.69494e-07 -1.14674e-05 -3.5964e-07 -5.34666e-06 -1.30347e-06 3.31042e-07 -2.14412e-06 -4.25241e-06 -2.55442e-06 -1.11242e-07 -6.48433e-06 -2.86642e-07 -7.35523e-07
internal_weight=0 1503 21494 263 1240 6412 15082 138 4766 125 1646 5447 842 398 159 2891 82 2056 1875
internal_count=22997 1503 21494 263 1240 6412 15082 138 4766 125 1646 5447 842 398 159 2891 82 2056 1875
cat_boundaries=0 1 2 3
cat_threshold=263461952 67110912 226900992
is_linear=0
shrinkage=0.00181364


Tree=4
num_leaves=20
num_cat=1
split_feature=20 20 20 20 25 37 25 25 8 0 8 75 20 17 46 77 93 8 8
split_gain=0.00768509 0.00255372 0.00194949 0.000487048 0.000307666 0.000289282 0.000255605 0.000110549 0.000103486 0.000110417 0.000100389 0.000101535 8.65359e-05 8.28374e-05 6.75499e-05 6.05696e-05 6.0315e-05 4.93968e-05 4.35886e-05
threshold=-0.00023099206737242636 -2.4274360839626748e-05 -0.00060724103241227556 4.8161648010136566e-05 -0.0020365077070891853 -0.0004446584935067221 -0.010418693069368599 0.00014205412298906597 13.500000000000002 0 26.500000000000004 0.065671797841787352 -0.00012898084969492626 1.2085006237030032 -0.00010755499897641128 0.10556958988308908 1.1901388764381411 12.500000000000002 15.500000000000002
decision_type=2 2 2 2 2 2 2 2 2 1 2 2 2 2 2 2 2 2 2
left_child=2 4 6 7 12 13 10 -3 9 15 11 -1 -2 -4 -5 17 -8 -6 -9
right_child=1 3 5 14 8 -7 16 18 -10 -11 -12 -13 -14 -15 -16 -17 -18 -19 -20
leaf_value=-2.2134731897470751e-06 -2.7803805420660762e-06 -1.3615129095158281e-07 -4.2475720427399644e-06 8.7270810173180902e-07 -6.1939404117476246e-06 -3.7724615935872676e-06 -5.6796411128118538e-06 7.6306847280998112e-09 -4.6557560979429352e-07 -1.0512429417580475e-06 -4.5786650756093576e-06 -2.00941097718071e-05 -1.625156540304022e-06 -7.8938971081732979e-06 1.336607973745546e-06 -1.4128718227071704e-06 -1.2362374549427882e-05 -6.312970724018055e-07 6.9777845912006069e-07
leaf_weight=4.9999999999999991 845 2687 103 3275 63 540 52 800 2097 681 10.999999999999998 74 1114 254 7153 56 41 15.999999999999998 3130
leaf_count=5 845 2687 103 3275 63 540 52 800 2097 681 11 74 1114 254 7153 56 41 16 3130
internal_value=0 3.55149e-07 -6.82449e-06 8.36762e-07 -1.32806e-06 -5.11446e-06 -1.45071e-05 2.76144e-07 -7.79921e-07 -1.57233e-06 -1.81726e-05 -1.93383e-05 -2.13504e-06 -6.98628e-06 1.19189e-06 -3.62465e-06 -9.53999e-06 -5.26485e-06 5.57666e-07
internal_weight=0 21917 1080 17045 4872 897 183 6617 2913 816 90 79 1959 357 10428 135 93 79 3930
internal_count=22997 21917 1080 17045 4872 897 183 6617 2913 816 90 79 1959 357 10428 135 93 79 3930
cat_boundaries=0 1
cat_threshold=4
is_linear=0
shrinkage=0.00263911


Tree=5
num_leaves=20
num_cat=4
split_feature=22 22 20 77 22 22 46 19 8 102 1 72 69 1 8 96 1 1 43
split_gain=0.00789464 0.00284294 0.00266611 0.000483089 0.000419666 0.000358061 0.000329581 0.000303303 0.000241747 0.00018302 0.000156147 0.00014023 0.000140063 0.000131879 0.000110391 0.000100207 9.8048e-05 7.80421e-05 7.5864e-05
threshold=-0.00096297930576838542 -9.0823374193860204e-05 -0.0009268811554647981 1.8641889095306399 0.00018478029960533607 -0.00040957485907711083 -0.0026258750585839148 -0.00013950467837275934 25.500000000000004 -1.8566046357154844 0 2.0143991708755498 3.7702651023864751 1 19.500000000000004 -2.7709089517593379 2 3 9.4297749456018223e-05
decision_type=2 2 2 2 2 2 2 2 2 2 1 2 2 1 2 2 1 1 2
left_child=2 5 3 6 16 13 8 -4 9 -1 14 15 -9 -2 -7 -11 18 -12 -3
right_child=1 4 7 -5 -6 10 -8 12 -10 11 17 -13 -14 -15 -16 -17 -18 -19 -20
leaf_value=-1.6201199451923184e-06 -3.7372335181640705e-06 -1.6750842154670014e-07 -1.1295661129159983e-05 -4.2393333580245491e-07 1.5688741890835426e-06 -7.9546574638110991e-06 -5.1893608094490311e-06 -4.5998010548176792e-06 -6.5820505424926526e-06 -4.3728114130447357e-06 -1.3752469676756589e-06 -2.4127514774730891e-06 -7.8528420341468783e-06 -1.9276304195555819e-06 -1.3292478304176959e-06 -3.7328748931835594e-05 7.0122981563739124e-07 -3.1509408511408368e-07 -8.0808268064044699e-06
leaf_weight=2.9999999999999991 972 1681 186 7.9999999999999991 9507 57 10.999999999999998 389 9.9999999999999982 3.999999999999992 1639 2.9999999999999991 344 1129 59 49.000000000000007 5383 1582 3.9999999999999991
leaf_count=3 972 1681 186 8 9507 57 11 389 10 4 1639 3 344 1129 59 49 5383 1582 4
internal_value=0 4.08217e-07 -9.23645e-06 -2.61662e-05 1.10481e-06 -1.71314e-06 -2.84073e-05 -7.3511e-06 -3.09833e-05 -3.35658e-05 -1.01912e-06 -3.47724e-05 -6.21161e-06 -2.80539e-06 -4.59324e-06 -3.59304e-05 4.79282e-07 -8.59709e-07 -2.32486e-07
internal_weight=0 22013 1007 88 16575 5438 80 919 69 59 3337 56 733 2101 116 53 7068 3221 1685
internal_count=23020 22013 1007 88 16575 5438 80 919 69 59 3337 56 733 2101 116 53 7068 3221 1685
cat_boundaries=0 1 2 3 4
cat_threshold=2048 230562884 81792064 267785312
is_linear=0
shrinkage=0.00338438


Tree=6
num_leaves=20
num_cat=2
split_feature=21 20 21 21 21 8 46 72 21 72 74 33 8 8 8 0 25 45 0
split_gain=0.00787152 0.00287708 0.00262056 0.000452042 0.000417514 0.000311342 0.000439718 0.000298196 0.000262789 0.000157099 0.000135352 0.000130936 8.74714e-05 8.53171e-05 8.257e-05 8.61941e-05 7.84375e-05 7.15532e-05 7.09711e-05
threshold=-0.00055196223547682155 -0.0009268811554647981 -6.3230709201889099e-05 0.00010519083662074992 -0.00096450117416679848 25.500000000000004 -0.0026258750585839148 2.0143991708755498 -0.00023264012270374221 -1.6981704235076902 0.011417273897677662 -3.8715001210221083e-05 13.500000000000002 20.500000000000004 13.500000000000002 0 -0.013664336875081061 1.242500002263114e-05 1
decision_type=2 2 2 2 2 2 2 2 2 2 2 2 2 2 2 1 2 2 1
left_child=1 5 8 13 11 6 7 9 14 -1 -11 16 18 -4 15 -2 -3 -6 -10
right_child=2 4 3 -5 17 -7 -8 -9 12 10 -12 -13 -14 -15 -16 -17 -18 -19 -20
leaf_value=-2.3690133995665775e-06 -3.1264191414517571e-06 -7.8549403150121725e-06 -1.231757219962691e-07 8.2314732192537548e-07 -3.7561367651516085e-06 -3.22120636011681e-06 -2.6717416502270301e-06 -1.1562159053553454e-06 -4.3013578664119285e-07 -4.7377361313770672e-06 -2.1011163814601464e-05 -2.5264435928577418e-06 -3.5256071739523826e-07 3.4221388529773044e-07 -1.1462468015392648e-06 -1.4246371523027359e-06 -4.8242101285952658e-06 -2.3476069082454437e-06 -1.5866084748724276e-06
leaf_weight=4.9999999999999991 166 80 1933 10599 225 13.999999999999998 11.999999999999998 4.9999999999999991 371 8.9999999999999982 43 72 2076 4272 1475 519 224 510 410
leaf_count=5 166 80 1933 10599 225 14 12 5 371 9 43 72 2076 4272 1475 519 224 510 410
internal_value=0 -4.58147e-06 2.43753e-07 5.92292e-07 -3.69886e-06 -1.42099e-05 -1.56579e-05 -1.74512e-05 -9.22506e-07 -1.84947e-05 -1.9413e-05 -5.29269e-06 -5.53145e-07 1.97269e-07 -1.40625e-06 -1.94157e-06 -5.84653e-06 -2.82342e-06 -1.07513e-06
internal_weight=0 1199 21821 16804 1111 88 74 62 5017 57 52 376 2857 6205 2160 685 304 735 781
internal_count=23020 1199 21821 16804 1111 88 74 62 5017 57 52 376 2857 6205 2160 685 304 735 781
cat_boundaries=0 1 2
cat_threshold=6 81
is_linear=0
shrinkage=0.00184076


Tree=7
num_leaves=20
num_cat=3
split_feature=21 20 21 21 21 8 46 72 21 9 33 1 72 1 1 25 8 45 8
split_gain=0.00772486 0.00284484 0.00257014 0.000443244 0.000408489 0.000309396 0.000435236 0.000295099 0.000257528 0.000198142 0.00012902 0.000121441 0.000112752 0.00010363 9.75609e-05 7.84362e-05 7.48468e-05 7.04761e-05 6.76036e-05
threshold=-0.00055196223547682155 -0.0009268811554647981 -6.3230709201889099e-05 0.00010519083662074992 -0.00096450117416679848 25.500000000000004 -0.0026258750585839148 2.0143991708755498 -0.00023264012270374221 -0.0016825250349938867 -3.8715001210221083e-05 0 -1.6981704235076902 1 2 -0.013664336875081061 13.500000000000002 1.242500002263114e-05 12.500000000000002
decision_type=2 2 2 2 2 2 2 2 2 2 2 1 2 1 1 2 2 2 2
left_child=1 5 8 13 10 6 7 9 11 12 15 16 -1 -4 18 -3 -2 -6 -10
right_child=2 4 3 -5 17 -7 -8 -9 14 -11 -12 -13 -14 -15 -16 -17 -18 -19 -20
leaf_value=-3.2863258485813885e-06 -3.8356503678097639e-06 -1.0917391958563056e-05 -4.5597644924894777e-07 1.1427599340750467e-06 -5.2174163227680733e-06 -4.4677059575124176e-06 -3.712190973183815e-06 -1.6038679940658701e-06 -3.2282719878456419e-06 -5.0393366334382519e-06 -3.4994110205489426e-06 -1.4503538206917372e-06 -2.8904649772982659e-05 4.2466363394489976e-07 -5.5787339949593721e-07 -6.6912323683150591e-06 -2.0784425041836887e-06 -3.258312756543942e-06 -1.0631420816719816e-06
leaf_weight=3.999999999999992 310 80 1060 10599 225 13.999999999999998 11.999999999999998 4.9999999999999991 159 8.0000000000000053 72 1408 45 5145 2438 224 442 510 260
leaf_count=4 310 80 1060 10599 225 14 12 5 159 8 72 1408 45 5145 2438 224 442 510 260
internal_value=0 -6.36485e-06 3.38172e-07 8.222e-07 -5.13442e-06 -1.979e-05 -2.18119e-05 -2.43129e-05 -1.28145e-06 -2.57682e-05 -7.34525e-06 -1.95298e-06 -2.77248e-05 2.73682e-07 -7.68706e-07 -8.11565e-06 -2.80682e-06 -3.92002e-06 -1.89664e-06
internal_weight=0 1199 21821 16804 1111 88 74 62 5017 57 376 2160 49 6205 2857 304 752 735 419
internal_count=23020 1199 21821 16804 1111 88 74 62 5017 57 376 2160 49 6205 2857 304 752 735 419
cat_boundaries=0 1 2 3
cat_threshold=95816800 77597696 75500544
is_linear=0
shrinkage=0.00258127


Tree=8
num_leaves=20
num_cat=4
split_feature=20 20 20 24 77 24 44 20 74 96 96 9 1 1 8 8 8 1 1
split_gain=0.00749182 0.00289461 0.00229673 0.000484799 0.000468411 0.000403247 0.000323234 0.000297061 0.00027704 0.000214717 0.00019759 0.00016267 0.000135941 0.000134273 0.000123855 9.50472e-05 8.52034e-05 7.17721e-05 6.84569e-05
threshold=-0.00020940758258802814 -0.0009268811554647981 -3.4271504034677486e-07 -0.0039653645362704984 1.8641889095306399 -0.00088299269555136551 0.00091377604985609661 5.3460124036064378e-05 0.011417273897677662 -2.7709089517593379 3.1361203193664555 -0.00091961497673764814 0 1 13.500000000000002 19.500000000000004 20.500000000000004 2 3
decision_type=2 2 2 2 2 2 2 2 2 2 2 2 1 1 2 2 2 1 1
left_child=1 4 5 11 6 12 -1 16 -8 -10 -11 -3 15 14 18 -2 17 -4 -7
right_child=2 3 7 -5 -6 13 8 -9 9 10 -12 -13 -14 -15 -16 -17 -18 -19 -20
leaf_value=-7.3563322929817476e-06 -3.2575796008227393e-06 -1.0037238226364534e-05 -1.1140189047669775e-06 -3.4601872087212927e-06 -3.1153630616771357e-07 -3.8032554415734609e-06 -5.094172049408701e-06 1.1677813927490638e-06 -2.1624776684658812e-06 -2.9620113469145495e-05 -2.6339288123764928e-06 -5.8104688650276121e-06 -1.1484260213223123e-06 -5.9549300092696674e-08 -4.9047378284569133e-07 -1.7371947054601695e-06 6.2921588628848775e-07 2.0652281028530468e-07 -1.3449375606195984e-06
leaf_weight=21 492 101 313 712 7.9999999999999991 116 9.9999999999999982 9248 3.9999999999999991 41 3.9999999999999991 373 1446 2477 799 706 4396 1436 317
leaf_count=21 492 101 313 712 8 116 10 9248 4 41 4 373 1446 2477 799 706 4396 1436 317
internal_value=0 -6.03669e-06 3.4173e-07 -4.8811e-06 -1.95236e-05 -9.5532e-07 -2.11967e-05 8.77321e-07 -2.43429e-05 -2.6742e-05 -2.81364e-05 -6.89988e-06 -1.71919e-06 -4.0763e-07 -1.09208e-06 -2.36382e-06 4.39001e-07 -3.99495e-08 -2.19071e-06
internal_weight=0 1274 21746 1186 88 6353 80 15393 59 49 45 474 2644 3709 1232 1198 6145 1749 433
internal_count=23020 1274 21746 1186 88 6353 80 15393 59 49 45 474 2644 3709 1232 1198 6145 1749 433
cat_boundaries=0 1 2 3 4
cat_threshold=261495908 115350560 100666376 67110912
is_linear=0
shrinkage=0.00256596


Tree=9
num_leaves=20
num_cat=4
split_feature=22 22 19 22 22 19 72 22 47 45 1 1 23 74 66 95 1 22 1
split_gain=0.0076379 0.00273788 0.00252824 0.000602227 0.000460084 0.000326438 0.000314621 0.000286518 0.000247686 0.000161788 0.000127947 0.000126436 0.000108493 9.60145e-05 0.000237063 0.000147329 9.4372e-05 5.91988e-05 4.767e-05
threshold=-0.00096297930576838542 -0.00012233634333824736 -0.00025806641497183586 -0.0038351311814039941 0.00015517014253418895 -0.00013950467837275934 2.0143991708755498 -0.00040957485907711083 -0.69796469807624806 8.4564999269787236e-05 0 1 -0.0033895366359502073 0.011417273897677662 -2.7684553861618038 -0.99062201380729664 2 0.00023420129582518714 3
decision_type=2 2 2 2 2 2 2 2 10 2 1 1 2 2 2 2 1 2 1
left_child=2 7 3 6 16 12 8 10 13 -7 -2 -9 -4 -1 -15 -16 -3 -6 -13
right_child=1 4 5 -5 17 9 -8 11 -10 -11 -12 18 -14 14 15 -17 -18 -19 -20
leaf_value=-3.2913570362809438e-06 -9.4338114005498676e-07 -2.1063774705475199e-07 -7.6857760818795998e-06 -3.331474325748037e-06 6.0409777300355313e-07 -4.09077605311494e-06 -1.6803869122756279e-06 -1.6123357749887964e-06 -2.4916190143213623e-06 -2.2886744759976071e-06 -1.8779006427494137e-06 -6.95020457215246e-07 -3.9953400028522741e-06 -1.5215596166830091e-06 -1.5780699979590025e-06 -2.1081654289948464e-05 2.9306976049530659e-07 8.8094830439990543e-07 -2.0350561345089324e-07
leaf_weight=5.9999999999999991 1013 1540 82 22 4076 353 6.9999999999999991 317 6.9999999999999991 383 1088 1210 100 3.9999999999999991 2.9999999999999991 40 4834 6584 1351
leaf_count=6 1013 1540 82 22 4076 353 7 317 7 383 1088 1210 100 4 3 40 4834 6584 1351
internal_value=0 2.10635e-07 -4.77588e-06 -1.33949e-05 5.49829e-07 -3.80493e-06 -1.58375e-05 -9.4858e-07 -1.70131e-05 -3.19625e-06 -1.44729e-06 -5.80761e-07 -5.97176e-06 -1.82311e-05 -1.92263e-05 -2.02754e-05 1.71361e-07 7.75756e-07 -4.39319e-07
internal_weight=0 22013 1007 89 17034 918 67 4979 60 736 2101 2878 182 53 47 43 6374 10660 2561
internal_count=23020 22013 1007 89 17034 918 67 4979 60 736 2101 2878 182 53 47 43 6374 10660 2561
cat_boundaries=0 1 2 3 4
cat_threshold=4064404250 67111936 81792064 200675424
is_linear=0
shrinkage=0.00177897


Tree=10
num_leaves=20
num_cat=0
split_feature=22 22 22 14 22 22 19 47 8 55 23 8 8 98 87 107 22 19 19
split_gain=0.00799931 0.00270271 0.00258032 0.000480267 0.000377774 0.000375609 0.000356214 0.000300949 0.000345031 0.00033102 0.000136005 9.20004e-05 8.88033e-05 7.77653e-05 7.50628e-05 6.90282e-05 6.84881e-05 6.40759e-05 6.04935e-05
threshold=-0.00096297930576838542 -0.0038351311814039941 -6.8011886469321312e-05 -0.0008269099926110356 -0.00040957485907711083 0.00014257009024731818 -9.1411609901115285e-05 -1.2139947414398191 26.500000000000004 1.1735777258872988 -0.0030314982868731018 20.500000000000004 25.500000000000004 0.018249986693263057 0.027777762152254585 1.8643888235092165 -0.00067867443431168784 1.5651549801987134e-05 -6.3906491050147443e-06
decision_type=2 2 2 2 2 2 2 10 2 2 2 2 2 2 2 2 2 2 2
left_child=1 3 4 -1 16 11 10 8 9 -5 15 -4 18 -12 -8 -3 -2 -7 -6
right_child=2 6 5 7 12 17 14 -9 -10 -11 13 -13 -14 -15 -16 -17 -18 -19 -20
leaf_value=-5.0949728295222466e-06 -2.166893316141664e-06 -7.6285641945658295e-06 -2.119913682825195e-07 -7.7784668978860297e-07 -1.0071124146686332e-06 7.098515916246919e-07 -1.9120000580480751e-06 -6.4996192624046253e-06 -4.7274543620785101e-06 -2.650532109441617e-05 -2.2040452120928709e-06 3.9913666174028305e-07 -5.7690743654560173e-08 -5.264236112996597e-06 -3.8460307160693154e-06 -3.5112020198201805e-07 -1.3519197023028632e-06 1.039849763705164e-06 -3.2258481354828449e-07
leaf_weight=23 770 190 1577 2.9999999999999991 1606 4626 180 18 9.9999999999999982 33 70 3560 1171 214 284 6.9999999999999991 1385 6433 913
leaf_count=23 770 190 1577 3 1606 4626 180 18 10 33 70 3560 1171 214 284 7 1385 6433 913
internal_value=0 -5.73486e-06 2.49859e-07 -1.64383e-05 -9.51234e-07 6.83643e-07 -4.58765e-06 -1.92754e-05 -2.22212e-05 -2.49965e-05 -5.88023e-06 2.1148e-07 -5.38749e-07 -4.61059e-06 -3.15193e-06 -7.39943e-06 -1.65178e-06 9.02577e-07 -7.61265e-07
internal_weight=0 1032 22041 87 5845 16196 945 64 46 36 481 5137 3690 284 464 197 2155 11059 2519
internal_count=23073 1032 22041 87 5845 16196 945 64 46 36 481 5137 3690 284 464 197 2155 11059 2519
is_linear=0
shrinkage=0.00211069


Tree=11
num_leaves=20
num_cat=0
split_feature=19 29 9 44 25 19 104 37 8 25 19 8 8 25 43 25 39 19 25
split_gain=0.00771203 0.00284105 0.00213729 0.000900301 0.000531893 0.000408725 0.000400333 0.000353491 0.000340565 0.000155766 0.000153696 0.000153695 9.52395e-05 9.29343e-05 8.92923e-05 8.27815e-05 6.87912e-05 6.16565e-05 5.92475e-05
threshold=-8.4483530372381197e-05 -0.00012219999916851518 -0.0016825250349938867 0.00091377604985609661 -0.0031328229233622547 1.3230636795924513e-05 0.01142304250970483 -0.0004446584935067221 26.500000000000004 -0.0087055508047342283 -3.4180224247393192e-05 8.5000000000000018 13.500000000000002 -0.013664336875081061 3.9476999518228702e-05 -0.00017546438903082159 -0.00017777000175556165 -2.7437719836598259e-05 4.7955240006558604e-05
decision_type=2 2 2 2 2 2 2 2 2 2 2 2 2 2 2 2 2 2 2
left_child=2 4 3 -1 9 15 -5 13 11 16 -6 -8 -12 -4 -7 -3 -2 -11 -14
right_child=1 5 7 6 10 14 8 -9 -10 17 12 -13 18 -15 -16 -17 -18 -19 -20
leaf_value=-4.3890479349622001e-06 -3.7954999748611153e-06 -1.9893699556981946e-07 -6.7942296360855813e-06 -1.2288963911827763e-06 -9.8479778509653993e-07 3.8766607920147472e-07 -2.181453946816958e-06 -2.5176961552035693e-06 -2.9079947126166517e-06 -1.566687460192632e-06 -7.432744982001889e-07 -1.9798135863458209e-05 -3.2638180694240952e-07 -4.1498506520489492e-06 7.2960216042325799e-07 2.4742368037483546e-07 -1.8303387146478897e-06 -8.6551956666029368e-07 1.753433447816313e-07
leaf_weight=39 88 1428 77 5.9999999999999991 1076 2401 3.9999999999999991 333 7.9999999999999991 840 892 33 1624 265 8944 3429 153 556 877
leaf_count=39 88 1428 77 6 1076 2401 4 333 8 840 892 33 1624 265 8944 3429 153 556 877
internal_value=0 1.53363e-07 -4.85781e-06 -1.16893e-05 -7.53691e-07 4.95456e-07 -1.56372e-05 -3.7896e-06 -1.69855e-05 -1.51298e-06 -4.72807e-07 -1.8763e-05 -3.08026e-07 -4.92133e-06 6.57642e-07 1.16051e-07 -2.67053e-06 -1.29557e-06 -1.50449e-07
internal_weight=0 22308 765 90 6106 16202 51 675 45 1637 4469 37 3393 342 11345 4857 241 1396 2501
internal_count=23073 22308 765 90 6106 16202 51 675 45 1637 4469 37 3393 342 11345 4857 241 1396 2501
is_linear=0
shrinkage=0.00156169


Tree=12
num_leaves=20
num_cat=0
split_feature=21 21 21 21 21 21 14 8 108 18 47 18 8 8 21 8 41 19 21
split_gain=0.00791194 0.00271247 0.0025923 0.000377369 0.000364491 0.000343639 0.00031157 0.000334883 0.000432906 0.000214708 0.000355125 0.000121486 9.45889e-05 8.53084e-05 6.36024e-05 6.19859e-05 4.44262e-05 3.91237e-05 3.81038e-05
threshold=-0.00060870131710544218 -0.0023908504517748948 -4.3866111809620627e-05 0.0001202043531520758 -0.00087498201173730184 -0.00024796495563350612 -0.0008269099926110356 27.500000000000004 -1.4454453587532041 -3.5359998946660191e-05 -1.1508284807205198 -0.0012271250016055999 20.500000000000004 13.500000000000002 -0.00041434096056036646 10.500000000000002 -2.3320766687393184 -0.00025806641497183586 0.00015057030395837503
decision_type=2 2 2 2 2 2 2 2 2 2 10 2 2 2 2 2 10 2 2
left_child=1 6 5 12 11 14 -1 8 -8 10 17 -3 -4 15 -2 -7 -13 -10 -5
right_child=2 4 3 18 -6 13 7 -9 9 -11 -12 16 -14 -15 -16 -17 -18 -19 -20
leaf_value=-5.9924929862361693e-06 -2.52387847340486e-06 -8.2202788810641287e-06 -1.0978796221682426e-07 9.2003488852633485e-07 -3.8197053423215093e-06 -3.237670498182508e-07 -2.32790716989813e-06 -4.4735979433982119e-06 -3.7338710271171069e-05 -5.5130779949867123e-06 -7.4862626000394206e-06 -1.4063391841489883e-06 5.4866887413870746e-07 -4.3178702823075581e-07 -1.600264503150071e-06 -1.7560297518475414e-06 -5.4392736082710723e-06 -8.0378214904094593e-06 1.2620890034762292e-06
leaf_weight=18 854 305 2023 3494 471 286 6.9999999999999991 10.999999999999998 21.999999999999996 7.9999999999999991 11.000000000000002 30 4723 2530 1362 658 134 7.0000000000000027 6119
leaf_count=18 854 305 2023 3494 471 286 7 11 22 8 11 30 4723 2530 1362 658 134 7 6119
internal_value=0 -6.92013e-06 2.9879e-07 8.14515e-07 -5.54334e-06 -1.18277e-06 -2.00983e-05 -2.26506e-05 -2.50385e-05 -2.73781e-05 -2.97739e-05 -7.15845e-06 3.5134e-07 -6.7899e-07 -1.96595e-06 -1.33004e-06 -4.82476e-06 -3.41406e-05 1.13885e-06
internal_weight=0 1024 22049 16359 940 5690 84 66 55 48 40 469 6746 3474 2216 944 164 29 9613
internal_count=23073 1024 22049 16359 940 5690 84 66 55 48 40 469 6746 3474 2216 944 164 29 9613
is_linear=0
shrinkage=0.00255061


Tree=13
num_leaves=20
num_cat=0
split_feature=26 26 23 14 23 78 18 23 19 19 107 19 8 24 19 45 14 87 8
split_gain=0.00754976 0.00265788 0.00224634 0.000599536 0.000550594 0.000409273 0.000478724 0.000396705 0.000275455 0.000134802 0.000127711 9.64241e-05 9.24428e-05 8.06402e-05 6.58551e-05 6.26182e-05 5.87023e-05 5.80087e-05 4.70629e-05
threshold=-0.00037445999623741949 -0.0016410599928349254 -0.00015419885312439871 0.0017508399905636909 -0.0026780185289680953 -1.4796045422554014 -3.3029999030986794e-05 0.00025334625388495629 -3.4180224247393192e-05 -9.1411609901115285e-05 1.2675672769546511 6.9298375819926159e-06 13.500000000000002 -0.0012758481898345051 1.5456817891390532e-05 -0.00016104999667732042 0.0017508399905636909 0.0044652253855019816 25.500000000000004
decision_type=2 2 2 2 2 2 2 2 2 2 2 2 2 2 2 2 2 2 2
left_child=1 3 8 10 16 -5 -7 12 15 17 -1 13 -4 -10 -9 -2 -3 -6 -15
right_child=2 4 7 5 9 6 -8 14 11 -11 -12 -13 -14 18 -16 -17 -18 -19 -20
leaf_value=-1.2482366842257143e-05 -5.6701749542673278e-06 -7.8837386365507531e-06 -4.1481037402988446e-07 -1.8926784346628054e-06 -2.1986164948709594e-06 -3.5557553918360519e-05 -4.3463556903001245e-06 6.9118315163887208e-07 -1.4547559364037995e-06 -2.8810801829741096e-06 -1.5195377004306637e-06 2.122199958853162e-08 4.058671269461696e-07 -8.8652469331476348e-07 1.181569512030212e-06 -1.9277317844335672e-06 -4.1622100728763773e-07 -5.7915598943156072e-06 -4.3274507903984273e-08
leaf_weight=51 22 317 1051 5.0000000000000027 52 18.000000000000007 6.9999999999999956 2277 1202 518 10.999999999999998 833 4921 1318 8187 1438 7.9999999999999991 220 617
leaf_count=51 22 317 1051 5 52 18 7 2277 1202 518 11 833 4921 1318 8187 1438 8 220 617
internal_value=0 -6.13499e-06 3.15632e-07 -1.85414e-05 -4.95561e-06 -2.74472e-05 -3.05571e-05 7.79963e-07 -1.0887e-06 -3.73698e-06 -1.10185e-05 -7.41134e-07 2.60986e-07 -9.42994e-07 1.07562e-06 -2.02231e-06 -7.71783e-06 -5.207e-06 -6.19248e-07
internal_weight=0 1207 21866 92 1115 30 25 16436 5430 790 62 3970 5972 3137 10464 1460 325 272 1935
internal_count=23073 1207 21866 92 1115 30 25 16436 5430 790 62 3970 5972 3137 10464 1460 325 272 1935
is_linear=0
shrinkage=0.00252072


Tree=14
num_leaves=20
num_cat=4
split_feature=22 22 22 22 22 19 19 28 98 75 57 47 1 1 1 57 0 34 22
split_gain=0.00761369 0.0026173 0.00244142 0.000357628 0.000355957 0.000352292 0.000338909 0.000172363 0.000126232 0.000115263 0.000113344 0.000152413 0.000112909 9.68864e-05 8.35184e-05 7.69989e-05 6.55534e-05 6.18029e-05 5.098e-05
threshold=-0.00096297930576838542 -0.0038351311814039941 -6.8011886469321312e-05 -0.00040957485907711083 0.00014257009024731818 -0.00025806641497183586 -9.1411609901115285e-05 9.9994998890906586e-05 0.043415347114205367 0.065671797841787352 3.9364992380142216 -1.2139947414398191 0 1 2 0.026162586174905304 3 9.7389998700236915e-05 -0.0007604052370879798
decision_type=2 2 2 2 2 2 2 2 2 2 2 10 1 1 1 2 1 2 2
left_child=1 5 3 13 14 7 8 9 -3 -1 11 -11 16 18 -4 -8 -5 -6 -2
right_child=2 6 4 12 17 -7 15 -9 -10 10 -12 -13 -14 -15 -16 -17 -18 -19 -20
leaf_value=-2.2630224514522898e-06 -5.0933598445269229e-06 -6.1394028845471696e-06 -3.9569329610775329e-07 -2.6147672874320533e-06 1.1197475595967397e-06 -1.0186522610420456e-05 -3.0064161910516132e-06 -1.1761482957091839e-06 -1.0880098787582475e-05 -4.0204357366229894e-05 -2.4796050749918751e-06 -1.3126538524111442e-05 -3.4085609698249207e-07 -1.9007670422654813e-06 6.1242953589519455e-07 -6.2554785956655401e-06 -1.0359216005517864e-06 1.6694398187039836e-06 -3.0377909899768829e-06
leaf_weight=2.9999999999999991 222 151 1378 518 4167 26 176 2.9999999999999991 330 35 2.9999999999999991 17 2142 1164 3759 288 1030 6892 769
leaf_count=3 222 151 1378 518 4167 26 176 3 330 35 3 17 2142 1164 3759 288 1030 6892 769
internal_value=0 -9.32656e-06 4.05009e-07 -1.54227e-06 1.10828e-06 -2.68791e-05 -7.44608e-06 -3.15571e-05 -9.5472e-06 -3.27245e-05 -3.37823e-05 -3.4897e-05 -8.7335e-07 -2.67834e-06 3.42178e-07 -5.1125e-06 -1.59086e-06 1.46352e-06 -3.50949e-06
internal_weight=0 1032 22041 5845 16196 87 945 61 481 58 55 52 3690 2155 5137 464 1548 11059 991
internal_count=23073 1032 22041 5845 16196 87 945 61 481 58 55 52 3690 2155 5137 464 1548 11059 991
cat_boundaries=0 1 2 3 4
cat_threshold=261364832 230038628 98569280 6
is_linear=0
shrinkage=0.00351798


Tree=15
num_leaves=20
num_cat=1
split_feature=22 20 21 26 14 21 21 8 39 9 8 8 8 22 29 16 8 92 0
split_gain=0.00716421 0.00261002 0.00229863 0.000470414 0.00059052 0.000430807 0.000272448 0.000252466 0.000170871 8.40912e-05 8.29297e-05 6.21128e-05 7.09274e-05 6.18784e-05 5.33526e-05 4.77749e-05 4.69195e-05 4.50315e-05 4.29372e-05
threshold=-0.00091588337090797711 -0.00060724103241227556 -6.7124434281140552e-05 -0.0016410599928349254 -1.0000000180025095e-35 0.00010398880112916233 -0.00024796495563350612 22.500000000000004 -0.00017777000175556165 -6.3260002207243802e-05 20.500000000000004 13.500000000000002 10.500000000000002 0.00022668959718430418 -0.00085579999722540368 0.05305698141455651 13.500000000000002 0.021846063435077671 0
decision_type=2 2 2 2 2 2 2 2 2 2 2 2 2 2 2 2 2 2 1
left_child=1 3 6 4 -1 10 11 -6 -3 14 -4 12 -2 -7 17 -5 18 -10 -8
right_child=2 8 5 15 7 13 16 -9 9 -11 -12 -13 -14 -15 -16 -17 -18 -19 -20
leaf_value=-4.5218306561801274e-06 -8.922670963956028e-07 -4.4572353424053467e-06 -1.4854394944184194e-07 -1.5543993690151875e-06 -1.8326708581924402e-05 5.6964423326192341e-07 -1.5070024535051353e-06 -4.1144074881891823e-06 -2.070041108636265e-06 -6.0562017828863897e-07 3.0724772043824303e-07 -1.1494959785222528e-06 -2.2625636328514887e-06 8.6965343947063066e-07 -2.1979599072911103e-06 -7.2061607984105984e-06 -3.5546479529844815e-07 -4.1817281485185571e-06 -5.5207877393587913e-07
leaf_weight=29 203 247 1972 11.999999999999998 51 3572 246 11.999999999999998 88 74 4266 1409 456 7228 351 105 2064 151 577
leaf_count=29 203 247 1972 12 51 3572 246 12 88 74 4266 1409 456 7228 351 105 2064 151 577
internal_value=0 -4.52537e-06 2.27749e-07 -1.02635e-05 -1.35764e-05 5.48709e-07 -8.74769e-07 -1.65541e-05 -3.1118e-06 -2.55261e-06 1.63153e-07 -1.3838e-06 -1.8601e-06 7.71047e-07 -2.78264e-06 -6.79453e-06 -5.06623e-07 -3.51856e-06 -8.76895e-07
internal_weight=0 1120 21993 209 92 17038 4955 63 911 664 6238 2068 659 10800 590 117 2887 239 823
internal_count=23113 1120 21993 209 92 17038 4955 63 911 664 6238 2068 659 10800 590 117 2887 239 823
cat_boundaries=0 1
cat_threshold=6
is_linear=0
shrinkage=0.00184102


Tree=16
num_leaves=20
num_cat=3
split_feature=20 23 26 9 20 23 46 68 20 25 92 1 1 107 1 19 41 18 41
split_gain=0.00712081 0.00295007 0.00186785 0.000587695 0.00055525 0.000471281 0.000305674 0.000354381 0.00022573 0.000194103 0.000124742 0.000113979 9.27444e-05 7.72441e-05 7.69429e-05 6.81295e-05 5.77742e-05 5.5854e-05 5.33532e-05
threshold=-0.0003201585059287026 -0.00020649423822760579 -0.0016410599928349254 -0.0016825250349938867 -0.00012898084969492626 0.00023264025367097932 -0.0036247899988666172 0.0074208138976246127 -0.00060724103241227556 -0.0080076572485268099 0.021846063435077671 0 1 1.8643888235092165 2 1.5335893294832207e-05 0.31196892261505133 -3.9894999645184719e-05 0.38529436290264135
decision_type=2 2 2 2 2 2 2 2 2 2 2 1 1 2 1 2 10 2 10
left_child=2 4 3 6 9 12 7 -1 13 -2 -10 -6 18 -4 -11 -7 -9 -5 -3
right_child=1 5 8 17 11 15 -8 16 10 14 -12 -13 -14 -15 -16 -17 -18 -19 -20
leaf_value=-1.8814069431688935e-06 -2.9451904573268385e-06 -1.4495978914436173e-07 -5.9905303442917406e-06 -5.2204040465102591e-06 -2.181572561017076e-07 4.1044383702379131e-07 -2.3472813786172053e-06 -1.7272766396439089e-05 -1.5367540360033911e-06 -1.7392426061382641e-06 -3.5787457869992986e-06 -7.6427613594070248e-07 2.2784009404390747e-07 -6.0126780180825763e-07 -9.8064379675022643e-07 6.9849085287421606e-07 -1.7466003802308354e-06 4.4824866586927171e-08 -1.8822608884092391e-06
leaf_weight=6.9999999999999991 197 1753 108 36 1808 2504 8.9999999999999982 38 117 697 316 1787 4140 8.9999999999999982 891 8656 2.9999999999999991 4.9999999999999991 32
leaf_count=7 197 1753 108 36 1808 2504 9 38 117 697 316 1787 4140 9 891 8656 3 5 32
internal_value=0 1.40969e-07 -4.93616e-06 -1.08134e-05 -8.40426e-07 4.50317e-07 -1.38564e-05 -1.52376e-05 -3.71455e-06 -1.53207e-06 -3.07413e-06 -4.93714e-07 1.03319e-07 -5.65596e-06 -1.33943e-06 6.34286e-07 -1.67019e-05 -4.69542e-06 -1.85385e-07
internal_weight=0 22465 648 98 5380 17085 57 48 550 1785 433 3595 5925 117 1588 11160 41 41 1785
internal_count=23113 22465 648 98 5380 17085 57 48 550 1785 433 3595 5925 117 1588 11160 41 41 1785
cat_boundaries=0 1 2 3
cat_threshold=4031504818 132123712 234101824
is_linear=0
shrinkage=0.00152125


Tree=17
num_leaves=20
num_cat=0
split_feature=21 21 21 15 21 21 68 19 46 74 8 8 108 8 43 8 27 21 74
split_gain=0.00703643 0.00294827 0.00173752 0.000578584 0.0004902 0.000425084 0.000373764 0.000218595 0.000195091 9.7984e-05 8.52418e-05 8.18164e-05 7.46341e-05 6.67978e-05 6.59146e-05 5.80424e-05 5.76814e-05 5.66243e-05 5.44517e-05
threshold=-0.00080236571375280608 -6.7124434281140552e-05 -0.0023908504517748948 0.0018793650087900462 -0.00035909308644477273 0.00010398880112916233 0.0074208138976246127 -0.00017250369273824615 -0.0036247899988666172 0.03734607249498368 13.500000000000002 20.500000000000004 -1.4454453587532041 16.500000000000004 -0.00039570525404997165 10.500000000000002 0.0014498308300971987 0.0001470732313464396 0.86358094215393078
decision_type=2 2 2 2 2 2 2 2 2 2 2 2 2 2 2 2 2 2 2
left_child=2 4 3 13 14 11 -5 16 12 -9 15 -3 -8 -1 18 -6 -4 -7 -2
right_child=1 5 7 6 10 17 8 9 -10 -11 -12 -13 -14 -15 -16 -17 -18 -19 -20
leaf_value=-1.1398336374475579e-05 -2.5803864899202461e-06 -1.96038126384021e-07 -9.4933203493536458e-06 -1.9260933914820053e-06 -5.6277638253907233e-07 7.7927052378088402e-07 -2.9536484166618468e-06 -2.6774336775909885e-06 -4.8023911048319277e-06 -5.7148221065721719e-06 -6.3767986584281109e-07 4.0637199898671636e-07 -3.0069196057073865e-05 -3.6000553580028275e-06 -2.2516664182634377e-06 -1.7901147167094727e-06 -9.4104459115155149e-09 1.1537830111975471e-06 -5.2950649553046248e-06
leaf_weight=34 161 1972 107 5.9999999999999991 339 3899 3.0000000000000027 114 6.9999999999999991 321 2733 4266 26 23 1299 810 3.9999999999999991 6901 88
leaf_count=34 161 1972 107 6 339 3899 3 114 7 321 2733 4266 26 23 1299 810 4 6901 88
internal_value=0 2.24576e-07 -7.92081e-06 -1.70062e-05 -1.34578e-06 7.25543e-07 -2.37182e-05 -5.99723e-06 -2.61419e-05 -4.99687e-06 -8.77045e-07 2.15925e-07 -2.87407e-05 -9.25864e-06 -2.50808e-06 -1.43598e-06 -9.18058e-06 1.01942e-06 -3.70719e-06
internal_weight=0 22468 645 99 5430 17038 42 546 36 435 3882 6238 29 57 1548 1149 111 10800 249
internal_count=23113 22468 645 99 5430 17038 42 546 36 435 3882 6238 29 57 1548 1149 111 10800 249
is_linear=0
shrinkage=0.00244974


Tree=18
num_leaves=20
num_cat=0
split_feature=26 23 19 26 14 19 23 44 25 96 25 68 23 23 76 24 12 19 96
split_gain=0.00686614 0.00258468 0.00214802 0.000606123 0.000533673 0.000465326 0.000401459 0.000280504 0.000204464 0.000198365 0.00014008 0.000118787 9.07882e-05 5.91802e-05 5.3521e-05 5.0549e-05 4.73798e-05 4.03054e-05 3.96797e-05
threshold=-0.00046743833809159691 -0.00015419885312439871 -0.00017250369273824615 -0.0016410599928349254 -1.0000000180025095e-35 -3.4180224247393192e-05 0.00028563350497279322 0.00091377604985609661 -0.0049282934051007024 -2.6943035125732417 -0.0080076572485268099 0.0074208138976246127 -0.00061160957557149221 0.00012666241673287007 0.035998035222291953 -0.00034166342811658973 3.4719998438959017e-05 1.5605929547746204e-05 2.5931192636489873
decision_type=2 2 2 2 2 2 2 2 2 2 2 2 2 2 2 2 2 2 2
left_child=2 5 3 4 -1 10 13 -6 16 -9 -2 -11 -7 -3 -5 -12 -4 -8 -13
right_child=1 6 8 14 7 12 17 9 -10 11 15 18 -14 -15 -16 -17 -18 -19 -20
leaf_value=-4.6709809653519965e-06 -4.3175619267337009e-06 5.2083519234803999e-08 -5.3787526825503437e-06 -1.8806809509133181e-06 -5.7620269918108107e-06 -1.1126754348610901e-06 7.0903616069678624e-07 -1.9537981526445585e-06 -2.363245956010241e-06 -4.3495301043996068e-06 -1.990566978713623e-06 -2.8303671705162412e-05 -3.9143680235051902e-07 4.8078524038552381e-07 -8.7224228154418166e-06 -5.3499439734157161e-07 -1.1748958413521605e-06 1.0557015825702009e-06 -6.6312005537202862e-06
leaf_weight=21 128 3534 385 12.999999999999998 13.999999999999998 1416 2363 3.9999999999999991 233 5.9999999999999991 1460 30 2495 3130 101 144 21 7607 7.9999999999999991
leaf_count=21 128 3534 385 13 14 1416 2363 4 233 6 1460 30 2495 3130 101 144 21 7607 8
internal_value=0 2.35406e-07 -6.35731e-06 -1.27681e-05 -1.75435e-05 -1.09173e-06 6.86017e-07 -2.06492e-05 -4.21463e-06 -2.32492e-05 -2.06909e-06 -2.44648e-05 -6.54737e-07 2.53858e-07 -8.15681e-06 -1.86402e-06 -5.19478e-06 9.74331e-07 -2.60731e-05
internal_weight=0 22277 836 197 83 5643 16634 62 639 48 1732 44 3911 6664 114 1604 406 9970 38
internal_count=23113 22277 836 197 83 5643 16634 62 639 48 1732 44 3911 6664 114 1604 406 9970 38
is_linear=0
shrinkage=0.00227145


Tree=19
num_leaves=20
num_cat=3
split_feature=21 21 21 14 21 21 68 60 20 1 1 1 68 27 21 21 76 25 43
split_gain=0.00706978 0.00295866 0.00175007 0.00063724 0.000490294 0.000426292 0.000331973 0.000319861 0.000225563 0.000122461 0.000119453 8.62616e-05 8.05994e-05 7.84648e-05 6.13066e-05 5.67699e-05 4.53286e-05 4.42349e-05 3.94082e-05
threshold=-0.00080236571375280608 -6.7124434281140552e-05 -0.0023908504517748948 -1.0000000180025095e-35 -0.00035909308644477273 0.00010398880112916233 0.0074208138976246127 -1.4012666940689085 -0.00060724103241227556 0 1 2 0.038042275235056884 0.0014498308300971987 -0.00024796495563350612 0.0001446423266315833 0.035998035222291953 -0.0049282934051007024 9.4643499323865412e-05
decision_type=2 2 2 2 2 2 2 2 2 1 1 1 2 2 2 2 2 2 2
left_child=2 4 3 -1 9 11 -5 -8 13 17 -6 18 -10 16 -12 -7 -4 -2 -3
right_child=1 5 8 6 10 15 7 -9 12 -11 14 -13 -14 -15 -16 -17 -18 -19 -20
leaf_value=-5.5992495701594028e-06 -4.1630462374281833e-06 -9.9511062106638573e-08 -1.9215633377420778e-06 -1.8348290158999885e-06 -3.6904293711314315e-07 6.7297501737483861e-07 -6.074641102596332e-06 -2.3652082404129679e-05 -2.6339768260573972e-06 -1.7158723562762366e-06 -1.7836853318088779e-06 3.9680100653630791e-07 -5.0670961515245491e-06 9.0957933316853818e-08 -9.1163253678440784e-07 1.0140657168102125e-06 -9.0036880012579765e-06 -2.5567323976626132e-06 -3.1590938652501954e-06
leaf_weight=36 182 2451 10.999999999999998 6.9999999999999991 1846 3490 14.999999999999998 41 129 1055 527 3777 304 4.9999999999999991 1509 7310 97 311 9.9999999999999982
leaf_count=36 182 2451 11 7 1846 3490 15 41 129 1055 527 3777 304 5 1509 7310 97 311 10
internal_value=0 1.99356e-07 -7.03275e-06 -1.5109e-05 -1.19408e-06 6.43885e-07 -1.90317e-05 -2.05776e-05 -5.32297e-06 -2.22373e-06 -7.78839e-07 1.91833e-07 -4.41804e-06 -8.14946e-06 -1.1394e-06 9.04567e-07 -8.50633e-06 -3.15793e-06 -1.24175e-07
internal_weight=0 22468 645 99 5430 17038 63 56 546 1548 3882 6238 433 113 2036 10800 108 493 2461
internal_count=23113 22468 645 99 5430 17038 63 56 546 1548 3882 6238 433 113 2036 10800 108 493 2461
cat_boundaries=0 1 2 3
cat_threshold=83233856 4031504794 133434440
is_linear=0
shrinkage=0.00216993


Tree=20
num_leaves=20
num_cat=5
split_feature=19 23 23 38 14 23 74 103 19 18 1 28 1 19 1 73 1 0 9
split_gain=0.00807607 0.00419144 0.000904197 0.00084437 0.000737227 0.000658424 0.000400014 0.000448995 0.000337921 0.000252086 0.000150563 0.00014657 0.000106942 9.55859e-05 9.35725e-05 5.58987e-05 5.23657e-05 7.17687e-05 4.67841e-05
threshold=-0.00017250369273824615 -0.00037203232932370151 -0.0021483972668647762 0.0012981971958652141 -0.0008269099926110356 0.00017728030798025432 0.011417273897677662 0.43754296004772192 -3.8984238926786923e-05 5.0995000492548577e-05 0 -9.7309999546268941e-05 1 1.5550874195469081e-05 2 4.4555404186248788 3 4 5.6495000535505831e-05
decision_type=2 2 2 2 2 2 2 2 2 2 1 2 1 2 1 2 1 1 2
left_child=3 2 11 -1 -5 10 -6 9 14 -8 16 15 -10 -7 -4 -2 17 -3 -12
right_child=1 5 8 4 6 13 7 -9 12 -11 18 -13 -14 -15 -16 -17 -18 -19 -20
leaf_value=-9.9402128789733972e-06 -3.9611847434499656e-06 -1.1362345678325827e-07 -3.3028430129371371e-06 -3.0375955870165825e-06 -1.604371697693649e-06 6.1331479397274873e-07 -3.8826205643514787e-05 -1.2829206463802699e-05 -1.6023393613302406e-06 -3.0280693802827347e-06 1.901474616914714e-08 -1.78506640639124e-06 -6.1602444495832562e-07 1.0669113709852446e-06 -1.8989698725689704e-06 -6.4255893072265807e-06 -4.2466716691539845e-07 -2.7939902956248595e-06 5.006096271910737e-07
leaf_weight=134 161 106 486 12.999999999999998 4.9999999999999991 3737 15.000000000000002 27 1010 2.9999999999999991 2724 81 1600 8181 1055 226 1489 114 1831
leaf_count=134 161 106 486 13 5 3737 15 27 1010 3 2724 81 1600 8181 1055 226 1489 114 1831
internal_value=0 9.92501e-08 -1.88318e-06 -1.45412e-05 -2.16251e-05 6.0363e-07 -2.51461e-05 -2.69946e-05 -1.52872e-06 -3.60721e-05 -8.91383e-09 -4.92938e-06 -1.01083e-06 9.25315e-07 -2.3937e-06 -5.52595e-06 -5.95451e-07 -1.61963e-06 2.12811e-07
internal_weight=0 22801 4619 197 63 18182 50 45 4151 18 6264 468 2610 11918 1541 387 1709 220 4555
internal_count=22998 22801 4619 197 63 18182 50 45 4151 18 6264 468 2610 11918 1541 387 1709 220 4555
cat_boundaries=0 1 2 3 4 5
cat_threshold=96476224 263457864 76946496 2048 16
is_linear=0
shrinkage=0.00233333


Tree=21
num_leaves=20
num_cat=3
split_feature=20 22 22 22 26 14 73 18 25 1 1 9 1 22 20 107 9 22 22
split_gain=0.0084596 0.00441598 0.0010008 0.000667023 0.000646235 0.000717753 0.000504729 0.00032052 0.000210607 0.000177962 0.000131027 0.000100995 0.000100712 8.89448e-05 8.79736e-05 6.38531e-05 6.37742e-05 6.27684e-05 6.24124e-05
threshold=-0.00060724103241227556 -0.00020822376245632765 -0.00091588337090797711 0.0001191262017528061 -0.0016410599928349254 -0.0008269099926110356 0.45234952867031103 0.00011823000022559428 -0.0087055508047342283 0 1 -0.0011507250019349156 2 -0.00042299884080421174 5.7770936109591282e-05 0.24585562199354175 -0.00010262499927193856 8.9331579147255996e-06 -0.0005094993975944816
decision_type=2 2 2 2 2 2 2 2 2 1 1 2 1 2 2 2 2 2 2
left_child=4 2 8 10 5 -1 7 -7 -2 18 17 -8 15 -14 -5 -11 -10 -3 -4
right_child=1 3 9 14 -6 6 11 -9 16 12 -12 -13 13 -15 -16 -17 -18 -19 -20
leaf_value=-2.4840434561098173e-06 -3.8043655249921935e-06 -6.4394429751927985e-07 -1.0647043426437972e-06 2.7873503349003095e-07 -6.3672347932827931e-06 -2.2298207624501368e-05 -9.3282287069020592e-06 -1.2157830167919971e-06 -2.3523637999493259e-06 -3.7951269284351358e-06 8.490012389930412e-09 -6.679369922317258e-07 -1.6137864171296241e-06 -9.1940633616134034e-07 5.4560747250213438e-07 -1.253177465818503e-06 -4.1839765044020963e-07 -1.6568922500289671e-07 -4.8272907205401069e-07
leaf_weight=17 334 1427 699 4794 106 22.000000000000004 40 2.9999999999999991 553 74 3815 4.9999999999999991 903 895 6970 50 47 1126 1118
leaf_count=17 334 1427 699 4794 106 22 40 3 553 74 3815 5 903 895 6970 50 47 1126 1118
internal_value=0 -1.13495e-07 -1.42126e-06 2.24141e-07 -9.9086e-06 -1.31221e-05 -1.50722e-05 -2.08385e-05 -2.81455e-06 -1.06664e-06 -1.69491e-07 -8.66237e-06 -1.39003e-06 -1.26812e-06 4.37182e-07 -2.73598e-06 -2.21021e-06 -4.32791e-07 -7.07346e-07
internal_weight=0 22805 4673 18132 193 87 70 25 934 3739 6368 45 1922 1798 11764 124 600 2553 1817
internal_count=22998 22805 4673 18132 193 87 70 25 934 3739 6368 45 1922 1798 11764 124 600 2553 1817
cat_boundaries=0 1 2 3
cat_threshold=4064404370 133438528 2048
is_linear=0
shrinkage=0.00151062


Tree=22
num_leaves=20
num_cat=4
split_feature=19 26 40 24 24 14 8 19 26 33 1 8 19 1 1 19 1 43 14
split_gain=0.00794852 0.00388429 0.00103964 0.000929384 0.000730283 0.000557038 0.000280716 0.000257363 0.000254535 0.000161753 0.00014911 0.000124747 0.000111129 9.52277e-05 9.04874e-05 8.31508e-05 7.5062e-05 6.47526e-05 5.88142e-05
threshold=-0.00017250369273824615 -0.00010174499766435473 -0.0064329651650041333 -0.0039653645362704984 0.00033126493508461868 -0.0008269099926110356 22.500000000000004 -3.8984238926786923e-05 -0.0016410599928349254 -0.00012677499762503428 0 20.500000000000004 1.5456817891390532e-05 1 2 7.1387657953891912e-06 3 -3.5848999687004828e-05 -0.0010076650069095192
decision_type=2 2 2 2 2 2 2 2 2 2 1 2 2 1 1 2 1 2 2
left_child=2 3 5 9 10 -1 8 13 -7 -2 11 16 -6 17 -9 -12 -3 -5 -4
right_child=1 4 18 7 12 6 -8 14 -10 -11 15 -13 -14 -15 -16 -17 -18 -19 -20
leaf_value=-2.6806380324785809e-06 -4.4587011306211028e-06 -2.4613404112641335e-06 -3.5383417345468838e-07 -3.0479578285745545e-06 4.1812450416100081e-07 -2.6529188215933622e-05 -3.9806421373301636e-06 -1.355092262570223e-06 -1.6928352218661277e-06 -1.9974186921183036e-06 -1.5180963087939219e-07 -1.7786338770310623e-07 8.0792223955478077e-07 -1.4567690475302141e-06 -5.1754247689493663e-07 3.4333616418044026e-07 -8.0304803760223159e-07 -1.0165933668380029e-06 -8.5696533943599767e-06
leaf_weight=8.9999999999999982 397 115 3.9999999999999991 331 3796 23 6.9999999999999991 687 3.0000000000000027 154 2393 1300 8047 1162 1451 2327 560 81 151
leaf_count=9 397 115 4 331 3796 23 7 687 3 154 2393 1300 8047 1162 1451 2327 560 81 151
internal_value=0 3.4718e-08 -1.15978e-05 -1.57159e-06 4.04752e-07 -1.95399e-05 -2.24451e-05 -1.22867e-06 -2.49297e-05 -3.81866e-06 -8.85118e-08 -5.16817e-07 6.8344e-07 -1.80162e-06 -8.00445e-07 9.2316e-08 -1.16503e-06 -2.62005e-06 -8.39193e-06
internal_weight=0 22801 197 4263 18538 42 33 3712 26 551 6695 1975 11843 1574 2138 4720 675 412 155
internal_count=22998 22801 197 4263 18538 42 33 3712 26 551 6695 1975 11843 1574 2138 4720 675 412 155
cat_boundaries=0 1 2 3 4
cat_threshold=126098496 75896896 95689792 3072
is_linear=0
shrinkage=0.00186876


Tree=23
num_leaves=20
num_cat=0
split_feature=20 22 22 22 40 18 9 25 20 20 22 9 18 17 104 20 36 24 25
split_gain=0.00832727 0.0043318 0.000981467 0.000653275 0.000638656 0.000647128 0.000563718 0.000207294 0.000162274 8.64488e-05 7.96912e-05 6.32303e-05 4.76689e-05 4.81507e-05 4.47883e-05 4.45347e-05 4.44375e-05 3.72047e-05 3.27372e-05
threshold=-0.00060724103241227556 -0.00020822376245632765 -0.00091588337090797711 0.0001191262017528061 -0.0064329651650041333 -0.00041404500370845193 -0.0016825250349938867 -0.0087055508047342283 -0.00012898084969492626 5.7770936109591282e-05 -6.8011886469321312e-05 -0.00010262499927193856 0.0011963000288233163 0.023283489979803566 0.08894797042012216 -0.00027484862948767835 -3.1363713741302486 -0.00048600770242046559 -0.0017959524993784723
decision_type=2 2 2 2 2 2 2 2 2 2 2 2 2 2 2 2 10 2 2
left_child=4 2 7 10 5 6 -1 15 17 -5 -3 14 13 -6 -9 -2 -15 -4 -10
right_child=1 3 8 9 12 -7 -8 11 18 -11 -12 -13 -14 16 -16 -17 -18 -19 -20
leaf_value=-1.6274079398487761e-05 -3.2905441308010936e-06 -3.2859886481889581e-07 -1.1972104896884607e-06 2.1179788547515534e-07 -1.2110417571131728e-06 -2.6226632548610562e-06 -2.7017986970496556e-06 -1.3408618916035784e-06 -7.3619036865663163e-07 4.1608131726241358e-07 -4.4582684999490475e-08 -3.1486578085919825e-07 -2.2142843048732745e-07 -3.0949650033734894e-07 -2.1471755797882908e-06 -1.9531910358259435e-06 -6.0321654019301436e-06 -5.5102087292542839e-07 -4.4215878217628795e-07
leaf_weight=23.999999999999996 222 1919 1262 4794 8.9999999999999982 14.999999999999998 10.000000000000002 259 1394 6970 4449 47 2.9999999999999991 2.9999999999999991 294 112 129 162 921
leaf_count=24 222 1919 1262 4794 9 15 10 259 1394 6970 4449 47 3 3 294 112 129 162 921
internal_value=0 -8.79641e-08 -1.08818e-06 1.70271e-07 -7.59263e-06 -1.14054e-05 -1.38035e-05 -2.15368e-06 -8.16988e-07 3.33083e-07 -1.30552e-07 -1.69079e-06 -5.63885e-06 -5.73182e-06 -1.80006e-06 -2.91191e-06 -5.93306e-06 -1.12805e-06 -6.21618e-07
internal_weight=0 22805 4673 18132 193 49 34 934 3739 11764 6368 600 144 141 553 334 132 1424 2315
internal_count=22998 22805 4673 18132 193 49 34 934 3739 11764 6368 600 144 141 553 334 132 1424 2315
is_linear=0
shrinkage=0.00116654


Tree=24
num_leaves=20
num_cat=3
split_feature=20 22 22 26 14 21 73 25 1 104 1 1 9 22 21 104 22 21 9
split_gain=0.00805916 0.00415496 0.000940932 0.000642203 0.000703544 0.000627548 0.000547776 0.000205132 0.00017662 0.000126748 0.000108784 0.000107618 0.000100744 8.53237e-05 8.43667e-05 7.65853e-05 7.33389e-05 6.75764e-05 6.25462e-05
threshold=-0.00060724103241227556 -0.00020822376245632765 -0.00091588337090797711 -0.0016410599928349254 -0.0008269099926110356 8.1013375165639459e-05 0.45234952867031103 -0.0087055508047342283 0 0.01142304250970483 1 2 -0.0011507250019349156 -0.00042299884080421174 0.00015057030395837503 0.17476078867912295 8.9331579147255996e-06 -0.00033506182080600405 -0.00010262499927193856
decision_type=2 2 2 2 2 2 2 2 1 2 1 1 2 2 2 2 2 2 2
left_child=3 2 7 4 -1 10 9 -2 17 -6 16 -10 15 -13 -7 -8 -3 -4 -9
right_child=1 5 8 -5 6 14 12 18 11 -11 -12 13 -14 -15 -16 -17 -18 -19 -20
leaf_value=-2.2906049952217246e-06 -3.5513624906095466e-06 -5.4013853675583233e-07 -9.7444949069368388e-07 -6.0180531155728089e-06 -4.4733520883780241e-06 3.9570200608701151e-07 -1.9379228599191236e-06 -2.1457670486296425e-06 -2.575459393698073e-06 -2.2582863046118063e-05 9.7745276723966936e-08 -1.4449199854638675e-06 -5.6158639968205724e-07 -7.7657687068334284e-07 6.5000206262409174e-07 -9.9153856869664145e-06 -1.6881890289380683e-08 -3.6036051017604402e-07 -2.8439972825217854e-07
leaf_weight=17 334 1327 604 106 7.0000000000000027 5738 8.9999999999999982 553 124 18 3904 903 4.9999999999999991 895 6079 31 1084 1213 47
leaf_count=17 334 1327 604 106 7 5738 9 553 124 18 3904 903 5 895 6079 31 1084 1213 47
internal_value=0 -1.13226e-10 -1.25515e-06 -9.45854e-06 -1.25978e-05 3.23849e-07 -1.45018e-05 -2.59104e-06 -9.15421e-07 -2.02391e-05 -5.64556e-08 -1.23217e-06 -8.21409e-06 -1.11222e-06 5.2696e-07 -8.86703e-06 -3.04662e-07 -5.65614e-07 -2.00701e-06
internal_weight=0 22805 4673 193 87 18132 70 934 3739 25 6315 1922 45 1798 11817 40 2411 1817 600
internal_count=22998 22805 4673 193 87 18132 70 934 3739 25 6315 1922 45 1798 11817 40 2411 1817 600
cat_boundaries=0 1 2 3
cat_threshold=4064404370 131341376 2048
is_linear=0
shrinkage=0.00149451


Tree=25
num_leaves=20
num_cat=0
split_feature=21 19 22 36 20 22 22 22 48 46 8 8 8 8 24 36 33 21 87
split_gain=0.00660455 0.00259122 0.00142648 0.000707106 0.000401986 0.000183826 0.000174877 7.70234e-05 7.25634e-05 7.29593e-05 6.66488e-05 6.5325e-05 6.46074e-05 6.24286e-05 5.90285e-05 5.43975e-05 4.86961e-05 3.62895e-05 3.36797e-05
threshold=-0.00035909308644477273 -0.00017250369273824615 1.7150932762888264e-05 -3.1930075883865352 -0.00029583372815977777 -0.00029355687729548657 0.00019407224317546937 -0.0015417507966049013 -1.5280244350433347 -0.0036247899988666172 25.500000000000004 13.500000000000002 13.500000000000002 10.500000000000002 -0.0034431875683367248 3.3886779546737675 -3.3054999221349128e-05 -6.3230709201889099e-05 0.0044652253855019816
decision_type=2 2 2 10 2 2 2 2 10 2 2 2 2 2 2 10 2 2 2
left_child=1 3 5 -1 7 11 12 15 -5 -10 17 13 -4 -2 16 -3 -6 -7 -9
right_child=2 4 6 8 14 10 -8 18 9 -11 -12 -13 -14 -15 -16 -17 -18 -19 -20
leaf_value=-3.4300488509976164e-05 -8.520920819493678e-07 -7.6018289548785142e-06 -2.56427057685085e-07 3.6964052918774817e-07 -4.6477288258292286e-06 -9.8034620158870838e-07 1.1057400721983117e-06 -2.3432326588417876e-06 -1.558932853545885e-05 -8.8788683147932674e-06 4.7247607297679424e-08 -1.110418437753255e-06 5.9788619912066497e-07 -2.9199362643291541e-06 -2.6028114539470411e-06 -2.3077479895275883e-06 -1.6562053077366207e-06 -3.525546615985925e-07 -5.0985579245569293e-06
leaf_weight=6.9999999999999991 178 220 810 2.9999999999999991 251 1467 9133 71 67 97 1548 1241 4636 376 1103 28 69 1446 245
leaf_count=7 178 220 810 3 251 1467 9133 71 67 97 1548 1241 4636 376 1103 28 69 1446 245
internal_value=0 -4.74233e-06 3.89215e-07 -1.483e-05 -3.78912e-06 -7.28392e-07 8.68962e-07 -5.79451e-06 -1.21221e-05 -1.23587e-05 -4.22205e-07 -1.48278e-06 4.70585e-07 -2.28243e-06 -2.9594e-06 -7.11673e-06 -4.07242e-06 -6.70986e-07 -4.57035e-06
internal_weight=0 2161 20835 174 1987 6256 14579 564 167 164 4461 1795 5446 554 1423 248 320 2913 316
internal_count=22996 2161 20835 174 1987 6256 14579 564 167 164 4461 1795 5446 554 1423 248 320 2913 316
is_linear=0
shrinkage=0.0027999


Tree=26
num_leaves=20
num_cat=5
split_feature=22 22 22 22 22 18 10 22 1 1 1 42 18 102 47 1 0 64 41
split_gain=0.00638911 0.0018773 0.00173997 0.000425373 0.000357403 0.000224605 0.000280247 0.000182886 0.000142858 0.000115025 0.000105569 8.59798e-05 7.96655e-05 7.77161e-05 6.70996e-05 4.7499e-05 4.65012e-05 4.10817e-05 3.98638e-05
threshold=-0.0007604052370879798 8.9331579147255996e-06 -0.0038351311814039941 -0.0015417507966049013 -0.00029355687729548657 -0.018025499768555161 -0.0016825250349938867 0.00018081380403600636 0 1 2 7.9674935340881357 0.00022033500135876241 -1.6401844620704649 -0.95761740207672108 3 4 69.037837982177749 -0.33500432968139643
decision_type=2 2 2 2 2 2 2 2 1 1 1 10 2 2 8 1 1 2 10
left_child=2 4 5 11 9 6 14 15 -5 16 -6 -4 13 -7 17 -3 18 -1 -2
right_child=1 7 3 8 10 12 -8 -9 -10 -11 -12 -13 -14 -15 -16 -17 -18 -19 -20
leaf_value=-2.6921683420057164e-05 -4.6650460278958631e-06 -3.5463127269718308e-08 -6.1879105004870025e-06 -3.9910621502594893e-06 -9.3354982339418143e-07 -1.3488384493596976e-06 -1.5804724538970037e-06 8.4923352777248306e-07 -2.0468916084916606e-06 -1.0876189641543255e-06 -1.3809176269225941e-07 -1.0905409107613091e-06 -7.8612470580514973e-07 -1.0736049392197604e-05 -2.3797677861940492e-06 4.551517837483408e-07 -1.7396859570743071e-06 -2.8511087884552631e-06 -1.7480278323366759e-06
leaf_weight=9.9999999999999982 85 1310 344 471 1085 7.9999999999999991 4.9999999999999991 9731 521 1871 3206 22 6.9999999999999991 54 3.0000000000000062 3708 498 2.9999999999999991 54
leaf_count=10 85 1310 344 471 1085 8 5 9731 521 1871 3206 22 7 54 3 3708 498 3 54
internal_value=0 2.28781e-07 -4.55918e-06 -3.86871e-06 -7.32847e-07 -1.35489e-05 -2.03272e-05 6.72269e-07 -3.06086e-06 -1.39511e-06 -3.43422e-07 -5.91866e-06 -9.17406e-06 -9.88036e-06 -2.33244e-05 3.28091e-07 -2.21645e-06 -2.50217e-05 -3.4909e-06
internal_weight=0 21548 1448 1358 6799 90 21 14749 992 2508 4291 366 69 62 16 5018 637 13 139
internal_count=22996 21548 1448 1358 6799 90 21 14749 992 2508 4291 366 69 62 16 5018 637 13 139
cat_boundaries=0 1 2 3 4 5
cat_threshold=251075648 76942400 109321216 31591488 4
is_linear=0
shrinkage=0.0022136


Tree=27
num_leaves=20
num_cat=4
split_feature=21 19 22 21 53 32 74 21 19 1 18 1 1 19 1 37 41 70 25
split_gain=0.00659 0.00259991 0.00142058 0.000394056 0.000386504 0.000288296 0.000245291 0.000183838 0.000176749 0.000101125 9.89762e-05 8.81516e-05 8.4093e-05 5.95711e-05 4.97536e-05 4.69154e-05 4.85455e-05 4.14608e-05 3.74281e-05
threshold=-0.00035909308644477273 -0.00017250369273824615 1.7150932762888264e-05 -0.00073962711030617345 1.8044031262397768 0.0018262342200614514 0.011417273897677662 -0.00012601241178344932 1.5605929547746204e-05 0 -0.0036131299566477533 1 2 -3.1731682611280114e-05 3 -0.0005359204951673745 -2.193992972373962 1.1686913967132571 -0.00099876383319497087
decision_type=2 2 2 2 2 2 2 2 2 1 2 1 1 2 1 2 10 2 2
left_child=1 4 7 13 5 -1 -7 9 14 -2 17 -5 -9 15 -4 16 -3 -6 -11
right_child=2 3 8 11 10 6 -8 12 -10 18 -12 -13 -14 -15 -16 -17 -18 -19 -20
leaf_value=-7.4234039745475494e-06 -1.4607634365433185e-06 -1.2101415094562553e-06 7.9289863097966702e-08 -2.5708409171779579e-06 -1.0127411058055383e-06 -1.2141903287958686e-06 -2.4171338332341607e-05 -5.9115794094592537e-07 7.6343991511862667e-07 -8.2402718771193555e-07 -3.9846835173753724e-06 -1.47740723758255e-06 6.3469892115012511e-09 -4.4127682599915849e-07 4.5094237949558192e-07 -3.0989853187027923e-06 -4.8368374917051623e-06 -9.1696499655498008e-06 -2.7617737942946709e-07
leaf_weight=29 725 22 1820 609 4.9999999999999991 2.9999999999999991 9.9999999999999982 1287 8331 1215 51 813 2316 20 4428 249 274 76 713
leaf_count=29 725 22 1820 609 5 3 10 1287 8331 1215 51 813 2316 20 4428 249 274 76 713
internal_value=0 -3.18359e-06 2.62142e-07 -2.54181e-06 -9.97593e-06 -1.51678e-05 -2.17048e-05 -4.87583e-07 5.8397e-07 -8.62703e-07 -7.37216e-06 -1.98864e-06 -2.09747e-07 -3.87524e-06 3.4383e-07 -3.99103e-06 -4.61564e-06 -8.83276e-06 -6.20693e-07
internal_weight=0 2161 20835 1987 174 42 13 6256 14579 2653 132 1422 3603 565 6248 545 296 81 1928
internal_count=22996 2161 20835 1987 174 42 13 6256 14579 2653 132 1422 3603 565 6248 545 296 81 1928
cat_boundaries=0 1 2 3 4
cat_threshold=210766944 246815808 129244224 31591520
is_linear=0
shrinkage=0.00188215


Tree=28
num_leaves=20
num_cat=4
split_feature=20 23 20 36 23 20 37 9 1 8 18 1 8 24 1 1 20 8 90
split_gain=0.00659226 0.00210782 0.0018977 0.000730279 0.000364964 0.000262746 0.000180848 0.000104133 0.000101026 7.96515e-05 7.36815e-05 6.8439e-05 0.000187946 8.24109e-05 5.90261e-05 5.7129e-05 5.61682e-05 5.2372e-05 5.21234e-05
threshold=-0.0002186936108046211 -0.00015419885312439871 -0.00060724103241227556 -3.1930075883865352 0.00023264025367097932 -0.00010458308679517357 -0.0005359204951673745 -0.00060376999317668368 0 13.500000000000002 0.0011963000288233163 1 19.500000000000004 -0.0014354197192005811 2 3 5.7987208492704674e-05 18.500000000000004 1.7066828608512881
decision_type=2 2 2 10 2 2 2 2 1 2 2 1 2 2 1 1 2 2 2
left_child=2 5 3 -1 9 11 -4 10 17 15 18 12 -2 -13 -8 -3 -6 -7 -5
right_child=1 4 6 7 16 8 14 -9 -10 -11 -12 13 -14 -15 -16 -17 -18 -19 -20
leaf_value=-2.0594235767930965e-05 -5.3904081615409546e-06 -1.3149979813923707e-06 -4.0891118434568619e-06 -7.8147842712188906e-06 4.8150962430127335e-07 -1.2755015029942848e-06 -3.2973011873436183e-06 -1.0314498147889218e-07 -2.5142923693956008e-07 1.9310514934707156e-07 2.092803461758759e-07 -1.5430732273558979e-06 -8.3802040032380805e-07 -7.6238866039027111e-07 -1.8792437027058142e-06 -1.6070064187355855e-07 7.2971112637974424e-07 -6.0239306230836073e-07 -1.606949493561443e-06
leaf_weight=6.9999999999999991 39 125 287 159 4445 515 222 5.9999999999999991 1997 4559 2.9999999999999991 885 64 739 518 854 6573 989 9.9999999999999982
leaf_count=7 39 125 287 159 4445 515 222 6 1997 4559 3 885 64 739 518 854 6573 989 10
internal_value=0 1.57988e-07 -3.86687e-06 -8.72753e-06 4.52734e-07 -7.74491e-07 -2.91557e-06 -7.19025e-06 -5.06568e-07 9.93458e-08 -7.41822e-06 -1.31159e-06 -2.65157e-06 -1.1874e-06 -2.41197e-06 -3.3481e-07 6.30106e-07 -8.34271e-07 -7.55775e-06
internal_weight=0 21784 1212 185 16556 5228 1027 178 3501 5538 172 1727 103 1624 740 979 11018 1504 169
internal_count=22996 21784 1212 185 16556 5228 1027 178 3501 5538 172 1727 103 1624 740 979 11018 1504 169
cat_boundaries=0 1 2 3 4
cat_threshold=261495880 3072 81008640 3072
is_linear=0
shrinkage=0.00168625


Tree=29
num_leaves=20
num_cat=3
split_feature=26 23 19 36 23 19 25 1 24 1 1 26 19 19 71 35 19 65 41
split_gain=0.00614926 0.00210185 0.00193519 0.000701062 0.000351171 0.000286859 0.000202033 0.000100196 0.000102721 7.70531e-05 7.61451e-05 6.13529e-05 5.26918e-05 5.1188e-05 4.39853e-05 4.15227e-05 4.12842e-05 3.74661e-05 3.71977e-05
threshold=-0.00037445999623741949 -0.00015419885312439871 -0.00017250369273824615 -3.1930075883865352 0.00023264025367097932 -1.8952147911477365e-05 -0.0049282934051007024 0 -0.0013952082372270522 1 2 -0.00058592832647263993 1.5600621736666657e-05 -2.956631124106934e-05 -0.0084290709346532804 -1.9885779619216917 1.2239231182320511e-05 2.1420694589614873 0.74147877097129833
decision_type=2 2 2 10 2 2 2 1 2 1 1 2 2 2 2 10 2 2 10
left_child=2 5 3 -1 10 7 11 13 -9 16 -3 -4 -6 14 -2 -8 -7 18 -5
right_child=1 4 6 17 12 9 15 8 -10 -11 -12 -13 -14 -15 -16 -17 -18 -19 -20
leaf_value=-4.3885894002006516e-05 -8.4538378903381502e-06 -4.0773687717769107e-07 -8.9519658703674811e-06 -1.5911570659108693e-05 9.2106555053491669e-07 -1.8884076195631348e-06 1.9735552178249917e-07 -3.1342812926296052e-06 -1.5888716265596736e-06 -3.4896747619426339e-07 4.9534946172836035e-07 -5.9190295343915446e-06 1.4790706064088866e-06 -1.7153884004926966e-06 -2.9379044797275235e-06 -4.3465734833525077e-06 -4.6568561687440539e-08 -6.0402780517837732e-07 -6.573042505597631e-07
leaf_weight=6.9999999999999991 74 1775 273 161 3160 961 27 1089 1230 1623 3763 296 7858 43 44 416 190 2.9999999999999991 2.9999999999999991
leaf_count=7 74 1775 273 161 3160 961 27 1089 1230 1623 3763 296 7858 43 44 416 190 3 3
internal_value=0 3.16606e-07 -8.08721e-06 -1.89312e-05 9.47671e-07 -1.66998e-06 -6.05574e-06 -2.56002e-06 -2.315e-06 -8.67928e-07 2.05843e-07 -7.50368e-06 1.32001e-06 -5.30213e-06 -6.78726e-06 -4.07139e-06 -1.57383e-06 -1.54648e-05 -1.56863e-05
internal_weight=0 21810 1186 174 16556 5254 1012 2480 2319 2774 5538 569 11018 161 118 443 1151 167 164
internal_count=22996 21810 1186 174 16556 5254 1012 2480 2319 2774 5538 569 11018 161 118 443 1151 167 164
cat_boundaries=0 1 2 3
cat_threshold=3072 263588936 132385856
is_linear=0
shrinkage=0.00360863


Tree=30
num_leaves=20
num_cat=0
split_feature=26 23 9 24 23 9 25 104 9 23 23 23 9 95 34 78 33 28 34
split_gain=0.0062015 0.00269579 0.00147501 0.000531861 0.000416381 0.000412023 0.000198764 0.000174275 0.000126909 9.76917e-05 8.98591e-05 5.71483e-05 4.58526e-05 4.38334e-05 6.84106e-05 7.922e-05 4.10078e-05 4.03058e-05 4.0178e-05
threshold=-0.00053916499018669118 -0.00020649423822760579 -0.0016825250349938867 -0.0051501707639545194 0.00026639136194717144 -0.00023959000100148839 -0.0061325968708842984 0.010244403500109913 -0.00091961497673764814 -0.0016463554347865281 -0.00065228863968513895 0.00012666241673287007 -0.00010262499927193856 0.70263126492500316 -0.0022094349842518564 -1.3861888647079466 -5.9535001128097058e-05 -0.00017281499458476898 9.9994998890906586e-05
decision_type=2 2 2 2 2 2 2 2 2 2 2 2 2 2 2 2 2 2 2
left_child=2 5 3 7 11 9 8 -1 17 -2 -7 -3 -8 14 15 -9 -10 -4 -6
right_child=1 4 6 -5 18 10 12 13 16 -11 -12 -13 -14 -15 -16 -17 -18 -19 -20
leaf_value=-3.5428174733659508e-06 -4.0103070981598026e-06 -7.8932416320215653e-08 -1.0517257341494122e-05 -4.3999461547266166e-06 7.4210332942416865e-07 -1.504474758939932e-06 -4.258025566516765e-06 -4.8057816586647014e-06 -6.3184011629509903e-06 -2.2494320022799794e-06 -6.7011854615060075e-07 4.1683202002672969e-07 -2.8682534105595084e-07 -8.8289410238793817e-06 -2.3282786080610996e-06 -2.7620683312557145e-05 -1.6112378236440419e-06 -1.7919188979266699e-07 1.0869953031607598e-06
leaf_weight=7.9999999999999991 274 3944 97 24 3744 1458 172 5.9999999999999991 227 1399 2293 2649 24 17 2.9999999999999991 34 22 2.9999999999999991 6541
leaf_count=8 274 3944 97 24 3744 1458 172 6 227 1399 2293 2649 24 17 3 34 22 3 6541
internal_value=0 1.18447e-07 -8.09216e-06 -1.73943e-05 6.33765e-07 -1.4833e-06 -6.23677e-06 -2.08285e-05 -7.45598e-06 -2.55994e-06 -9.97568e-07 1.2059e-07 -3.80929e-06 -2.22979e-05 -2.49523e-05 -2.58441e-05 -5.98077e-06 -1.02516e-05 9.62289e-07
internal_weight=0 22302 637 92 16878 5424 545 68 349 1673 3751 6593 196 60 43 40 249 100 10285
internal_count=22939 22302 637 92 16878 5424 545 68 349 1673 3751 6593 196 60 43 40 249 100 10285
is_linear=0
shrinkage=0.00261439


Tree=31
num_leaves=20
num_cat=2
split_feature=21 21 21 21 8 29 21 74 18 13 8 8 0 0 25 8 44 21 44
split_gain=0.00658854 0.00250126 0.00163383 0.00053873 0.00046704 0.000322394 0.00028119 0.000161102 0.000144367 0.000114418 0.000102509 9.45794e-05 8.14321e-05 6.81329e-05 6.09108e-05 5.09236e-05 5.0016e-05 4.88923e-05 4.50521e-05
threshold=-0.00069191027432680119 -0.00010598372682579792 -0.0015549518284387884 0.00010519083662074992 22.500000000000004 -0.002870879950933158 -0.00034663976111914957 0.011417273897677662 -0.0087274648249149305 -0.00030250499548856164 20.500000000000004 13.500000000000002 0 1 -0.0080076572485268099 19.500000000000004 0.0014698631130158903 1.7823614143708259e-05 4.6392178774112842e-05
decision_type=2 2 2 2 2 2 2 2 2 2 2 2 1 1 2 2 2 2 2
left_child=2 6 4 10 5 7 14 -1 -4 -9 12 13 -3 -8 -2 -7 -11 -12 -5
right_child=1 3 8 18 -6 15 11 9 -10 16 17 -13 -14 -15 -16 -17 -18 -19 -20
leaf_value=-4.2178935805367757e-06 -3.1006930556823872e-06 -1.1490948594410206e-06 -4.9985889573301967e-06 7.9477452891957553e-07 -3.9018960477032614e-06 -8.1846856623062529e-06 -2.1341465274969758e-06 -7.3274816660382706e-06 -2.9274996456773555e-06 -6.1825640311269173e-06 -3.2718685394073422e-08 -5.9262905823157447e-07 -1.4822955152574616e-07 -9.1737829941514921e-07 -1.6925415404687148e-06 -1.3929347326905426e-06 -2.373307165691863e-05 3.5208776971078032e-07 5.3545675801160525e-07
leaf_weight=11.999999999999998 130 323 232 6734 48 71 266 20 402 10.000000000000002 2075 2072 1982 634 1314 8.9999999999999982 17 2714 3874
leaf_count=12 130 323 232 6734 48 71 266 20 402 10 2075 2072 1982 634 1314 9 17 2714 3874
internal_value=0 1.13903e-07 -5.30516e-06 4.31326e-07 -1.01157e-05 -1.18556e-05 -1.15662e-06 -1.56096e-05 -3.75122e-06 -1.72679e-05 2.81494e-08 -8.19646e-07 -2.98443e-07 -1.33003e-06 -1.83977e-06 -7.66028e-06 -2.06607e-05 1.85636e-07 7.00666e-07
internal_weight=0 22118 821 17702 187 139 4416 59 634 47 7094 2972 2305 900 1444 80 27 4789 10608
internal_count=22939 22118 821 17702 187 139 4416 59 634 47 7094 2972 2305 900 1444 80 27 4789 10608
cat_boundaries=0 1 2
cat_threshold=4 6
is_linear=0
shrinkage=0.0018894


Tree=32
num_leaves=20
num_cat=0
split_feature=20 20 9 31 20 25 74 31 62 43 40 25 9 43 28 25 108 26 25
split_gain=0.00628947 0.00273468 0.00128597 0.000556019 0.000468717 0.000402104 0.000187573 0.000171637 0.000146602 0.000107157 8.64959e-05 7.19219e-05 6.38869e-05 5.96087e-05 4.61352e-05 4.38547e-05 4.28578e-05 4.12911e-05 3.61048e-05
threshold=-0.00034771366335917259 -3.621757423388771e-05 -0.0016825250349938867 -0.001031043007969856 4.8161648010136566e-05 -0.0052107169758528462 0.011417273897677662 -0.00017712699627736581 0.021275219507515434 4.0174749301513664e-05 -0.0023506149882450695 -0.0087055508047342283 -0.00023959000100148839 8.0323748989030732e-05 -0.00023908000002847982 0.00045106653124094015 -1.3869034647941587 -0.00027056667022407049 -0.001691690587904304
decision_type=2 2 2 2 2 2 2 2 2 2 2 2 2 2 2 2 2 2 2
left_child=2 5 3 6 9 11 -1 12 -4 18 16 17 -7 -6 -10 -9 -8 -2 -3
right_child=1 4 8 -5 13 7 10 15 14 -11 -12 -13 -14 -15 -16 -17 -18 -19 -20
leaf_value=-4.9318129492974858e-06 -6.7305077849516174e-06 -7.9978822555365981e-07 -4.7936921238934993e-06 -5.548358711988689e-06 8.5620909034429147e-07 -3.1511174990033571e-06 -6.4865018669017939e-06 -1.317139199807171e-06 -1.0302696409337569e-05 5.8589514352276971e-07 -4.015748151863696e-06 -3.4535055241199041e-06 -1.7896602410022218e-06 1.3666798314498096e-06 -5.578396567072604e-06 -1.997036399433386e-07 -3.1160617747608004e-05 -2.7330943238338882e-06 -7.7845518583378477e-08
leaf_weight=8.9999999999999982 171 926 131 25 4059 796 6.9999999999999991 2081 266 2770 4.9999999999999991 467 782 6358 69 459 46 56 3456
leaf_count=9 171 926 131 25 4059 796 7 2081 266 2770 5 467 782 6358 69 459 46 56 3456
internal_value=0 1.31587e-07 -1.08513e-05 -2.16019e-05 7.27988e-07 -2.04292e-06 -2.60936e-05 -1.6485e-06 -8.31964e-06 8.5224e-08 -2.81691e-05 -4.3266e-06 -2.49195e-06 1.16879e-06 -9.51953e-06 -1.11678e-06 -2.94487e-05 -5.90129e-06 -2.31879e-07
internal_weight=0 22381 558 92 17569 4812 67 4118 466 7152 58 694 1578 10417 335 2540 53 227 4382
internal_count=22939 22381 558 92 17569 4812 67 4118 466 7152 58 694 1578 10417 335 2540 53 227 4382
is_linear=0
shrinkage=0.00325945


Tree=33
num_leaves=20
num_cat=3
split_feature=20 20 19 24 25 44 74 14 24 57 1 1 34 34 25 78 1 25 41
split_gain=0.00617877 0.00268107 0.00119889 0.000467899 0.000394605 0.000357006 0.000224263 0.0002469 0.000165371 0.000139222 0.000119465 0.000111732 7.64159e-05 7.62759e-05 7.07124e-05 6.76994e-05 6.52139e-05 5.62956e-05 0.000161268
threshold=-0.00034771366335917259 -3.621757423388771e-05 -0.00025806641497183586 0.00037655726191587752 -0.0052107169758528462 0.0014698631130158903 0.011417273897677662 -0.00048560999857727433 -0.00065656565129756917 0.016252959147095684 0 1 8.1549998867558329e-05 -0.00011339000047883017 -0.0087055508047342283 3.9923204183578496 2 0.00095903867622837435 -0.048731435090303414
decision_type=2 2 2 2 2 2 2 2 2 2 1 1 2 2 2 2 1 2 10
left_child=2 4 5 11 14 15 -7 -8 10 -4 -6 13 -5 17 -2 -1 -10 -3 -19
right_child=1 3 9 12 8 6 7 -9 16 -11 -12 -13 -14 -15 -16 -17 -18 18 -20
leaf_value=-9.239817720890323e-06 -4.2058779407376088e-06 -7.3547208979179948e-07 -3.4651948660478693e-06 5.6251023362860356e-07 -9.7966021084756001e-07 -1.0261656217994815e-06 -3.9655198436194594e-06 -2.5052452972751437e-05 -1.1201257811169978e-06 -6.8019681633161424e-06 -2.05095582090308e-06 2.4225279720934025e-07 9.5710316301589928e-07 9.1309819928979464e-09 -2.4601691170325454e-06 2.1117663657536049e-07 -1.6663627296468648e-07 -1.8871705790081668e-07 -1.0379200573002622e-05
leaf_weight=51 227 1103 131 4556 1208 3.9999999999999991 7.9999999999999991 27 688 333 1293 3862 6839 1180 467 3.9999999999999991 929 26.000000000000004 2.9999999999999991
leaf_count=51 227 1103 131 4556 1208 4 8 27 688 333 1293 3862 6839 1180 467 4 929 26 3
internal_value=0 9.36626e-08 -7.73772e-06 5.18494e-07 -1.45529e-06 -1.51285e-05 -2.06671e-05 -2.21849e-05 -1.1742e-06 -5.95289e-06 -1.55154e-06 -1.45741e-09 7.99967e-07 -4.07135e-07 -3.0828e-06 -8.62573e-06 -5.84626e-07 -8.40897e-07 -3.63393e-06
internal_weight=0 22381 558 17569 4812 94 39 35 4118 464 2501 6174 11395 2312 694 55 1617 1132 29
internal_count=22939 22381 558 17569 4812 94 39 35 4118 464 2501 6174 11395 2312 694 55 1617 1132 29
cat_boundaries=0 1 2 3
cat_threshold=4027311002 263470080 1172315232
is_linear=0
shrinkage=0.00234488


Tree=34
num_leaves=20
num_cat=4
split_feature=21 21 26 8 21 21 14 20 104 1 37 1 1 8 45 8 0 34 20
split_gain=0.00610236 0.00229869 0.00157985 0.000591351 0.000497261 0.000260168 0.000186542 0.000181065 0.000127036 0.00011398 0.000105552 0.000103006 9.00332e-05 8.74505e-05 8.05643e-05 7.19103e-05 8.93704e-05 6.14748e-05 9.04011e-05
threshold=-0.00069191027432680119 -0.00010598372682579792 -0.0016410599928349254 22.500000000000004 0.00010519083662074992 -0.00034663976111914957 -0.00071696500526741136 -0.00042824550473596895 0.01142304250970483 0 -0.0004446584935067221 1 2 20.500000000000004 8.7444997916463776e-05 12.500000000000002 3 -0.00012261499796295536 4.0461778553435586e-05
decision_type=2 2 2 2 2 2 2 2 2 1 2 1 1 2 2 2 1 2 2
left_child=2 5 3 6 11 12 -1 10 -8 15 -4 13 -2 17 -9 16 -7 18 -3
right_child=1 4 7 -5 -6 9 8 14 -10 -11 -12 -13 -14 -15 -16 -17 -18 -19 -20
leaf_value=-6.8775624099731751e-06 -1.9070922766072293e-06 -2.2426307542994104e-06 -1.0708597734038526e-05 -5.1166104164849966e-06 1.1683122472341724e-06 -7.3074350949891618e-07 -6.4827524937759207e-06 -7.0294837712538387e-06 -3.0754602158987065e-05 -8.2320757350395343e-07 -5.2087649096814487e-06 2.0409240607693469e-07 -3.7735590576714047e-06 -3.2876725585717604e-08 -3.8745904624451375e-06 -1.6839251066910005e-06 -4.8776451360520611e-06 -8.3695556947645505e-07 -8.5189036579884043e-06
leaf_weight=12.999999999999998 587 181 191 26 10608 105 8.9999999999999982 218 46 1800 86 6111 857 532 232 888 179 248 22
leaf_count=13 587 181 191 26 10608 105 9 218 46 1800 86 6111 857 532 232 888 179 248 22
internal_value=0 1.89006e-07 -8.88165e-06 -2.10367e-05 7.18255e-07 -1.92937e-06 -2.56874e-05 -7.04592e-06 -2.83912e-05 -1.36566e-06 -9.24205e-06 4.4565e-08 -3.07223e-06 -9.31905e-07 -5.52255e-06 -2.15953e-06 -3.61223e-06 -1.9889e-06 -3.29083e-06
internal_weight=0 22118 821 94 17702 4416 68 727 55 2972 277 7094 1444 983 450 1172 284 451 203
internal_count=22939 22118 821 94 17702 4416 68 727 55 2972 277 7094 1444 983 450 1172 284 451 203
cat_boundaries=0 1 2 3 4
cat_threshold=234097696 75500544 4026590138 65
is_linear=0
shrinkage=0.00328613


Tree=35
num_leaves=20
num_cat=4
split_feature=21 22 21 12 21 14 108 22 21 15 97 1 1 1 23 1 44 23 43
split_gain=0.00588689 0.00205869 0.00177518 0.000506139 0.000347109 0.000324506 0.000381491 0.00030529 0.000265649 0.000183212 0.000131416 0.000124568 0.000107998 6.92878e-05 7.3289e-05 4.68994e-05 3.99234e-05 3.02958e-05 2.88204e-05
threshold=-0.00060870131710544218 -6.8011886469321312e-05 -0.0023908504517748948 -0.00025657498918008054 -0.00028528773691505188 -0.00048560999857727433 -1.4454453587532041 0.00018478029960533607 -0.00087498201173730184 0.0002220449969172478 4.0274784564971933 0 1 2 0.00036904338048771029 3 0.00021852977806702259 0.00016789469373179602 8.22099973447621e-05
decision_type=2 2 2 2 2 2 2 2 2 2 2 1 1 1 2 1 2 2 2
left_child=2 4 3 5 11 -1 -7 13 10 -8 -4 -2 -6 14 17 -10 -13 -3 -9
right_child=1 7 8 -5 12 6 9 18 15 -11 -12 16 -14 -15 -16 -17 -18 -19 -20
leaf_value=-1.5565862794810278e-05 -2.6599516089247378e-06 -6.6809395594725505e-07 -9.5321805073081138e-06 -1.1177010153546157e-05 -2.4814806780270685e-06 -7.24225452428066e-06 -5.9225903200473156e-06 1.5367867044969768e-06 -4.1354137172544351e-06 -6.3089654958078039e-05 -1.6242797682608763e-05 -4.6174572221369088e-06 -6.7624431817085726e-07 8.985389400284734e-07 -1.2880594964292153e-05 -8.8379199920129082e-06 -7.1111498068034489e-06 5.3631870648931743e-07 2.1891226916377254e-06
leaf_weight=22 890 1393 232 30 1644 7.9999999999999991 4.0000000000000027 2943 209 26 232 582 2280 4414 2.9999999999999991 258 378 1028 6452
leaf_count=22 890 1393 232 30 1644 8 4 2943 209 26 232 582 2280 4414 3 258 378 1028 6452
internal_value=0 3.87088e-07 -1.26782e-05 -3.42969e-05 -2.35093e-06 -4.26087e-05 -5.17605e-05 1.36183e-06 -1.0246e-05 -5.88536e-05 -1.31594e-05 -4.25442e-06 -1.44498e-06 5.01758e-07 -2.24257e-07 -7.13617e-06 -5.60476e-06 -1.56576e-07 1.98663e-06
internal_weight=0 22007 1021 90 5774 60 38 16233 931 30 464 1850 3924 6838 2424 467 960 2421 9395
internal_count=23028 22007 1021 90 5774 60 38 16233 931 30 464 1850 3924 6838 2424 467 960 2421 9395
cat_boundaries=0 1 2 3 4
cat_threshold=4031374226 229907976 132389952 1917378962
is_linear=0
shrinkage=0.005344


Tree=36
num_leaves=20
num_cat=3
split_feature=20 23 20 8 20 23 23 26 1 60 57 1 8 84 8 44 20 33 1
split_gain=0.00600695 0.00224981 0.00156998 0.000445325 0.000417647 0.000280409 0.000233504 0.000164773 0.000141591 9.87511e-05 0.000109741 9.53029e-05 6.97721e-05 6.90121e-05 6.23239e-05 4.99818e-05 4.81731e-05 4.41129e-05 4.24166e-05
threshold=-0.00027484862948767835 -9.9404231150401743e-05 -0.0009268811554647981 16.500000000000004 -0.00012898084969492626 0.00029312276456039404 -0.0023767875973135229 -0.0016410599928349254 0 -1.5408492088317869 3.9364992380142216 1 13.500000000000002 44.137008666992195 20.500000000000004 0.00021852977806702259 -4.0104328945744776e-05 -8.3740000263787792e-05 2
decision_type=2 2 2 2 2 2 2 2 1 2 2 1 2 2 2 2 2 2 1
left_child=2 4 3 7 11 12 13 9 14 -1 -11 -2 18 -4 -6 -13 -10 -15 -3
right_child=1 5 6 -5 8 -7 -8 -9 16 10 -12 15 -14 17 -16 -17 -18 -19 -20
leaf_value=-2.7050860110407646e-06 -1.3542172504635102e-06 -1.455946788601562e-06 -4.4620959541336469e-06 -4.7197655064774006e-06 -1.5854635733082997e-06 8.693875004668156e-07 -3.4596345813756026e-06 -4.963326093993059e-06 -6.3526749077958657e-07 -2.1809814296702605e-05 -1.433087838031131e-06 -2.0856025571391563e-06 3.464176250917475e-07 -7.4662308755120967e-06 -7.3706536723500055e-07 -3.3413063367733129e-06 -8.3207605146036573e-10 -7.6279178863534543e-07 -1.1468350923453653e-07
leaf_weight=4.9999999999999991 764 131 156 28 958 9554 383 12.999999999999998 1300 44 2.9999999999999991 523 5304 213 999 357 1319 7.9999999999999991 966
leaf_count=5 764 131 156 28 958 9554 383 13 1300 44 3 523 5304 213 999 357 1319 8 966
internal_value=0 1.49265e-07 -6.15236e-06 -1.48587e-05 -1.04516e-06 6.15268e-07 -4.90785e-06 -1.80146e-05 -6.78529e-07 -1.99506e-05 -2.09888e-05 -2.05538e-06 2.35211e-07 -6.2517e-06 -1.15247e-06 -2.59765e-06 -3.15766e-07 -7.2671e-06 -3.00746e-07
internal_weight=0 22175 853 93 6220 15955 760 65 4576 52 47 1644 6401 377 1957 880 2619 221 1097
internal_count=23028 22175 853 93 6220 15955 760 65 4576 52 47 1644 6401 377 1957 880 2619 221 1097
cat_boundaries=0 1 2 3
cat_threshold=230038600 4031308694 3072
is_linear=0
shrinkage=0.00234338


Tree=37
num_leaves=20
num_cat=0
split_feature=20 21 21 12 22 21 15 108 23 22 23 25 73 25 87 22 37 19 87
split_gain=0.00623052 0.00236886 0.001653 0.000478548 0.000406937 0.000339475 0.000310188 0.000418498 0.000241621 8.2633e-05 6.73086e-05 6.29659e-05 4.10171e-05 3.90486e-05 3.76125e-05 3.65301e-05 3.01475e-05 2.51779e-05 2.3232e-05
threshold=-0.00027484862948767835 -7.5296778959454955e-05 -0.0023908504517748948 -0.00025657498918008054 0.00018478029960533607 -0.00028528773691505188 0.00046617000771220779 -1.4454453587532041 -0.0023767875973135229 2.4664320335432425e-05 0.00036904338048771029 -0.0055206238757818929 4.7119388580322275 -0.0021686723921447988 0.005834799027070404 -0.0014055854408070443 9.679099821369165e-05 -3.8984238926786923e-05 0.0056470797862857589
decision_type=2 2 2 2 2 2 2 2 2 2 2 2 2 2 2 2 2 2 2
left_child=2 5 3 6 9 11 -1 -8 12 -3 -11 -2 -4 -7 -10 -14 -6 -13 -5
right_child=1 4 8 18 16 13 7 -9 14 10 -12 17 15 -15 -16 -17 -18 -19 -20
leaf_value=-4.4290636876684612e-06 -1.5006579535243777e-06 -1.7026262101917537e-07 -2.4930223785340104e-06 -2.8693705775996301e-07 2.8455250610956538e-07 -6.8241238052257024e-07 -6.8589246758428974e-07 -1.3832504365420672e-05 -1.1073722869275346e-06 9.5660086224771315e-08 -2.4340862592139088e-06 -1.1076334604221697e-06 -3.9084666289792273e-06 -3.8322753676523543e-07 -2.1336836381029257e-06 -6.8792532983483979e-07 4.2378938780606711e-07 -7.6138043500368935e-07 -3.1588978293288212e-06
leaf_weight=29 470 2702 159 7.0000000000000027 3857 904 5.0000000000000027 26 108 4973 4.9999999999999991 927 211 2178 275 9.9999999999999982 5538 621 23
leaf_count=29 470 2702 159 7 3857 904 5 26 108 4973 5 927 211 2178 275 10 5538 621 23
internal_value=0 -1.22095e-08 -3.27663e-06 -7.90114e-06 2.00758e-07 -7.24232e-07 -9.72846e-06 -1.23965e-05 -2.63599e-06 -2.80745e-09 8.82444e-08 -1.10385e-06 -3.33039e-06 -4.72906e-07 -1.87982e-06 -3.79883e-06 3.66991e-07 -9.74508e-07 -2.72804e-06
internal_weight=0 22175 853 90 17075 5100 60 31 763 7680 4978 2018 380 3082 383 221 9395 1548 30
internal_count=23028 22175 853 90 17075 5100 60 31 763 7680 4978 2018 380 3082 383 221 9395 1548 30
is_linear=0
shrinkage=0.00119195


Tree=38
num_leaves=20
num_cat=0
split_feature=21 21 21 8 21 21 12 21 9 18 71 8 8 8 44 23 8 8 21
split_gain=0.00586163 0.00203968 0.0017696 0.000611618 0.000351576 0.000293274 0.00027941 0.000263274 0.000190171 0.000157169 0.000116939 7.47956e-05 6.75026e-05 5.24667e-05 5.01425e-05 4.64507e-05 4.58075e-05 6.33957e-05 3.52812e-05
threshold=-0.00060870131710544218 -6.3230709201889099e-05 -0.0023908504517748948 16.500000000000004 0.00010519083662074992 -0.00028528773691505188 -0.00025657498918008054 -0.00087498201173730184 -0.0011507250019349156 -0.0039510601200163356 -0.28506921231746668 23.500000000000004 13.500000000000002 10.500000000000002 5.5574968428118161e-05 0.00036904338048771029 13.500000000000002 10.500000000000002 3.1916133593767888e-05
decision_type=2 2 2 2 2 2 2 2 2 2 2 2 2 2 2 2 2 2 2
left_child=2 5 3 6 11 16 8 9 10 -4 -1 15 13 -7 -6 18 17 -2 -3
right_child=1 4 7 -5 14 12 -8 -9 -10 -11 -12 -13 -14 -15 -16 -17 -18 -19 -20
leaf_value=-2.6525131724166986e-06 -1.8895005764979771e-06 -5.790291424262521e-07 -1.0713560323738614e-05 -6.0178374752080117e-06 1.3601555421151628e-06 -5.9803457776191026e-07 -7.1967966666919554e-06 -4.7222767052575482e-06 -6.0001142310691823e-06 -6.0069338062208046e-06 -3.6378885980625219e-05 5.4778480881430372e-07 -7.640779307698511e-07 -2.4092823463554405e-06 8.3314173623366696e-07 -5.4256830807164036e-06 -2.4034854572660781e-06 -4.4509617455585732e-06 1.5005003882127666e-07
leaf_weight=2.9999999999999991 199 1504 245 28 7235 290 13.999999999999998 467 7.9999999999999991 219 37 2977 2392 665 3310 10.999999999999998 1245 406 1773
leaf_count=3 199 1504 245 28 7235 290 14 467 8 219 37 2977 2392 665 3310 11 1245 406 1773
internal_value=0 2.10277e-07 -8.35477e-06 -2.25369e-05 8.0461e-07 -1.70998e-06 -2.81252e-05 -6.75884e-06 -3.19361e-05 -8.66571e-06 -3.48858e-05 1.45527e-07 -1.0846e-06 -1.87117e-06 1.19568e-06 -2.19239e-07 -2.82951e-06 -3.65285e-06 -1.85309e-07
internal_weight=0 22007 1021 90 16810 5197 62 931 48 464 40 6265 3347 955 10545 3288 1850 605 3277
internal_count=23028 22007 1021 90 16810 5197 62 931 48 464 40 6265 3347 955 10545 3288 1850 605 3277
is_linear=0
shrinkage=0.00351084


Tree=39
num_leaves=20
num_cat=2
split_feature=21 22 21 8 21 22 12 21 9 18 8 8 0 8 0 24 22 44 15
split_gain=0.00575537 0.00200832 0.00174712 0.000602542 0.000337458 0.000298141 0.000274186 0.000258392 0.000185734 0.000154137 7.52678e-05 7.20247e-05 7.06986e-05 4.49634e-05 6.35138e-05 3.92756e-05 3.52173e-05 4.94628e-05 4.03491e-05
threshold=-0.00060870131710544218 -6.8011886469321312e-05 -0.0023908504517748948 16.500000000000004 -0.00028528773691505188 0.00018478029960533607 -0.00025657498918008054 -0.00087498201173730184 -0.0011507250019349156 -0.0039510601200163356 13.500000000000002 13.500000000000002 0 13.500000000000002 1 -0.0012393392971716819 2.8268065761949405e-05 2.1229082449281126e-05 8.7215001258300631e-05
decision_type=2 2 2 2 2 2 2 2 2 2 2 2 1 2 1 2 2 2 2
left_child=2 4 3 6 13 10 8 9 -1 -4 -3 12 -6 14 -2 -15 -12 18 -18
right_child=1 5 7 -5 11 -7 -8 -9 -10 -11 16 -13 -14 15 -16 -17 17 -19 -20
leaf_value=-3.0283883239826696e-05 -5.1462874946503916e-06 -4.5381058752644556e-07 -9.2829946981626184e-06 -5.2260748866928488e-06 -7.74008846969126e-07 1.0903056932709453e-06 -6.2595846950429414e-06 -4.0909641341702181e-06 -5.2260326316135982e-06 -5.2050709258172485e-06 -7.0610412585921321e-09 -5.984463103101531e-07 -2.4062256773540575e-06 -2.4183603095188207e-06 -2.3724727347864075e-06 -1.1391394469798151e-06 4.5452185169396775e-07 5.638567295822772e-07 -7.5492350961999581e-06
leaf_weight=40 130 1186 245 28 609 9395 13.999999999999998 467 7.9999999999999991 219 1510 2843 472 906 475 339 8.9999999999999982 4130 2.9999999999999991
leaf_count=40 130 1186 245 28 609 9395 14 467 8 219 1510 2843 472 906 475 339 9 4130 3
internal_value=0 1.82065e-07 -7.24306e-06 -1.95708e-05 -1.37226e-06 7.35437e-07 -2.44235e-05 -5.85602e-06 -2.77287e-05 -7.5087e-06 2.46988e-07 -8.58689e-07 -1.53136e-06 -2.45113e-06 -3.16474e-06 -2.08189e-06 3.94583e-07 5.4067e-07 -4.06837e-06
internal_weight=0 22007 1021 90 5774 16233 62 931 48 464 6838 3924 1081 1850 605 1245 5652 4142 12
internal_count=23028 22007 1021 90 5774 16233 62 931 48 464 6838 3924 1081 1850 605 1245 5652 4142 12
cat_boundaries=0 1 2
cat_threshold=113 6
is_linear=0
shrinkage=0.00307156


Tree=40
num_leaves=20
num_cat=2
split_feature=22 22 22 9 31 22 8 72 70 1 1 8 23 8 99 72 22 55 22
split_gain=0.0070483 0.00369376 0.000947621 0.000801966 0.000658082 0.000527071 0.00022512 0.000220312 0.000173359 0.000165404 0.000109001 9.97394e-05 8.55134e-05 8.23852e-05 7.41102e-05 7.2123e-05 7.16072e-05 5.99594e-05 5.70336e-05
threshold=-0.0024545486085116859 -0.00020066489378223193 -0.00091588337090797711 -0.0016825250349938867 -0.0016089280252344904 0.0001191262017528061 26.500000000000004 -1.9741890430450437 3.6710275411605839 0 1 12.500000000000002 -0.00080235186032950867 12.500000000000002 0.058001203462481506 -1.9380696415901182 0.00021751297026639807 1.1735777258872988 -0.0005094993975944816
decision_type=2 2 2 2 2 2 2 2 2 1 1 2 2 2 2 2 2 2 2
left_child=3 2 8 4 6 10 7 -1 -2 11 13 -4 -13 -3 -9 -5 -7 -17 -11
right_child=1 5 9 15 -6 16 -8 14 -10 18 -12 12 -14 -15 -16 17 -18 -19 -20
leaf_value=-8.2514269964356508e-07 -1.8117477753015809e-06 -1.0951030731044569e-06 -1.8439142207465024e-06 -4.742704651446319e-07 -3.7566829283655687e-06 3.1027440815007395e-07 -2.4529152488146446e-06 -2.2288857442679029e-06 -3.1644888693228819e-06 -8.382911841463516e-07 5.6325929264826953e-08 -1.3969527816257696e-06 -6.6016840524355289e-07 -2.2351938020933898e-07 -1.7126293184690174e-05 -5.0991775317336713e-08 5.4253161863397877e-07 -5.7536662325298835e-06 -3.5472369900305727e-07
leaf_weight=2.9999999999999991 491 259 332 7.9999999999999991 24 4098 6.9999999999999991 3.9999999999999991 385 781 4813 544 812 1144 39 3.9999999999999991 7744 91 1337
leaf_count=3 491 259 332 8 24 4098 7 4 385 781 4813 544 812 1144 39 4 7744 91 1337
internal_value=0 -1.96274e-09 -1.11802e-06 -8.63641e-06 -1.20752e-05 2.87862e-07 -1.46479e-05 -1.57343e-05 -2.43528e-06 -8.09248e-07 -4.5021e-08 -1.14004e-06 -9.63814e-07 -3.88281e-07 -1.64225e-05 -5.22452e-06 4.62487e-07 -5.54128e-06 -5.3363e-07
internal_weight=0 22740 4682 180 77 18058 53 46 876 3806 6216 1688 1356 1403 43 103 11842 95 2118
internal_count=22920 22740 4682 180 77 18058 53 46 876 3806 6216 1688 1356 1403 43 103 11842 95 2118
cat_boundaries=0 1 2
cat_threshold=229907556 78646336
is_linear=0
shrinkage=0.00141176


Tree=41
num_leaves=20
num_cat=0
split_feature=20 21 20 43 22 8 21 55 47 43 22 8 8 8 21 32 87 8 22
split_gain=0.00711327 0.00267773 0.00198699 0.000774303 0.000472814 0.000406516 0.00037601 0.000256784 0.000213714 0.000151116 8.41011e-05 8.28353e-05 7.70383e-05 7.68199e-05 7.42372e-05 5.50307e-05 5.44316e-05 5.36074e-05 4.06446e-05
threshold=-0.00034771366335917259 -0.00010598372682579792 -0.0009268811554647981 -0.00050298200221732248 0.0001191262017528061 26.500000000000004 -0.00035909308644477273 1.1735777258872988 -0.45531380176544184 -0.00056604898418299843 -0.00091588337090797711 21.500000000000004 13.500000000000002 20.500000000000004 0.0001502868617535569 0.00046973477583378559 0.0052861934527754792 10.500000000000002 0.00024667916295584297
decision_type=2 2 2 2 2 2 2 2 10 2 2 2 2 2 2 2 2 2 2
left_child=2 6 3 5 13 7 10 -1 -9 11 15 -4 17 -3 18 -2 -11 -8 -6
right_child=1 4 9 -5 14 -7 12 8 -10 16 -12 -13 -14 -15 -16 -17 -18 -19 -20
leaf_value=-4.1497245689424167e-07 -2.4046818870987573e-06 -2.890832405177511e-07 -6.5553056294051796e-06 -3.0373648699969051e-06 3.9308337534544178e-07 -2.3976765955605853e-06 -4.2554100394959093e-07 -1.758578121377522e-05 -8.065192540677694e-07 -1.4939150084977348e-06 -1.3582937569401278e-06 -3.3427273350403026e-06 -5.1785343600444588e-07 9.5415720838198211e-08 6.389625012846996e-07 -9.1400681809738318e-07 -3.6040572698115133e-06 -1.3107190693467984e-06 -1.8374740439653399e-06
leaf_weight=2.9999999999999991 446 1946 99 25 5634 9.9999999999999982 250 51 2.9999999999999991 60 1057 74 2117 3974 6197 92 211 660 10.999999999999998
leaf_count=3 446 1946 99 25 5634 10 250 51 3 60 1057 74 2117 3974 6197 92 211 660 11
internal_value=0 5.49855e-08 -5.74956e-06 -1.2185e-05 3.35399e-07 -1.47606e-05 -1.02102e-06 -1.62479e-05 -1.69253e-05 -4.17707e-06 -1.64428e-06 -5.43889e-06 -6.88277e-07 -3.12497e-08 5.18564e-07 -2.1711e-06 -3.20666e-06 -1.07481e-06 3.85495e-07
internal_weight=0 22384 536 92 17762 67 4622 57 54 444 1595 173 3027 5920 11842 538 271 910 5645
internal_count=22920 22384 536 92 17762 67 4622 57 54 444 1595 173 3027 5920 11842 538 271 910 5645
is_linear=0
shrinkage=0.00158891


Tree=42
num_leaves=20
num_cat=0
split_feature=21 21 24 9 21 23 95 99 21 9 21 21 95 21 25 57 23 41 43
split_gain=0.00674407 0.0032416 0.00113675 0.000738633 0.000727674 0.000458809 0.000298314 0.000122327 0.00012012 8.56161e-05 8.20522e-05 7.32681e-05 6.24111e-05 4.66316e-05 4.63829e-05 3.55672e-05 3.49789e-05 3.71409e-05 2.48238e-05
threshold=-0.0012522447505034504 -0.00011070788241340777 -0.01120080193504691 -0.0011507250019349156 -0.00055196223547682155 0.0002492886560503394 -0.38372747600078577 4.0698134899139413 -0.00035909308644477273 -0.00034020000020973379 -0.00087498201173730184 -1.2550618748718987e-06 1.9754744172096255 0.0001502868617535569 -0.0010917913750745354 0.0024670251877978448 0.00044256936234887695 0.74147877097129833 -2.6519999209995144e-06
decision_type=2 2 2 2 2 2 2 2 2 2 2 2 2 2 2 2 2 10 2
left_child=2 4 3 6 7 11 -1 -2 -6 15 -9 -3 -8 16 -10 -4 -7 -18 -13
right_child=1 5 9 -5 8 13 12 10 14 -11 -12 18 -14 -15 -16 -17 17 -19 -20
