tree
version=v3
num_class=1
num_tree_per_iteration=1
label_index=0
max_feature_idx=92
objective=regression
feature_names=funding_rate index_price mark_price funding_rate_expcumsum_0.5 funding_rate_expcumsum_1 funding_rate_expcumsum_2 funding_rate_expcumsum_3 funding_rate_expcumsum_5 funding_rate_expcumsum_10 funding_rate_expcumsum_20 funding_rate_rol_mean_3 funding_rate_rol_std_3 funding_rate_rol_max_3 funding_rate_rol_min_3 funding_rate_rol_skew_3 funding_rate_rol_mean_5 funding_rate_rol_std_5 funding_rate_rol_max_5 funding_rate_rol_min_5 funding_rate_rol_skew_5 funding_rate_rol_kurt_5 funding_rate_rol_mean_10 funding_rate_rol_std_10 funding_rate_rol_max_10 funding_rate_rol_min_10 funding_rate_rol_skew_10 funding_rate_rol_kurt_10 funding_rate_rol_mean_20 funding_rate_rol_std_20 funding_rate_rol_max_20 funding_rate_rol_min_20 funding_rate_rol_skew_20 funding_rate_rol_kurt_20 index_price_expcumsum_0.5 index_price_expcumsum_1 index_price_expcumsum_2 index_price_expcumsum_3 index_price_expcumsum_5 index_price_expcumsum_10 index_price_expcumsum_20 index_price_rol_mean_3 index_price_rol_std_3 index_price_rol_max_3 index_price_rol_min_3 index_price_rol_skew_3 index_price_rol_mean_5 index_price_rol_std_5 index_price_rol_max_5 index_price_rol_min_5 index_price_rol_skew_5 index_price_rol_kurt_5 index_price_rol_mean_10 index_price_rol_std_10 index_price_rol_max_10 index_price_rol_min_10 index_price_rol_skew_10 index_price_rol_kurt_10 index_price_rol_mean_20 index_price_rol_std_20 index_price_rol_max_20 index_price_rol_min_20 index_price_rol_skew_20 index_price_rol_kurt_20 mark_price_expcumsum_0.5 mark_price_expcumsum_1 mark_price_expcumsum_2 mark_price_expcumsum_3 mark_price_expcumsum_5 mark_price_expcumsum_10 mark_price_expcumsum_20 mark_price_rol_mean_3 mark_price_rol_std_3 mark_price_rol_max_3 mark_price_rol_min_3 mark_price_rol_skew_3 mark_price_rol_mean_5 mark_price_rol_std_5 mark_price_rol_max_5 mark_price_rol_min_5 mark_price_rol_skew_5 mark_price_rol_kurt_5 mark_price_rol_mean_10 mark_price_rol_std_10 mark_price_rol_max_10 mark_price_rol_min_10 mark_price_rol_skew_10 mark_price_rol_kurt_10 mark_price_rol_mean_20 mark_price_rol_std_20 mark_price_rol_max_20 mark_price_rol_min_20 mark_price_rol_skew_20 mark_price_rol_kurt_20
feature_infos=[-0.00999975:0.00205566] [0.00093291000000000001:47459.036604269997] [0.00093223999999999998:47442.5] [-0.0015651187174566625:0.00028024273317418108] [-0.0058065834271625611:0.00077013066157870529] [-0.014826986263535617:0.001232462468968889] [-0.022682892759861906:0.001362079893779329] [-0.034624105353454296:0.0015048399422765242] [-0.051938912457654786:0.0024640174603802762] [-0.067644998784841232:0.0038138271808232588] [-0.00999975:0.00075188666666666665] [0:0.0043878620458411566] [-0.00999975:0.00205566] [-0.00999975:0.00014585999999999999] [-1.7329800897342607:1.7320508467740297] [-0.0099997499999999982:0.00045693399999999999] [0:0.0042324827360463021] [-0.00999975:0.00205566] [-0.00999975:0.0001] [-2.2361106144175644:2.2360679887365089] [-3.3333333333534116:5.1193438268418419] [-0.0072063780000000011:0.00032894599999999999] [0:0.0046717572082123912] [-0.0025548300000000001:0.00205566] [-0.00999975:0.0001] [-3.1622786850484723:3.1622776629188536] [-2.8867007543853749:10.411819465894956] [-0.0046533119999999997:0.0002230175] [0:0.0042690753904586886] [-0.00072849000000000004:0.00205566] [-0.00999975:0.0001] [-4.4721402623917728:4.4721359551359399] [-2.8867007543853749:20.007557811935342] [0.00014807192653502036:7426.4177090426347] [0.00056591051930687418:27603.174042118822] [0.0015570709018339539:72979.854661184538] [0.0026015426148531247:119234.93722056945] [0.0046826608832669075:211842.30507897795] [0.010234844587365703:439280.9688032624] [0.019999336992172871:885820.31556062493] [0.00099618999999999988:47437.427955086663] [1.7684739013754653e-06:3225.814072521141] [0.0010139299999999999:47722.979190420003] [0.00093291000000000001:47404.926411909997] [-1.7320508073142571:1.732050806649271] [0.0010194760000000001:47375.022182178] [1.0814785249392166e-05:3477.0042828793748] [0.00105656:47732.190928099997] [0.00093291000000000001:47184.594595210001] [-2.2280432962722259:2.234316300651813] [-3.331037977948522:4.9937374616060213] [0.001026157:47270.724100858002] [2.1163027928579941e-05:4615.8014158299702] [0.0010795399999999999:47732.190928099997] [0.00093291000000000001:47005.398589260003] [-2.9183227837634478:3.0526904621446262] [-2.5887072256189732:9.4742321002755538] [0.0010372355:47173.626274019996] [3.6456983631777772e-05:4399.189847456697] [0.001119:47732.190928099997] [0.00093291000000000001:46216.330981179999] [-3.4693510538022778:4.0539237467152507] [-2.5887072256189732:17.351350561569486] [0.00014796619274030248:7424.3261536539067] [0.00056553135182174099:27595.225759903507] [0.001556126128837834:72961.969935024201] [0.0025986681574848725:119210.46008851656] [0.0046783148794081533:211785.3891780955] [0.01022600314416975:439189.12560462987] [0.01999950063056169:885593.90868477465] [0.00099574666666666636:47424.533333333333] [3.8695395106903678e-07:3211.2443512159043] [0.001013:47709.380288259999] [0.00093223999999999998:47395.699999999997] [-1.7320721869527635:1.7320508133873347] [0.0010186379999999999:47363.001474268] [1.0565049928658441e-05:3466.9847488863629] [0.0010554900000000001:47723.235757750001] [0.00093223999999999998:47177.289734760001] [-2.2307629481104727:2.2335268698818971] [-3.3323954841251493:4.9909247441145537] [0.001024872:47259.887027689998] [2.1286907400219646e-05:4609.133712909339] [0.00107894:47723.235757750001] [0.00093223999999999998:47002.362905560003] [-2.9140338343553025:3.0515165853340753] [-2.5951182278050289:9.468380538846576] [0.0010360844999999998:47163.612078437138] [3.6232782132346479e-05:4397.1378105788326] [0.0011185399999999999:47723.235757750001] [0.00093223999999999998:46216.691230780001] [-3.46362428821879:4.0450956789981038] [-2.5951182278050289:17.295860934692854]
tree_sizes=6369 6370 6326 6345 6295 6316 6335 6377 6331 6285 6249 6343 6291 6291 6435 6405 6301 6358 6377 6391 6315 6359 6261 6364 6377 6281 6413 6283 6293 6353 6373 6358 6378 6341 6257 6283 6275 6385 6347 6304 6305 6305 6289 6228 6296 6400 6372 6343 6353 6331 6280 6230 6395 6380 6302 6393 6269 6278 6341 6287 6266 6307 6414 6258 6225 6300 6313 6373 6387 6262 6299 6371 6328 6265 6264 6280 6384 6314 6374 6319 6274 6356 6246 6379 6337 6297 6311 6311 6331 6276 6343 6431 6288 6321 6358 6323 6375 6339 6441 6343

Tree=0
num_leaves=60
num_cat=0
split_feature=6 12 6 6 14 6 6 57 6 76 64 85 9 52 28 12 14 41 52 9 82 62 69 44 26 12 6 41 26 6 55 6 55 22 17 17 62 79 59 12 79 79 79 58 9 76 36 38 9 9 12 12 6 9 74 14 6 52 57
split_gain=0.00833128 0.00281034 0.00248471 0.00078229 0.000603365 0.000386474 0.000311661 0.000252235 0.000310245 0.000323914 0.000240599 0.000172353 0.000170976 0.000116379 0.000109657 8.51976e-05 7.93585e-05 6.79505e-05 6.72232e-05 6.08147e-05 6.04781e-05 7.03418e-05 0.000172206 5.99328e-05 6.74976e-05 5.92959e-05 5.16482e-05 4.77258e-05 5.52958e-05 5.09771e-05 4.87915e-05 4.55864e-05 4.40993e-05 3.77509e-05 4.07206e-05 0.000220503 4.14738e-05 3.67192e-05 3.53522e-05 3.47642e-05 3.17171e-05 4.96906e-05 3.82531e-05 2.94816e-05 2.87522e-05 2.80928e-05 5.8101e-05 2.64946e-05 2.37161e-05 2.30587e-05 2.26742e-05 2.20007e-05 2.19134e-05 2.01953e-05 1.92725e-05 1.93676e-05 1.88138e-05 1.60316e-05 2.24594e-05
threshold=-0.00076040521570607986 -0.00082355999999999987 -1.4571715786385067e-05 -0.0014055854338797379 -1.7315369097363307 -0.00034817253106727056 0.00017009016818770044 1.1878107905000002 -0.0024545486097982106 1.1610005678670714 0.032749978631630788 -1.62503167095568 -0.013664336659536536 0.024809316981593357 0.001760780724771673 -0.00050628499999999987 -1.7320508075688779 0.24919842159259867 0.19858497071217143 -0.01169449409707796 0.44579035663412675 2.5811009047551079 284.97849697229179 1.7296337808193945 0.024955587836455861 -3.0474999999999999e-05 -0.00019261324687092001 0.040114353842417232 5.3435603073523827 -0.0019746794115600721 0.63544022525378974 0.00022824243498077861 0.89113321708776005 0.00049272290045995336 7.8140000000000021e-05 8.1365000000000004e-05 0.75449635138127735 0.08933142375208275 0.7226776250000001 -0.00061405499999999985 0.70263125608285304 -0.61100863023516017 1.6663037575230824 0.031739519355576166 -0.0036925104998010382 0.006247698421275036 0.1899958956935173 1.0998269807868792 -0.0052107169356712677 -0.0041315754591077208 -0.00061405499999999985 -1.0000000180025095e-35 7.751186795857884e-05 -0.0055206237481090275 -0.60022074455603158 1.7319489465607465 -0.00060665953561850165 0.075051027357521991 1.9915631517500001
decision_type=2 2 2 2 10 2 2 2 2 2 2 2 2 2 2 2 10 2 2 2 2 2 2 2 10 2 2 2 10 2 2 2 2 2 2 2 2 2 2 2 2 2 2 2 2 2 2 2 2 2 2 2 2 2 2 8 2 2 2
left_child=1 4 5 7 -1 44 52 16 9 17 14 -10 13 -12 -6 -11 -3 19 47 39 23 48 -23 33 -25 43 -7 28 29 30 -18 -8 -20 34 -5 -36 50 -32 -29 -9 41 -15 -42 -13 -2 -46 51 -14 -22 -38 -37 -47 -4 -28 55 -48 -56 -45 -59
right_child=2 3 6 20 10 26 31 8 11 15 12 25 18 40 -16 -17 27 -19 32 -21 21 22 -24 24 -26 -27 53 38 -30 -31 37 -33 -34 -35 35 36 49 -39 -40 -41 42 -43 -44 57 45 46 54 -49 -50 -51 -52 -53 -54 -55 56 -57 -58 58 -60
leaf_value=-0.00039653578429933403 -6.7122585321851831e-05 -0.00018172559063992609 -4.631813546054139e-05 -7.2507676013916085e-05 -0.00039514984301276265 -5.5554042226019614e-05 -4.0694287609765689e-05 -0.00015042400364911163 -0.00022226899233197415 -0.00013060480992837872 -0.00010595669359923717 -0.00016723750170033491 -0.00013497024335846927 -0.00017037754476986579 -0.00018979780889696093 -0.00029864456946101354 -9.1269768129304855e-05 -9.5322490020361358e-05 -0.00017009405363637272 -0.00020482040943442008 -8.9349703317798899e-05 -0.00024573137431894808 -8.6239032039076306e-05 -0.00019002409890744594 -6.6163487540561738e-05 -6.8883052893809041e-05 -6.6436505384869071e-05 -0.00014641766766459123 -6.1800986819887508e-05 -7.6557279970206665e-05 -0.00017001172832023577 -3.769877440801792e-05 -7.4460555994295175e-05 -5.7990402657049249e-05 -0.00023650921460381156 -0.00012253450540179994 -7.3886016469314319e-05 -9.4514674704496574e-05 -8.4075091675664968e-05 -8.4239322786494803e-05 -9.3289480401284421e-05 -0.00025850377723154192 -0.0001921988763001578 -7.606255004374676e-05 -5.6736299458567298e-05 -7.5949197656633981e-05 -6.5962468962157047e-05 -6.8359340920492412e-05 -7.5124654505957482e-05 -0.00013070361403733251 -7.1002538487210926e-05 -0.0001539442692468524 -4.3626985298551894e-05 -5.0598963785059212e-05 -6.7361292141284818e-05 -0.0001072066219419201 -5.9062260737536655e-05 -0.00014600069673639164 -0.00010873297766927414
leaf_weight=5.9999999999999991 578 2.9999999999999991 2185 504 3 1445 3046 9.9999999999999982 4.9999999999999991 3 5.9999999999999991 3.9999999999999991 3.0000000000000027 9.9999999999999982 5 7.9999999999999982 38 13.999999999999998 16.000000000000004 8.0000000000000018 120 2.9999999999999991 11.999999999999998 2.9999999999999991 4 15.999999999999998 33 9.0000000000000018 39 58 6.9999999999999982 7060 2.9999999999999991 62 2.9999999999999991 2.9999999999999991 5.9999999999999991 7 8.9999999999999982 7.0000000000000027 3.9999999999999982 17.000000000000004 5 7.9999999999999991 363 4 394 8.9999999999999982 99 8.9999999999999982 75 2.9999999999999991 2991 2742 146 3.9999999999999991 551 8.9999999999999982 200
leaf_count=6 578 3 2185 504 3 1445 3046 10 5 3 6 4 3 10 5 8 38 14 16 8 120 3 12 3 4 16 33 9 39 58 7 7060 3 62 3 3 6 7 9 7 4 17 5 8 363 4 394 9 99 9 75 3 2991 2742 146 4 551 9 200
internal_value=-4.84488e-05 -9.5636e-05 -4.51259e-05 -8.83924e-05 -0.000207542 -5.59556e-05 -4.06873e-05 -0.000109997 -0.000121569 -0.000168035 -0.000189468 -0.000111516 -0.000174512 -0.000202204 -0.000296771 -0.000263481 -8.9809e-05 -0.000136411 -0.000133362 -0.000156733 -7.72829e-05 -8.63084e-05 -0.000128474 -7.40742e-05 -0.000130308 -0.000108459 -5.2425e-05 -8.73743e-05 -8.3139e-05 -9.05159e-05 -0.000105261 -3.86008e-05 -0.00015705 -7.3357e-05 -7.49264e-05 -8.72455e-05 -8.04811e-05 -0.000137851 -0.000118762 -0.000126674 -0.000216257 -0.000231385 -0.000157119 -0.00011122 -6.32427e-05 -6.17002e-05 -6.33264e-05 -9.03866e-05 -8.30697e-05 -0.000110987 -7.38972e-05 -0.000118384 -4.47624e-05 -5.07937e-05 -6.29109e-05 -6.65232e-05 -6.08253e-05 -0.000109647 -0.000110795
internal_weight=0 1452 21545 1365 87 6263 15282 462 292 50 81 242 73 42 8 11 170 39 31 25 903 234 15 669 7 237 4220 167 149 110 52 10106 19 662 600 96 93 14 18 17 36 27 9 221 2043 1465 1102 12 219 15 78 7 5176 2775 1095 398 697 217 209
internal_count=22997 1452 21545 1365 87 6263 15282 462 292 50 81 242 73 42 8 11 170 39 31 25 903 234 15 669 7 237 4220 167 149 110 52 10106 19 662 600 96 93 14 18 17 36 27 9 221 2043 1465 1102 12 219 15 78 7 5176 2775 1095 398 697 217 209
is_linear=0
shrinkage=0.408333


Tree=1
num_leaves=60
num_cat=0
split_feature=5 5 12 5 72 8 5 7 53 5 62 1 41 19 29 23 40 9 5 41 16 12 32 58 39 32 79 9 7 51 1 1 30 92 8 9 39 80 0 9 15 4 4 23 8 79 9 41 4 80 58 80 32 20 9 0 82 80 39
split_gain=0.00775216 0.00249142 0.00233519 0.000576884 0.000549711 0.000410094 0.000397463 0.000321893 0.000268059 0.000255631 0.000177744 0.00034931 0.000167033 0.000146446 0.000135465 0.000149609 7.81788e-05 6.63253e-05 5.87049e-05 5.62632e-05 7.38945e-05 4.93622e-05 6.0883e-05 7.99172e-05 4.85222e-05 5.48571e-05 0.000112636 4.80049e-05 4.64554e-05 4.61097e-05 0.000156918 4.2947e-05 3.69187e-05 3.56163e-05 0.000123621 3.23156e-05 3.02738e-05 2.55523e-05 2.5417e-05 2.48341e-05 2.65069e-05 2.28762e-05 2.18094e-05 2.17236e-05 2.53986e-05 3.38991e-05 3.99558e-05 2.09239e-05 2.24625e-05 2.08027e-05 1.88108e-05 1.80691e-05 1.78057e-05 1.72542e-05 1.69673e-05 2.14788e-05 2.13645e-05 2.56277e-05 1.65164e-05
threshold=-0.00055196223969603236 -1.816308683565882e-05 -0.00082355999999999987 -0.00096450118053986614 0.054846645000000006 -0.011200802194804071 -0.00024796495117777271 0.00030268335375520865 1.2176114150000001 -0.0015549517909796212 2.5811009047551079 13.593215675000001 1.5448016061979517 1.3539533688004706 8.4565000000000015e-05 7.7995000000000015e-05 1.212919791666667 -0.001091791388792648 -0.0001260124160824939 0.019223390290255448 0.00046973477392311198 -0.00061405499999999985 1.7939590800262886 0.029195001172552058 1.1735776986757227 1.4849661439763964 -0.35881552854460846 -0.013664336659536536 0.00012157444927059933 12.0638791725 12.781118280000003 0.60199497000000013 9.9210000000000007e-05 0.92666451008856987 -0.0013952082288469019 -0.0036925104998010382 1.9953800337743535 0.45867959905695704 -0.00065807999999999991 -0.0026860461335976556 5.4940000000000155e-06 -0.00025769287349073982 -0.0001484249916753015 7.7995000000000015e-05 -0.0026324392726123397 0.65250440574079571 -0.0044810109502592746 0.082191353036842343 -0.00038178409097380198 -0.56148975224593001 0.10965823560119776 -0.26794219906766803 10.977255486503848 -0.3191653259731938 4.7955239428018255e-05 -0.00027738999999999992 0.019812277745847231 -3.1036963496262304 0.25241927492518368
decision_type=2 2 2 2 2 2 2 2 2 2 2 2 2 8 2 2 2 2 2 2 2 2 10 2 2 10 2 2 2 2 2 2 2 2 2 2 2 2 2 2 2 2 2 2 2 2 2 2 2 2 2 2 10 10 2 2 2 2 2
left_child=2 6 4 8 -1 13 35 28 17 12 -11 -12 16 24 15 29 -10 21 39 -7 -21 22 -4 -24 -6 53 -27 52 -3 58 -31 -25 -9 50 38 42 -23 51 49 -8 -41 -32 43 -2 -45 -46 -47 48 -38 -35 -29 -18 -16 -26 55 56 -37 -58 -5
right_child=1 7 3 14 5 19 18 32 9 10 11 -13 -14 -15 27 -17 37 -19 -20 20 -22 36 23 31 25 26 -28 33 -30 30 41 -33 -34 34 -36 54 47 -39 -40 40 -42 -43 -44 44 45 46 -48 -49 -50 -51 -52 -53 -54 -55 -56 -57 57 -59 -60
leaf_value=-0.00022560287965461612 -1.2605005063702621e-05 9.8834047521497347e-07 -2.0086582538313354e-05 -3.9279424163396472e-05 -2.9914791957708077e-05 -1.7419802497897765e-05 -7.3493637041744599e-06 5.2605759400588218e-06 -9.9340761516941717e-05 -3.6243513775940139e-05 -0.00018425756134092809 -4.1708376375027005e-05 -0.00012995290635444686 -0.0001550696493888443 -4.4371409118563557e-05 -0.00010325627226848155 -4.4289796278462732e-05 -7.7014232374494895e-05 -1.6076982890942389e-06 -2.7028949526456092e-05 -7.3561686521214954e-05 -9.7014634142446145e-06 -1.1466004555889715e-05 -9.4695621269888115e-05 -4.3249303208930164e-05 -6.0675266597952167e-05 -0.00014719808008521797 -1.0468015707464747e-05 3.1479959635175605e-06 -0.00010078254214022308 -3.3364517202287624e-05 -3.1127730035223058e-05 6.8973302643048375e-06 -5.1917780074290927e-05 -7.8099296176029989e-05 -7.4237746710095377e-06 -2.9539526393044204e-05 -6.6461267851991563e-05 -9.4591763263451861e-06 -3.6863623127501536e-06 -3.2571206265856741e-05 -2.1256569695131992e-05 -9.9474419136634993e-06 -1.0545397561953805e-05 -1.8806570733431726e-05 -2.3225645660810795e-05 -7.3311855667270725e-05 6.4181680500041697e-06 -1.2362376946839505e-05 -1.7392148538742831e-05 -1.622461863144462e-05 -1.3375282621079038e-05 -7.4092673457926144e-06 -8.4195499463627713e-05 -3.4055504350307121e-06 -7.4959051759566317e-06 -3.8886932937505969e-05 -1.2293992361635337e-05 -1.9426796605050465e-05
leaf_weight=3.9999999999999991 211 2774 18 6.9999999999999991 2.9999999999999991 7.9999999999999991 401 6049 6.9999999999999991 162 2.9999999999999991 10.999999999999998 6.9999999999999991 9.9999999999999982 10.999999999999998 2.9999999999999991 15.000000000000002 2.9999999999999991 2417 10.000000000000002 17 36 4.9999999999999991 5.9999999999999982 5.9999999999999973 5.9999999999999991 8.9999999999999982 213 3548 3.9999999999999991 62 4 3373 3.9999999999999991 4.9999999999999991 184 53 10.999999999999998 29 1334 3.9999999999999991 55 352 26 31 7.9999999999999991 3.9999999999999991 2.9999999999999991 18 9.9999999999999982 166 5.0000000000000027 2.9999999999999991 14.000000000000004 93 671 4.9999999999999991 331 155
leaf_count=4 211 2774 18 7 3 8 401 6049 7 162 3 11 7 10 11 3 15 3 2417 10 17 36 5 6 6 6 9 213 3548 4 62 4 3373 4 5 184 53 11 29 1334 4 55 352 26 31 8 4 3 18 10 166 5 3 14 93 671 5 331 155
internal_value=0 1.75989e-06 -3.11078e-05 -2.60963e-05 -9.3114e-05 -8.41193e-05 -5.04158e-06 4.38317e-06 -3.88758e-05 -4.75946e-05 -4.03685e-05 -8.25021e-05 -7.43646e-05 -0.000107915 -1.96004e-05 -2.63209e-05 -6.10551e-05 -2.54443e-05 -2.8689e-06 -4.93946e-05 -5.79082e-05 -2.38351e-05 -3.7322e-05 -5.54565e-05 -9.18473e-05 -9.61774e-05 -0.000118544 -1.51924e-05 2.20068e-06 -2.51446e-05 -3.11168e-05 -7.44098e-05 5.84719e-06 -1.4376e-05 -2.45566e-05 -9.75041e-06 -1.94892e-05 -4.95757e-05 -1.66972e-05 -4.61988e-06 -3.79698e-06 -2.79011e-05 -1.20787e-05 -1.47131e-05 -2.08875e-05 -2.67591e-05 -4.42762e-05 -2.4058e-05 -2.54169e-05 -3.00602e-05 -1.30254e-05 -3.75661e-05 -3.74729e-05 -7.45561e-05 -8.59587e-06 -8.99796e-06 -1.09181e-05 -1.28039e-05 -2.05203e-05
internal_weight=0 21816 1181 1094 87 83 6072 15744 367 221 176 14 45 48 727 286 38 146 4156 35 27 143 33 15 38 35 15 441 6322 283 121 10 9422 427 48 1916 110 31 43 1739 1338 117 632 280 69 43 12 74 71 14 379 20 14 20 1284 1191 520 336 162
internal_count=22997 21816 1181 1094 87 83 6072 15744 367 221 176 14 45 48 727 286 38 146 4156 35 27 143 33 15 38 35 15 441 6322 283 121 10 9422 427 48 1916 110 31 43 1739 1338 117 632 280 69 43 12 74 71 14 379 20 14 20 1284 1191 520 336 162
is_linear=0
shrinkage=0.0125


Tree=2
num_leaves=60
num_cat=0
split_feature=6 6 3 14 9 6 6 29 58 55 10 42 87 76 88 11 17 92 92 3 47 10 52 92 24 9 9 3 6 91 22 22 76 10 91 32 25 58 58 3 25 32 76 14 14 0 24 1 92 9 58 6 9 0 9 0 0 32 7
split_gain=0.00687926 0.00249352 0.00177499 0.000747655 0.000453986 0.000372093 0.000353844 0.000251068 0.000245059 0.000154468 0.00018415 0.000196311 0.000323489 0.000123078 0.00012323 9.96296e-05 8.83746e-05 8.03385e-05 0.000162311 7.60205e-05 7.40351e-05 6.95583e-05 5.35674e-05 6.70896e-05 5.19605e-05 5.08004e-05 4.99205e-05 4.66102e-05 4.56102e-05 4.45999e-05 3.93191e-05 4.34565e-05 0.000275361 6.46527e-05 0.000199295 3.91921e-05 3.62789e-05 3.28495e-05 3.5909e-05 2.78065e-05 2.4222e-05 2.60162e-05 3.8332e-05 2.38807e-05 2.35788e-05 0.000126649 2.27497e-05 2.22513e-05 2.45775e-05 2.20052e-05 2.13966e-05 2.05234e-05 2.03615e-05 2.02764e-05 3.0024e-05 1.99844e-05 1.92188e-05 1.81926e-05 1.79946e-05
threshold=-0.00096297929194654461 -6.8011887498141977e-05 -0.00013950467800337196 -1.7320508075689014 -0.0052107169356712677 -0.00038236030329752072 0.00017009016818770044 8.4565000000000015e-05 13.681853597221151 -1.4203999498324382 -0.0008333599999999999 0.057894480000000005 0.054886103750000005 0.023001364309712054 0.032578900830642861 0.0014498308042244082 5.1615000000000006e-05 2.9446200218655139 3.5153371487519403 -3.8984237673794082e-05 82.86908089500001 -0.00058592833333333326 0.053816391226943087 -1.1012566925071556 -0.0023506149999999995 -0.0010436223154063216 -0.013664336659536536 -2.6390155493616487e-05 2.9937863811197069e-05 -1.0537518737105998 1.2939007089478245e-11 1.6359628558130558e-11 0.00080345810109710601 9.9999999999999991e-05 0.25850568824028641 -1.3691481346013774 -1.2169576364045829 0.029195001172552058 0.094056584836497439 -3.5310051735432384e-05 -2.2056531482403261 9.2804976446192473 0.0089171586057158834 -1.6996471120084389 1.6853098680630751 -0.00052070999999999986 -0.00085775499999999987 7.3417719500000009 -0.66523180462927078 -0.0036925104998010382 0.081453418638374894 -0.0015417507421582428 -0.0058194479516813077 8.9065000000000015e-05 -0.0034547820901283987 -0.00015090499999999998 -0.00013061499999999997 1.5643798695966897 0.0003731121759631459
decision_type=2 2 2 10 2 2 2 2 2 2 2 2 2 2 2 2 2 2 2 2 2 2 2 2 2 2 2 2 2 2 2 2 2 2 2 8 10 2 2 2 10 10 2 8 10 2 2 2 2 2 2 2 2 2 2 2 2 10 2
left_child=2 5 3 -1 8 19 28 16 9 -5 11 12 -11 40 15 -15 17 21 -19 44 -10 -4 -16 24 36 37 43 46 -3 -28 -8 32 -32 34 -34 -25 -24 -6 -39 56 -13 42 -42 -9 49 -46 -7 48 -37 -2 -12 -52 57 54 -29 -23 -31 -21 -33
right_child=1 6 7 4 25 27 30 26 20 10 50 13 -14 14 22 -17 -18 18 -20 52 -22 55 23 35 -26 -27 29 53 -30 39 31 58 33 -35 -36 47 -38 38 -40 -41 41 -43 -44 -45 45 -47 -48 -49 -50 -51 51 -53 -54 -55 -56 -57 -58 -59 -60
leaf_value=-0.00024347875890958366 -1.7040465128951488e-05 1.1327891294456759e-07 -4.2094953667044261e-05 -0.00017572525484125002 -1.1290969129044559e-05 -4.3591079570782888e-05 7.7301585428884688e-06 -7.4537199125435545e-07 -0.00018800408659477584 -2.4655731685661902e-05 -1.9987197791626424e-05 -8.1109022721648194e-06 -0.00019912120401522157 -0.00017154802429190591 -3.4884795889983218e-05 -4.5539206768306001e-05 -0.00010948206543526298 -0.00014257765933871271 -3.4789594925688501e-05 -1.6414566112771721e-05 -6.3413867339222143e-05 -2.8989142401567063e-05 -7.4841984959254576e-05 -1.8059246975304849e-05 -4.1133578908861496e-05 -8.3925671837549684e-05 -4.7052153993393371e-05 -9.4764699862294748e-06 2.9077082772553254e-06 -1.7175267173012003e-05 -0.00012817330068457721 5.0237965019659293e-06 5.4617566403227545e-06 7.4487775383737001e-06 -0.00011940431338629577 -4.0013395393124049e-05 -0.00014051006813443575 -5.7154618861044139e-05 -2.1463549402500278e-05 -7.0931672684016482e-06 -5.7435305001800225e-05 -8.2146740809285276e-05 -1.567529879145689e-05 -4.0406651919703041e-05 -9.7424174132187993e-05 -1.7244940875157457e-05 -7.044359119399461e-06 -5.8484984604757892e-05 -9.0347984120907156e-05 -1.2251807310338528e-05 -5.4999980991242699e-05 -1.6324744771584453e-05 -8.0614542319446191e-06 -6.3223664597389345e-08 -2.9387642824928609e-06 -1.0876250038903945e-05 -4.8319445636409985e-05 -4.5957495817269509e-06 6.7429652313707576e-06
leaf_weight=4.9999999999999991 356 1993 135 2.9999999999999991 23 2.9999999999999991 4296 4 5.9999999999999982 3.9999999999999982 10.999999999999998 4.0000000000000027 7 5.9999999999999982 8.9999999999999982 3 2.9999999999999991 3.9999999999999991 11.999999999999998 134 3 180 8.0000000000000036 4 3.9999999999999991 2.9999999999999991 9.9999999999999982 175 4185 261 2.9999999999999991 2592 10.999999999999998 66 2.9999999999999991 4.999999999999992 10 11.000000000000002 19 73 12.000000000000005 4.9999999999999991 9.9999999999999982 30 3.9999999999999991 63 678 30 27.000000000000007 648 20 5.0000000000000027 978 501 2143 17 3.9999999999999991 40 3135
leaf_count=5 356 1993 135 3 23 3 4296 4 6 4 11 4 7 6 9 3 3 4 12 134 3 180 8 4 4 3 10 175 4185 261 3 2592 11 66 3 5 10 11 19 73 12 5 10 30 4 63 678 30 27 648 20 5 978 501 2143 17 4 40 3135
internal_value=0 1.83937e-06 -3.91098e-05 -7.34368e-05 -6.91139e-05 -6.79246e-06 4.87326e-06 -2.69906e-05 -8.00203e-05 -7.55017e-05 -7.29266e-05 -8.05277e-05 -0.000143021 -7.451e-05 -8.2522e-05 -0.000138299 -3.62807e-05 -3.53377e-05 -6.85384e-05 -1.16557e-05 -0.000156968 -3.35367e-05 -7.59884e-05 -7.97529e-05 -0.000105429 -3.02072e-05 -1.8382e-05 -3.70117e-06 2.0064e-06 -1.6573e-05 6.62545e-06 5.80742e-06 -5.06787e-06 1.07397e-06 -2.74717e-05 -6.97486e-05 -0.000116799 -2.56687e-05 -3.59718e-05 -1.55351e-05 -4.53913e-05 -5.04274e-05 -3.99603e-05 -3.58952e-05 -1.45762e-05 -2.33941e-05 -7.26904e-06 -7.27438e-05 -8.39341e-05 -1.3965e-05 -4.03458e-05 -4.81903e-05 -8.93023e-06 -2.83699e-06 -3.43621e-06 -2.74889e-05 -1.78253e-05 -1.37394e-05 5.96589e-06
internal_weight=0 22007 990 257 252 5723 16284 733 196 187 184 148 11 137 106 9 351 348 16 2223 9 332 97 88 22 56 382 3500 6178 348 10106 5810 83 80 14 66 18 53 30 338 31 27 22 34 1071 67 681 62 32 1004 36 25 1152 2819 2318 197 265 174 5727
internal_count=22997 22007 990 257 252 5723 16284 733 196 187 184 148 11 137 106 9 351 348 16 2223 9 332 97 88 22 56 382 3500 6178 348 10106 5810 83 80 14 66 18 53 30 338 31 27 22 34 1071 67 681 62 32 1004 36 25 1152 2819 2318 197 265 174 5727
is_linear=0
shrinkage=0.0152036


Tree=3
num_leaves=60
num_cat=0
split_feature=6 6 3 14 15 6 6 41 42 55 28 82 61 34 2 38 3 57 2 55 60 46 15 3 61 3 61 23 2 6 58 25 40 41 27 27 3 83 19 61 35 82 57 38 58 24 38 41 6 27 27 25 3 28 20 24 25 10 58
split_gain=0.00624963 0.00225098 0.00162815 0.000688656 0.000406333 0.00033612 0.000319185 0.00027382 0.000280208 0.000259726 0.000180959 0.000180686 0.000106184 0.000163558 0.000102223 0.000131309 8.08604e-05 7.51143e-05 8.87682e-05 6.75474e-05 5.74204e-05 6.88611e-05 5.56596e-05 5.3892e-05 4.58965e-05 6.78059e-05 8.12667e-05 6.20098e-05 5.50839e-05 4.12991e-05 4.00227e-05 4.07808e-05 4.72806e-05 3.93516e-05 3.91998e-05 3.70382e-05 3.57527e-05 3.03778e-05 2.72803e-05 3.33488e-05 2.70559e-05 2.5833e-05 7.20439e-05 0.000248713 2.9948e-05 2.15489e-05 2.03852e-05 2.26716e-05 1.90396e-05 1.80078e-05 1.68926e-05 1.66464e-05 1.62018e-05 1.94161e-05 1.61651e-05 2.26903e-05 1.57619e-05 1.57216e-05 1.54892e-05
threshold=-0.00096297929194654461 -6.8011887498141977e-05 -0.00013950467800337196 -1.7320508075689014 -0.0010310429999999997 -0.00037015925011722435 0.00017009016818770044 1.5448016061979517 0.057894480000000005 -1.3826248451209444 0.0014698631439171428 0.46203265474184169 1.4331583654870417 7.9656712274304429 0.18257425000000002 3.6070882847387229 -3.8984237673794082e-05 1.1878107905000002 7.7287710750000009 0.27276330240168589 0.035998035000000005 0.0043987606201407433 -0.00051544999999999987 -4.3674972457420737e-05 -0.45242683044675674 -9.8859093539576024e-05 -0.67079512068769198 -0.00017776999999999997 0.7968782350000001 2.5560276539224224e-05 0.026961146457933575 -0.82734589028327343 1.212919791666667 0.026162586071391967 -0.00042348399999999996 9.9745534188034195e-05 -2.6390155493616487e-05 0.61295833500000008 -1.888785380253595 -0.87996349754618353 2.9821048789454214 0.081847464470323497 1.7517191282500002 16.337684227619302 0.17987718058871363 -0.00085775499999999987 320.36447781509622 0.83739375288580442 -0.0006786744399098608 -1.2259999999999949e-06 -0.00013905924999999997 -2.1098280233488675 8.8907395845227945e-06 0.00015927691303477533 0.42562282861019207 -0.00085775499999999987 -2.76701330861937 -1.0161666666666666e-05 0.018847311547959659
decision_type=2 2 2 10 2 2 2 2 2 2 2 2 2 2 2 2 2 2 2 2 2 2 2 2 2 2 2 2 2 2 2 10 2 2 2 2 2 2 10 2 2 2 2 2 2 2 2 2 2 2 2 10 2 2 8 2 10 2 2
left_child=2 5 3 -1 7 16 29 8 10 -6 -5 24 23 -14 58 -16 41 37 33 -9 -11 -22 30 34 25 26 54 -26 -28 -3 -23 32 38 -19 46 -8 45 -17 -32 -40 -33 -2 43 44 -43 -7 47 -13 51 -31 -46 -18 53 -38 55 -4 -29 -47 -10
right_child=1 6 11 4 9 36 35 19 14 20 -12 12 13 -15 15 17 48 18 -20 -21 21 22 -24 -25 27 -27 28 56 -30 49 31 40 -34 -35 -36 -37 52 -39 39 -41 -42 42 -44 -45 50 57 -48 -49 -50 -51 -52 -53 -54 -55 -56 -57 -58 -59 -60
leaf_value=-0.00016742458228360526 -8.4134827254726477e-06 3.3306771428825568e-08 -3.801530317022379e-05 -0.0001619371094486931 -0.00012136025015603414 -3.0105089297814471e-05 4.031675617576094e-06 -5.8174424974078473e-05 -2.9006287654197499e-05 -9.6539106297396685e-06 -5.1984368183184423e-05 -2.9673694853168305e-05 -0.00011608059570955281 -2.7415928176858212e-05 -9.9135872018946857e-05 -4.554298071360045e-05 2.2804738996042457e-06 -1.9172261060951071e-05 -3.3239404977807282e-05 -0.00013116390867666766 -8.0217264423316178e-05 -1.6094704871128281e-05 -1.5937753239079948e-05 -7.6821379664951657e-06 -2.0765108896708188e-05 -1.5005789285146612e-05 -8.8718721473758882e-05 -1.2327808534299492e-06 -2.8249032964760594e-05 7.2697272833577228e-07 -2.3534677086652006e-05 -6.5522959186353778e-06 -3.4338999540816363e-05 -6.883227084944775e-05 -1.9005479406026862e-05 5.4213568883513448e-06 -1.6090916314552e-06 -1.6235088375427269e-05 -3.3723900094628336e-05 -8.7114878591488794e-05 -3.3148780548426154e-05 -4.1651945582336984e-06 -1.0828559995688616e-05 -0.00010899245230989024 -4.1119330774315379e-05 -4.4366333716372348e-06 -2.5021320625681204e-05 -4.8627139359422325e-05 -5.3078146648840941e-06 2.3698209983107775e-06 -9.1470930651253632e-06 -9.9161602719845263e-06 3.1436327309726193e-08 -3.7716495838679894e-06 -2.8073992705851012e-06 -6.7441138989207449e-06 -1.0890255950078141e-05 -2.3965148424560381e-05 -5.1802575365978904e-06
leaf_weight=4.9999999999999991 583 1908 7.0000000000000027 3.9999999999999982 2.9999999999999991 2.9999999999999991 6591 4.9999999999999991 12.000000000000002 14.999999999999998 5 46 2.9999999999999991 8.9999999999999982 6.9999999999999991 7.0000000000000027 13.999999999999998 2.9999999999999991 19 7.9999999999999991 2.9999999999999991 12.999999999999998 25 23 86 65 3.9999999999999982 22 5 1056 2.9999999999999991 6.0000000000000062 21 34 80 3515 1620 12.999999999999998 3.9999999999999991 6.999999999999992 30 14.000000000000005 478 2.9999999999999991 5 641 87 12.999999999999998 1029 3214 3.9999999999999982 182 431 712 5.0000000000000044 4.9999999999999973 273 3.9999999999999991 4.9999999999999991
leaf_count=5 583 1908 7 4 3 3 6591 5 12 15 5 46 3 9 7 7 14 3 19 8 3 13 25 23 86 65 4 22 5 1056 3 6 21 34 80 3515 1620 13 4 7 30 14 478 3 5 641 87 13 1029 3214 4 182 431 712 5 5 273 4 5
internal_value=0 1.25309e-06 -2.67524e-05 -5.0342e-05 -4.73664e-05 -4.6316e-06 3.32142e-06 -6.17448e-05 -5.51371e-05 -3.35045e-05 -0.000112159 -1.84242e-05 -2.57237e-05 -5.68063e-05 -4.89455e-05 -5.3992e-05 -7.84209e-06 -4.86005e-05 -5.52738e-05 -0.000109252 -3.04973e-05 -3.31787e-05 -3.11666e-05 -2.40045e-05 -1.4342e-05 -2.13576e-05 -3.60933e-05 -1.26148e-05 -6.13088e-05 1.36769e-06 -3.54581e-05 -3.87307e-05 -4.76426e-05 -6.54163e-05 -2.56245e-05 4.51551e-06 -2.45384e-06 -2.81731e-05 -6.39785e-05 -7.21282e-05 -2.90129e-05 -1.00103e-05 -1.18372e-05 -2.92926e-05 -1.47887e-05 -4.75896e-06 -2.90974e-05 -3.45907e-05 -5.9115e-06 1.9638e-06 -2.92451e-05 -9.03782e-06 -1.9117e-06 -2.27069e-06 -2.00795e-05 -2.65067e-05 -1.01766e-05 -4.59465e-06 -2.26757e-05
internal_weight=0 22007 990 257 252 5723 16284 122 109 130 9 733 261 12 100 83 2312 76 56 13 127 112 109 249 472 91 26 381 9 6178 84 71 35 37 226 10106 3411 20 14 11 36 1087 504 26 23 648 146 59 1225 4270 9 196 2763 2332 17 12 295 645 17
internal_count=22997 22007 990 257 252 5723 16284 122 109 130 9 733 261 12 100 83 2312 76 56 13 127 112 109 249 472 91 26 381 9 6178 84 71 35 37 226 10106 3411 20 14 11 36 1087 504 26 23 648 146 59 1225 4270 9 196 2763 2332 17 12 295 645 17
is_linear=0
shrinkage=0.0109091


Tree=4
num_leaves=60
num_cat=0
split_feature=5 5 4 14 29 5 17 0 6 17 62 49 17 32 39 4 82 42 32 55 49 32 80 18 28 44 8 16 58 5 58 61 8 30 49 16 8 5 16 3 55 61 56 41 8 88 50 44 3 8 61 30 0 5 3 82 1 0 41
split_gain=0.00583126 0.00183376 0.00171902 0.000566639 0.000296689 0.00029332 0.000258839 0.000248733 0.00024081 0.000174879 0.00032023 0.000174494 0.000156498 0.000116979 0.000111304 9.7473e-05 8.52724e-05 0.000154564 0.000161179 7.45717e-05 5.97411e-05 7.05028e-05 5.22356e-05 8.09156e-05 5.07737e-05 5.57791e-05 5.01861e-05 4.23863e-05 4.16687e-05 4.04085e-05 3.78506e-05 3.48584e-05 3.90828e-05 3.24043e-05 2.99847e-05 2.88729e-05 2.8605e-05 2.78623e-05 2.6878e-05 2.6815e-05 2.61818e-05 2.61588e-05 2.616e-05 2.54502e-05 2.49822e-05 2.31701e-05 2.24967e-05 1.81976e-05 1.74571e-05 1.74126e-05 2.24221e-05 1.66457e-05 1.71759e-05 1.62517e-05 1.57447e-05 1.56606e-05 2.29034e-05 2.20699e-05 3.77212e-05
threshold=-0.00055196223969603236 -1.816308683565882e-05 -0.00060724104161886657 -1.7320508075689014 -0.00016104999999999996 -0.00023958851521806604 -0.00026769999999999989 -0.0016825249999999996 0.00017227191153923972 -0.00021052999999999998 2.5811009047551079 0.67616778081462414 -0.00037599499999999995 19.8502124103162 18.751625256079141 -0.00029583373318838984 0.042313506971060434 0.73099593000000007 3.4829761121602281 0.42419912059356152 0.22986978578867695 0.53401802579130331 -2.5017244401587653 -0.00068154999999999984 0.001760780724771673 0.86459410881246401 -0.004241268696005899 0.00070300800490487607 0.051478846607392284 -0.0001260124160824939 0.036335524215808143 -0.53079360770464568 -0.0039653646112019171 9.9210000000000007e-05 1.6283657032052683 0.00070300800490487607 0.00027502636108261839 -0.00035909308046711046 0.00042969003787125516 -3.6429421875796077e-05 -0.81214809479219263 -0.21816967225774012 -0.71478922367452069 0.029217817442039416 -0.0078432497379276496 0.064848150380259317 -1.0401019173844728 -0.79943750566476235 1.429592139500286e-05 -0.0039653646112019171 -1.0544871227129657 -0.00096650499999999988 -0.00036805499999999994 -0.0010843602781098311 -7.3445832874615628e-05 0.0080872138348516368 0.094581545000000017 -0.00027738999999999992 0.88630573097242271
decision_type=2 2 2 10 2 2 2 2 2 2 2 2 2 10 2 2 2 2 10 2 2 10 2 2 2 2 2 2 2 2 2 2 2 2 2 2 2 2 2 2 2 2 2 2 2 2 2 2 2 2 2 2 2 2 2 2 2 2 2
left_child=2 5 3 -1 9 37 7 11 36 27 46 12 35 14 24 16 31 18 -18 -12 28 -22 23 -19 41 -26 54 53 -9 51 -16 32 -6 -10 -13 -5 48 -2 49 -33 -34 42 -8 -32 -40 -20 -11 55 -3 -17 -51 52 -7 -4 -24 -39 -57 58 -58
right_child=1 8 4 6 15 29 13 20 33 10 19 34 -14 -15 30 38 17 22 45 -21 21 -23 26 -25 25 -27 -28 -29 -30 -31 43 39 40 -35 -36 -37 -38 47 44 -41 -42 -43 -44 -45 -46 -47 -48 -49 -50 50 -52 -53 -54 -55 -56 56 57 -59 -60
leaf_value=-0.00026147173510657413 -1.3963777202032554e-05 2.6243520476636537e-07 -5.1203608740535048e-05 -5.5979045314921222e-05 -6.9478359303356681e-05 -4.7414310975000271e-05 -1.4177097584165276e-05 -1.2696681189395125e-05 6.2879462663187786e-06 -5.8416406980451229e-05 -0.00025956441389603745 -3.901709743317158e-05 -0.00027599532736672278 -0.00015585313654608196 -0.00012969830963346696 -2.8697391563470951e-05 -0.00017740963564978705 -4.2840486749552695e-05 -7.8719194564554426e-05 -8.8889537016964597e-05 -5.6953337839525969e-05 -0.00012155616460483015 -4.3758866966437588e-05 -0.00013249047514465122 -0.00012241733777854178 -1.5103768479699883e-05 -2.2569417450513525e-05 -0.00010472937694026366 -6.7353640662299257e-05 -1.9434930430337661e-06 -1.2003355982920361e-05 -1.4832374245447652e-05 -5.1724004636829083e-05 8.4322064574766622e-06 -0.00010453668910832633 -0.00014720560775862798 3.7997102133348134e-06 -6.2111608704184119e-06 -3.6090167679099577e-05 -6.2305500032380228e-05 -1.2363629304875051e-05 -1.4152443086098329e-05 -6.6338032484054577e-05 -7.0956590736319348e-05 -6.0498181951916303e-06 -2.3227253130042097e-05 -6.0656358643124472e-06 -8.1316057911597696e-06 3.0365047397232992e-06 -4.0207552430392409e-05 -1.7285777247626538e-05 -4.9228513815491116e-06 -9.775226288809797e-06 -3.6703490767878489e-05 -1.3356290809396242e-05 -5.8164094936930476e-05 -1.6496050289145321e-05 -1.1342496321118653e-05 -5.0923136723601923e-05
leaf_weight=4.9999999999999991 939 1959 49 3.0000000000000027 7.9999999999999991 2.9999999999999991 6 6.0000000000000027 6647 8 2.9999999999999991 5.9999999999999982 4.0000000000000027 2.9999999999999991 3.9999999999999991 75 3.9999999999999991 30 3.9999999999999982 3 12.000000000000002 17 71 2.9999999999999991 2.9999999999999991 3 122 2.9999999999999991 24 2417 2.9999999999999991 127 7.0000000000000027 3373 6 14.999999999999998 2635 80 8.9999999999999982 2.9999999999999991 19 27 6.9999999999999982 29 76 7 4.0000000000000009 728 1130 13.999999999999998 248 1475 176 94 6.9999999999999991 2.9999999999999991 54 185 11.999999999999998
leaf_count=5 939 1959 49 3 8 3 6 6 6647 8 3 6 4 3 4 75 4 30 4 3 12 17 71 3 3 3 122 3 24 2417 3 127 7 3373 6 15 2635 80 9 3 19 27 7 29 76 7 4 728 1130 14 248 1475 176 94 7 3 54 185 12
internal_value=0 2.14801e-06 -3.83942e-05 -8.83637e-05 -2.91521e-05 -6.15083e-06 -8.20676e-05 -0.000102821 5.34882e-06 -5.1005e-05 -0.000102626 -0.00014183 -0.000172138 -5.84292e-05 -5.30301e-05 -2.4799e-05 -3.09737e-05 -3.75824e-05 -9.16539e-05 -0.000199117 -7.8352e-05 -9.76135e-05 -3.37245e-05 -5.46476e-05 -3.35382e-05 -7.85835e-05 -3.00175e-05 -4.39859e-05 -5.71844e-05 -3.40996e-06 -7.63568e-05 -2.08129e-05 -3.67534e-05 7.01053e-06 -7.72982e-05 -0.000135748 2.43925e-06 -1.17226e-05 -1.87116e-05 -1.63952e-05 -2.44839e-05 -2.50296e-05 -4.4996e-05 -6.59609e-05 -9.61323e-06 -4.82845e-05 -4.27751e-05 -9.72972e-06 1.27788e-06 -2.09712e-05 -1.86588e-05 -5.55045e-06 -1.0666e-05 -4.19931e-05 -4.1234e-05 -1.31784e-05 -1.53398e-05 -1.45992e-05 -2.34221e-05
internal_weight=0 21816 1181 183 998 6072 178 93 15744 164 18 34 22 85 82 834 412 248 15 6 59 29 233 33 46 6 200 146 30 4071 36 164 34 10020 12 18 5724 2001 422 130 26 40 13 32 85 11 12 1062 3089 337 262 1654 179 143 78 334 254 251 66
internal_count=22997 21816 1181 183 998 6072 178 93 15744 164 18 34 22 85 82 834 412 248 15 6 59 29 233 33 46 6 200 146 30 4071 36 164 34 10020 12 18 5724 2001 422 130 26 40 13 32 85 11 12 1062 3089 337 262 1654 179 143 78 334 254 251 66
is_linear=0
shrinkage=0.0177778


Tree=5
num_leaves=60
num_cat=0
split_feature=4 4 7 43 61 24 61 7 62 44 4 4 26 1 18 7 18 86 82 88 4 1 1 25 79 26 18 4 56 80 7 4 61 29 26 7 1 89 88 49 61 24 80 7 15 29 12 17 82 2 13 82 49 18 16 7 4 61 4
split_gain=0.00535483 0.00272977 0.00164887 0.000725374 0.000997118 0.000499768 0.000937206 0.000365842 0.00028407 0.000330285 0.000239606 0.000236416 0.000235617 0.000140843 0.000119101 0.000107638 8.65009e-05 0.000118616 8.33295e-05 6.67821e-05 6.30321e-05 6.29352e-05 6.21403e-05 6.4201e-05 5.69755e-05 0.000205187 5.37776e-05 4.07498e-05 3.90554e-05 3.94058e-05 3.79012e-05 3.747e-05 3.67597e-05 3.21002e-05 3.00943e-05 2.93321e-05 2.83679e-05 2.93797e-05 2.58059e-05 2.43669e-05 2.3712e-05 2.21855e-05 2.16997e-05 2.14436e-05 2.01546e-05 1.97023e-05 2.74921e-05 2.76712e-05 1.95468e-05 1.94617e-05 1.88922e-05 1.82852e-05 2.26689e-05 6.89453e-05 4.74977e-05 1.81137e-05 1.70499e-05 1.615e-05 1.50447e-05
threshold=-0.00020940758341743456 -0.00092688116643534636 -9.9404230966036091e-05 0.05220312500000001 1.7144954582683753 -0.0064329649999999997 0.28832489942769485 -0.003389536528363235 -0.81192570908736594 1.1997434171124655 -0.0001045830873299882 5.3602308720349041e-05 -1.1598054398353734 68.374726930000023 -0.0039093149999999991 -0.0018595737296306935 -0.0010905399999999999 -0.14094940574718298 0.051099778605128716 0.0051095842270607325 5.4259765532014204e-06 4.2156533750000014 0.85895687500000018 -1.186520528364889 0.40207904573530867 1.9451701803355916 -0.00054073999999999995 -0.00049336789807533337 0.356114509020311 -0.77615372525803028 0.00010450411269457077 -0.00060724104161886657 -0.141824101283722 -0.00016104999999999996 -0.57379429967673612 -0.0006522886359661852 16.645240510000004 23.390713825000002 3.7241400815136063 -0.3669143976262409 -0.024916591144207561 -3.3444999999999996e-05 1.2569072638691234 -0.00057015807466543179 1.9040000000000018e-06 9.9995000000000007e-05 -0.00019772499999999997 6.9065000000000017e-05 0.081847464470323497 18.158334195000005 -0.00092408499999999995 0.44579035663412675 -0.32918252749039084 -0.00033342999999999996 0.00030870556527525487 -0.0019806820136185378 -0.00032015849344183819 0.66392622660425127 2.7758088801234951e-05
decision_type=2 2 2 2 2 2 2 2 2 2 2 2 8 2 2 2 2 2 2 2 2 2 2 10 2 10 2 2 2 2 2 2 2 2 10 2 2 2 2 2 2 2 2 2 2 2 2 2 2 2 2 2 2 2 2 2 2 2 2
left_child=1 3 10 4 -1 6 8 14 -5 -10 33 30 -8 19 39 18 17 31 45 -7 35 -14 23 -20 32 -26 36 28 29 -17 -4 40 42 55 -21 -12 -24 -38 57 -3 -16 -13 -19 48 -45 -9 -47 -48 -35 50 -37 -52 53 54 -53 -2 -39 -33 -32
right_child=2 7 11 5 -6 13 12 15 9 -11 20 41 21 -15 16 27 -18 24 22 34 -22 -23 26 -25 25 -27 -28 -29 -30 -31 58 38 -34 43 -36 49 37 56 -40 -41 -42 -43 -44 44 -46 46 47 -49 -50 -51 51 52 -54 -55 -56 -57 -58 -59 -60
leaf_value=-0.00047668996425768881 -7.7537894178407614e-05 7.9515542562479455e-06 7.9567939548376166e-07 -0.00013278556606647642 6.9001529978281298e-06 -0.0001605347021144222 -0.00022572571690420077 -3.6983718695945524e-05 -0.00051038190359612573 -0.00017832967833700502 -1.0044106098446459e-05 6.4542554718139903e-06 -1.8886056337082238e-05 -0.00021628547851419586 -0.00010761280432266141 -2.9938186060746095e-05 -3.0453579463276338e-05 -0.00013054318606761119 -2.5879417411157519e-05 1.8857753854139117e-06 3.9713768002777683e-07 -0.00010829671987562211 -3.5724905442000292e-05 -0.00017544990458356386 -9.6202140147480248e-05 -0.00027225159785964275 -0.00012982576471255348 -2.3421480501258751e-05 1.9748459718274797e-06 -0.00011631455378268254 2.5689640792400823e-06 -2.6740902598390534e-05 -5.7248637362632017e-05 -1.3531138689764959e-05 -6.3661215497346299e-05 -5.0583613351177939e-05 -8.8823138070408215e-05 -5.387353065991496e-05 -9.700444907965986e-05 -3.6688558476014537e-05 -5.4636292080939204e-05 9.2345470434459577e-06 -4.8801642101766027e-05 -9.6600999395448742e-06 -6.1169074383955887e-05 -8.1783768180546869e-06 -5.8738152353265379e-05 -1.4412330455517729e-05 -1.9267850575070643e-05 -1.7932845615798883e-06 -5.6101087050108916e-06 -0.0001062523687406528 -7.0434721414863071e-06 -1.0650822296363252e-05 -1.5839362855661995e-07 -2.7555660677720163e-05 -3.5319035279851935e-05 -5.9905181511897936e-05 5.3450035038778177e-06
leaf_weight=6.9999999999999982 5.0000000000000027 9.0000000000000018 2436 3.9999999999999991 3 2.9999999999999991 5 41 5.9999999999999982 4 834 1877 11.000000000000005 2.9999999999999991 12.000000000000002 5.9999999999999991 21 9.9999999999999982 3 3.9999999999999991 911 5.9999999999999991 154 2.9999999999999991 19.000000000000004 3.9999999999999991 2.9999999999999991 563 3.9999999999999991 5.9999999999999991 1589 27 19 703 32 3.9999999999999991 9.9999999999999982 82 3.9999999999999991 18 12.999999999999998 7262 3.9999999999999991 423 2.9999999999999991 58 13.000000000000002 17 568 668 1563 6.9999999999999982 69 31 3 15.999999999999998 51 11.999999999999998 2774
leaf_count=7 5 9 2436 4 3 3 5 41 6 4 834 1877 11 3 12 6 21 10 3 4 911 6 154 3 19 4 3 563 4 6 1589 27 19 703 32 4 10 82 4 18 13 7262 4 423 3 58 13 17 568 668 1563 7 69 31 3 16 51 12 2774
internal_value=0 -4.54231e-05 2.49911e-06 -0.000166875 -0.000344174 -0.000140076 -0.000201819 -3.62785e-05 -0.000341883 -0.000405847 -7.86703e-06 6.27691e-06 -0.000101698 -8.369e-05 -6.6903e-05 -3.1023e-05 -7.50455e-05 -8.22933e-05 -3.9598e-05 -6.83383e-05 -4.87314e-06 -5.47061e-05 -4.60819e-05 -0.000115045 -0.000107197 -0.000136888 -4.4325e-05 -2.45235e-05 -5.96409e-05 -7.87515e-05 3.06707e-06 -6.05277e-05 -8.30869e-05 -1.49875e-05 -5.65241e-05 -6.38308e-06 -4.30285e-05 -5.05913e-05 -4.57394e-05 -2.2056e-05 -8.32259e-05 8.66429e-06 -0.000111999 -1.4623e-05 -1.01652e-05 -2.39815e-05 -1.75762e-05 -3.48954e-05 -1.6108e-05 -5.0773e-06 -6.38358e-06 -6.24775e-06 -1.51759e-05 -2.83685e-05 -7.7332e-05 -4.24397e-05 -4.70753e-05 -3.81878e-05 4.33479e-06
internal_weight=0 1274 21746 88 10 78 36 1186 14 10 5808 15938 22 42 172 1014 145 124 435 39 4090 17 306 6 56 23 300 579 16 12 6799 68 33 1718 36 3179 297 143 43 27 25 9139 14 1697 426 129 88 30 1271 2345 1677 1673 110 41 10 21 133 39 4363
internal_count=23020 1274 21746 88 10 78 36 1186 14 10 5808 15938 22 42 172 1014 145 124 435 39 4090 17 306 6 56 23 300 579 16 12 6799 68 33 1718 36 3179 297 143 43 27 25 9139 14 1697 426 129 88 30 1271 2345 1677 1673 110 41 10 21 133 39 4363
is_linear=0
shrinkage=0.0227273


Tree=6
num_leaves=60
num_cat=0
split_feature=5 4 5 43 61 46 27 27 67 1 5 5 10 85 4 58 46 61 31 8 85 46 61 61 31 46 10 62 5 18 56 31 5 86 7 46 80 82 23 36 27 27 56 22 8 18 80 27 22 67 36 39 82 43 61 23 44 11 4
split_gain=0.00548609 0.00262539 0.00178498 0.000684951 0.000951932 0.000636939 0.00036488 0.000323262 0.000489104 0.000570765 0.000309971 0.000175228 0.000134265 0.000110746 9.42146e-05 8.89787e-05 8.07695e-05 7.2285e-05 0.000127571 6.50654e-05 5.76222e-05 5.20456e-05 4.85673e-05 6.28659e-05 4.83474e-05 4.74044e-05 4.60051e-05 4.33219e-05 3.97689e-05 3.95652e-05 3.85757e-05 3.43629e-05 3.43219e-05 3.36268e-05 3.30512e-05 3.16153e-05 3.07505e-05 3.04727e-05 3.17397e-05 4.43226e-05 3.01274e-05 3.13353e-05 0.00022071 2.9122e-05 2.82692e-05 3.40365e-05 2.69426e-05 2.72335e-05 2.46845e-05 2.31375e-05 2.25513e-05 2.20967e-05 2.14422e-05 2.19864e-05 2.0013e-05 1.91284e-05 1.8282e-05 3.91163e-05 0.000134895
threshold=-0.00055196223969603236 -0.00092688116643534636 -6.3230711913224108e-05 0.05220312500000001 1.7144954582683753 1.6649436983841348 -0.00063770249999999982 -0.00084278124999999989 1.8027130938106486 0.30851681000000003 0.0001041754761777626 -0.0002326401233121776 -0.0008333599999999999 0.65858061621067854 -0.00049336789807533337 2.1420798561275318 1.2305580059597543 1.7144954582683753 -3.141267152969013 -0.0051501705390022412 0.70378382410406293 0.017694719843485449 0.099940899152536997 0.069298743334738053 -0.84631107131791194 0.0019209483425844985 -0.00053916499999999998 -1.2095638050101594 0.00014767376151114756 -0.00094116999999999996 0.19333305217082145 -1.9641507590317955 -0.00035909308046711046 0.30004154602113947 -0.003389536528363235 0.0097849373795817571 -1.3862242998442202 0.022058385853919449 9.269500000000002e-05 1.4898880503979484 -2.6519999999999972e-06 9.4793000000000012e-05 -1.5976569867831378 0.00041604655170362413 -0.0012758482013561924 -0.0011992199999999998 -0.10597544210895234 -0.0011707234999999998 0.00068139523897304329 0.076076999869549203 0.8711888339460836 26.256735320668621 0.051099778605128716 1.0023409500000002 0.75052479136797989 -0.00022269499999999999 -0.75806456345702677 0.00037020715650884815 -5.7269458639598485e-05
decision_type=2 2 2 2 2 2 2 2 2 2 2 2 2 2 2 2 2 2 10 2 2 2 2 2 8 2 2 2 2 2 2 10 2 2 2 2 2 2 2 2 2 2 2 2 2 2 2 2 2 2 2 2 2 2 2 2 2 2 2
left_child=1 3 11 4 -1 7 12 8 9 25 40 32 13 27 22 -10 24 18 20 30 -9 55 23 35 46 -5 37 -3 -12 -21 43 -29 -2 -32 -33 -8 52 -23 39 -39 -4 -42 -43 -14 45 -13 47 -15 -28 -47 -38 -40 -37 -54 -17 -16 57 -34 -59
right_child=2 6 10 5 -6 -7 14 17 15 -11 28 44 19 16 21 54 -18 -19 -20 29 -22 26 -24 -25 -26 -27 48 31 -30 -31 33 34 56 -35 -36 36 50 38 51 -41 41 42 -44 -45 -46 49 -48 -49 -50 -51 -52 -53 53 -55 -56 -57 -58 58 -60
leaf_value=-0.00032053630333393822 -1.1990262684676977e-05 -1.5181823037909014e-05 -1.5925783179974323e-07 -0.00011234593344852332 3.2970314290044663e-06 -0.00025335807542971989 -1.0789040528411854e-05 -0.0001453598352770012 -4.5645667804599862e-05 -0.00030888964766981417 4.4650533846855115e-06 -4.7480480538474185e-05 -3.2051505386790985e-05 -0.00014758748674972188 -4.0988909895531839e-05 -0.00014088342587153117 -0.00014763898092011609 3.932049084040854e-07 -3.3882505262938685e-05 -2.7598437219340762e-05 -5.868302610502318e-05 -7.3048702832036516e-05 -1.8750876211576983e-05 -0.00010460370608295004 -3.6337005154986966e-05 -2.1310958060591165e-05 -1.9152165726439142e-05 -2.874820969736902e-05 6.4383999216806326e-06 -0.00011539266341262392 -8.3776522738238172e-05 -6.7280506158971961e-05 -9.4918619872114736e-06 -3.7336326289875052e-05 -1.8925662281819503e-05 -2.3095414874626791e-05 -6.2079477270513217e-05 -8.5255794175383113e-05 -3.124281441301314e-05 -3.0051622662789863e-05 2.2452077968347726e-06 -0.00012129568262834141 2.7279255683787755e-06 -1.4411634967083786e-05 -3.1378567037715829e-06 -1.9296134005742449e-05 -5.5669982325469664e-05 -5.2610939213385145e-05 6.3556662062183028e-06 -5.8378790999278985e-06 -2.6575247051548587e-05 -1.081318440608609e-05 -9.5352768484089099e-05 -4.6609521399390094e-05 -5.4340498366703589e-05 -1.2355812108062448e-05 -6.609450731407893e-06 -1.250312196255739e-05 -0.00011280087443689505
leaf_weight=6.9999999999999982 966 10.999999999999998 2148 2.9999999999999982 3 4.9999999999999991 9.9999999999999982 3.9999999999999947 16.000000000000004 5 3918 3.9999999999999991 61 3 4.9999999999999991 3.9999999999999991 3.9999999999999991 5.9999999999999991 22.000000000000004 3 7 2.9999999999999991 35 2.9999999999999991 10.000000000000005 3 324 14.999999999999998 6750 2.9999999999999991 3.9999999999999991 26.999999999999996 391 53 5.0000000000000027 5.0000000000000027 4.9999999999999991 2.9999999999999991 19 108 3959 3.0000000000000027 26 40 2266 32 7.9999999999999956 3.0000000000000027 8.9999999999999982 555 35 41 4.9999999999999991 10.999999999999998 3 240 781 19.000000000000004 2.9999999999999991
leaf_count=7 966 11 2148 3 3 5 10 4 16 5 3918 4 61 3 5 4 4 6 22 3 7 3 35 3 10 3 324 15 6750 3 4 27 391 53 5 5 5 3 19 108 3959 3 26 40 2266 32 8 3 9 555 35 41 5 11 3 240 781 19 3
internal_value=0 -3.24816e-05 1.68099e-06 -0.000113818 -0.000231918 -9.59326e-05 -2.59426e-05 -8.1872e-05 -0.000116735 -0.000198997 4.11196e-06 -6.4605e-06 -4.24875e-05 -5.83826e-05 -2.10948e-05 -7.07398e-05 -8.41285e-05 -4.93202e-05 -5.81047e-05 -3.3849e-05 -9.96886e-05 -1.90869e-05 -3.46483e-05 -4.18171e-05 -6.80612e-05 -7.63754e-05 -2.19464e-05 -4.47383e-05 5.71414e-06 -8.17092e-05 -3.1529e-05 -5.11954e-05 -9.80345e-06 -4.19835e-05 -6.05275e-05 -3.77482e-05 -4.19224e-05 -2.8502e-05 -2.73003e-05 -3.22915e-05 1.32593e-06 2.12572e-06 -1.37176e-05 -2.52752e-05 -3.93057e-06 -6.95952e-06 -8.67882e-05 -0.000114399 -1.84458e-05 -6.60312e-06 -3.24192e-05 -1.76887e-05 -5.77274e-05 -6.65548e-05 -0.000115222 -1.31044e-05 -8.02566e-06 -1.06813e-05 -3.04898e-05
internal_weight=0 1199 21821 88 10 78 1111 73 34 11 16804 5017 250 86 861 23 28 39 33 164 11 752 109 74 24 6 507 58 10668 6 158 47 2160 57 32 71 61 174 171 111 6136 3988 29 101 2857 591 14 6 333 587 40 60 21 16 7 245 1194 413 22
internal_count=23020 1199 21821 88 10 78 1111 73 34 11 16804 5017 250 86 861 23 28 39 33 164 11 752 109 74 24 6 507 58 10668 6 158 47 2160 57 32 71 61 174 171 111 6136 3988 29 101 2857 591 14 6 333 587 40 60 21 16 7 245 1194 413 22
is_linear=0
shrinkage=0.0155556


Tree=7
num_leaves=60
num_cat=0
split_feature=6 0 5 24 61 36 52 2 27 5 32 31 0 6 55 71 29 12 78 58 0 61 49 52 24 0 6 31 27 80 39 71 58 61 27 44 27 27 0 39 2 61 2 0 91 29 12 32 19 24 31 10 6 21 2 5 12 23 23
split_gain=0.00500976 0.00218682 0.00174945 0.00103986 0.000824841 0.00057073 0.000891254 0.000500279 0.000291225 0.000277742 0.000215949 0.000272737 0.000201083 0.00019141 0.000122109 8.32373e-05 7.90749e-05 0.000192863 6.1756e-05 6.15993e-05 6.15532e-05 4.44658e-05 4.17468e-05 4.14699e-05 4.87122e-05 4.00891e-05 3.6064e-05 3.594e-05 5.15789e-05 3.33346e-05 3.14377e-05 3.04322e-05 3.01523e-05 2.95118e-05 2.74851e-05 0.000215072 3.04032e-05 2.72139e-05 3.1131e-05 2.61857e-05 2.61436e-05 2.60934e-05 2.31315e-05 2.59986e-05 2.27915e-05 2.20663e-05 2.02786e-05 2.44455e-05 1.97586e-05 6.30727e-05 1.93446e-05 3.77848e-05 3.61966e-05 2.49681e-05 1.88021e-05 1.86833e-05 1.88715e-05 1.81464e-05 1.77755e-05
threshold=-0.00096297929194654461 -0.0016825249999999996 -6.3230711913224108e-05 -0.0034903699999999996 0.24609705481271477 0.94958489665050838 0.0074208140377751584 6.7275591300000004 -0.00063770249999999982 0.0001041754761777626 2.8473925288722088 -1.433579866760031 -0.00091961499999999982 -0.00040957485685856723 0.86144822515789943 0.016268491459656934 -0.00016104999999999996 -0.00020943999999999997 20.741922555000006 2.5647499128142108 -0.0011507249999999998 1.7144954582683753 -0.39313640848379217 0.021437232250288749 -0.0018316899999999998 -0.00021623499999999998 0.00023381632294165296 -2.0212448031543473 -0.00084278124999999989 2.4083262896459727 77.996853647410504 0.040125273264148817 0.73591054543001266 1.7144954582683753 9.4793000000000012e-05 -1.4248188163819966 -2.6519999999999972e-06 3.7341500000000008e-05 -0.00018134999999999996 13.148677403601296 11.189155015000003 -0.86129451830801784 0.40753384500000006 -0.00071628999999999985 -0.14869262706369488 -4.7454999999999992e-05 6.9405000000000017e-05 -0.61000778160143676 -2.2360679774997281 -0.00052629999999999984 -3.6834515500903167 2.5356666666666688e-05 -0.00044901667197887055 -7.4591499999999985e-05 6.4515252850000007 -0.0010843602781098311 8.3300000000000016e-06 -0.00017776999999999997 -0.00043084499999999996
decision_type=2 2 2 2 2 2 2 2 2 2 8 10 2 2 2 2 2 2 2 2 2 2 2 2 2 2 2 10 2 2 2 2 2 2 2 2 2 2 2 2 2 2 2 2 2 2 2 8 10 2 10 2 2 2 2 2 2 2 2
left_child=1 3 13 4 5 6 -1 39 12 34 11 -6 14 25 27 45 17 57 29 -9 22 32 -17 -22 -25 44 -11 -3 40 -16 31 -24 41 -12 36 -36 -4 38 48 -7 -29 -5 43 -26 -2 -10 -18 -48 49 -15 -27 53 -53 -52 -13 -44 -57 58 -14
right_child=2 8 9 21 10 7 -8 19 15 26 33 54 16 37 18 20 46 -19 -20 -21 23 -23 30 24 42 50 -28 28 -30 -31 -32 -33 -34 -35 35 -37 -38 -39 -40 -41 -42 -43 55 -45 -46 -47 47 -49 -50 -51 51 52 -54 -55 -56 56 -58 -59 -60
leaf_value=-7.5391144079839948e-05 -1.810235058195556e-05 -2.6463966623230003e-05 -2.0681509902120023e-07 -1.6262685859774703e-05 -0.00029704222492143214 -9.2137071886353507e-05 -0.00043804305641928341 -0.00035312874189908727 -3.7278574660079543e-05 5.3332784107836949e-06 -6.3726941474441667e-05 -2.7137016857241753e-05 -5.5029024341295003e-05 -9.7788881697166455e-05 -0.00016500922123213331 -2.3718686116968879e-05 -3.2815828253507232e-05 -0.00016280473425670558 -5.5128220704126447e-05 -0.00015272771610933187 -9.3339025357450008e-05 1.0159859178113003e-05 -4.0986348882306701e-05 -6.6881573453623661e-06 -1.7508747125113447e-05 8.671171135003672e-06 7.6746846219451604e-06 -0.00011073659547953143 -4.2402039281347562e-05 -6.8390824696077502e-05 -4.3236652608303461e-05 -0.00011425999215283482 -1.7702588172373816e-05 -5.3685031203619361e-06 -0.0001503335684537886 3.3054672594024447e-06 2.6773887023812812e-06 9.4322461854751158e-07 -4.3406585859502496e-06 -2.2144189960686463e-05 -4.3730320775517534e-05 -7.5624338963279353e-05 -4.2546686095212899e-05 -0.00010091757673713375 -1.2573231356824325e-05 -1.5508280963620989e-05 -3.5571756915743254e-05 8.6831361843819508e-06 -8.522326388593218e-06 -7.5393645138498024e-06 -9.297420279653079e-06 -1.2209723908494756e-05 -9.3944463594806472e-05 -5.3251409379680182e-05 -0.00010209807591240906 -2.6942212865602136e-05 -6.1103449667720744e-05 -8.6932862798372895e-05 -3.4475182025340118e-05
leaf_weight=4.0000000000000027 516 10.999999999999998 2148 4.0000000000000027 3 2.9999999999999982 9.9999999999999982 2.9999999999999991 19 4059 10.000000000000002 2.9999999999999982 33 2.9999999999999991 10.000000000000002 12.999999999999998 91 4.9999999999999991 5.9999999999999991 4 2.9999999999999991 3.9999999999999991 5.0000000000000027 36 3 21 6609 11.999999999999998 17.000000000000004 3.9999999999999991 13.999999999999998 7.9999999999999991 6.9999999999999991 4.9999999999999991 3.0000000000000027 26 3959 269 2107 6 4.9999999999999991 20.000000000000004 42 2.9999999999999991 667 225 7 11.000000000000002 718 11.999999999999998 884 5.0000000000000009 2.9999999999999991 3.9999999999999991 4 274 5.9999999999999991 3.9999999999999991 50
leaf_count=4 516 11 2148 4 3 3 10 3 19 4059 10 3 33 3 10 13 91 5 6 4 3 4 5 36 3 21 6609 12 17 4 14 8 7 5 3 26 3959 269 2107 6 5 20 42 3 667 225 7 11 718 12 884 5 3 4 4 274 6 4 50
internal_value=0 -4.26863e-05 1.8173e-06 -0.00013402 -0.000186349 -0.000254682 -0.000346362 -0.000158807 -3.35861e-05 4.88121e-06 -9.77083e-05 -0.000164292 -5.08085e-05 -8.06578e-06 -8.06927e-05 -2.64819e-05 -4.07928e-05 -5.42012e-05 -0.000121093 -0.000272019 -3.19013e-05 -4.88957e-05 -5.49968e-05 -2.92415e-05 -2.84589e-05 -1.26181e-05 6.7844e-06 -6.04948e-05 -7.04341e-05 -0.000143804 -6.86717e-05 -9.10184e-05 -5.65952e-05 -4.58255e-05 1.57177e-06 -1.70696e-05 1.66307e-06 -4.98783e-06 -5.54975e-06 -5.23558e-05 -9.45532e-05 -6.6777e-05 -3.08208e-05 -6.76722e-05 -1.49982e-05 -1.73487e-05 -2.90858e-05 -9.4935e-06 -9.0146e-06 -3.0573e-05 -9.53458e-06 -9.97047e-06 -4.98929e-05 -9.55509e-06 -7.73798e-05 -2.99267e-05 -2.78891e-05 -4.61805e-05 -4.3205e-05
internal_weight=0 1007 22013 90 55 30 14 16 917 16804 25 10 266 5209 65 651 201 92 20 7 407 35 40 367 364 2100 10668 45 34 14 27 13 31 15 6136 29 6107 3109 2840 9 17 24 328 6 1183 244 109 18 733 15 917 896 8 888 7 322 280 87 83
internal_count=23020 1007 22013 90 55 30 14 16 917 16804 25 10 266 5209 65 651 201 92 20 7 407 35 40 367 364 2100 10668 45 34 14 27 13 31 15 6136 29 6107 3109 2840 9 17 24 328 6 1183 244 109 18 733 15 917 896 8 888 7 322 280 87 83
is_linear=0
shrinkage=0.0195207


Tree=8
num_leaves=60
num_cat=0
split_feature=6 3 5 24 91 33 24 3 5 32 32 6 44 55 9 36 15 3 32 0 18 20 39 58 86 33 3 26 39 91 9 9 5 23 9 0 91 16 23 28 86 91 25 33 85 20 33 10 80 33 79 32 18 80 28 3 44 0 23
split_gain=0.00455578 0.00206343 0.00157954 0.000708391 0.000790837 0.000496993 0.000670991 0.000253517 0.000250788 0.000216593 0.000253226 0.000172874 0.000165734 0.000260255 0.000146349 0.000113284 9.15904e-05 8.24903e-05 8.05404e-05 8.78361e-05 5.93355e-05 9.02719e-05 5.59249e-05 4.90337e-05 4.71019e-05 6.38343e-05 4.22152e-05 4.0236e-05 3.7809e-05 3.64124e-05 3.58167e-05 3.27854e-05 3.2611e-05 2.82161e-05 2.72131e-05 2.66727e-05 2.66053e-05 3.83908e-05 2.55752e-05 2.52586e-05 0.000221156 2.46265e-05 2.43893e-05 2.42936e-05 2.33933e-05 4.6027e-05 2.27079e-05 2.25732e-05 2.21595e-05 2.06009e-05 2.52206e-05 2.02621e-05 1.98583e-05 2.38714e-05 1.97587e-05 4.07723e-05 7.66957e-05 1.96381e-05 1.87557e-05
threshold=-0.00096297929194654461 -0.00025806641611408437 -6.3230711913224108e-05 -0.0034903699999999996 0.21825331204714796 0.0083116545806159615 -0.0064329649999999997 -0.00013950467800337196 0.0001041754761777626 2.8473925288722088 1.2413097981480072 -0.00040957485685856723 1.0780721198430243 0.098065288098854467 -0.013664336659536536 14.512765407230599 -0.0010310429999999997 -7.3445832874615628e-05 6.0958802468617801 -0.00091961499999999982 -0.00050095999999999984 -1.0000000180025095e-35 116.61798127866608 0.051478846607392284 -0.016715468870067186 0.16737775102998445 -4.0447384435405141e-05 0.069553951245590856 42.233094488688458 -0.54114238283353455 -0.0052107169356712677 -0.0012637883990706392 0.00014767376151114756 -0.00017776999999999997 0.00063057054418275723 -0.00022388499999999997 -0.60344202467133246 0.00036144665951697838 4.7295000000000007e-05 2.1229083073991445e-05 -1.4778201730768803 -0.14869262706369488 -1.4540955404140774 2.0065557861930854 -0.81049573938273289 -0.97258551005151073 8.0075976700069678 -0.00050044999999999983 -1.8979090025080987 0.0028466120738554449 -1.0433091673990773 -0.10225728269351546 -0.00034564999999999992 1.9575521964639788 0.00020515943263325884 -4.3674972457420737e-05 -0.29626883888298106 9.0135000000000017e-05 -0.00043084499999999996
decision_type=2 2 2 2 2 2 2 2 2 8 10 2 2 2 2 2 2 2 10 2 2 10 2 2 2 2 2 10 2 2 2 2 2 2 2 2 2 2 2 2 2 2 10 2 2 8 2 2 2 2 2 10 2 2 2 2 2 2 2
left_child=1 3 11 4 5 -1 12 14 34 10 -6 26 13 -7 18 29 17 58 19 22 38 -22 51 -16 25 42 41 -5 -11 36 -29 35 -10 -31 57 44 48 -38 47 40 -36 54 -25 -26 45 -13 -27 -18 -9 50 -37 -3 53 -46 -2 -56 -57 -4 -17
right_child=2 7 8 27 9 6 -8 15 32 28 -12 31 -14 -15 23 16 20 -19 -20 -21 21 -23 -24 24 43 46 -28 30 -30 33 -32 -33 -34 -35 39 49 37 -39 -40 -41 -42 -43 -44 -45 52 -47 -48 -49 -50 -51 -52 -53 -54 -55 55 56 -58 -59 -60
leaf_value=-0.00044042654481944938 -1.6297802419263207e-05 -7.1607131909180824e-05 -8.0839891388111495e-07 -8.9720442456627721e-06 -8.2982459329099142e-05 -0.00048708644509586123 -5.9041157863412466e-05 -5.0922887087051539e-05 5.6117599183012709e-06 -2.3562636155601716e-05 -0.00031923321037253069 -0.00010576282592610249 -0.00016065190440379441 -0.00019042383021432386 -2.2940384447139871e-05 -8.2407404688819889e-05 -4.424129950928742e-05 -0.00018141154151119919 -2.0251460020064067e-05 -1.4796816415439582e-05 -1.8792612537005461e-05 -0.00017067780059320533 -8.9778679067539796e-05 -6.8214460368345219e-05 -9.6278090918521723e-06 -4.3945293398364659e-05 -1.0502974169677841e-05 -9.5296034255418506e-05 -9.0325657186806724e-05 -3.2328465439942141e-05 -3.6336944303863984e-05 -3.5357460102088488e-06 8.1155707742225866e-06 -1.6910977064737873e-05 -0.00016754700296112108 -6.7711859297312833e-05 -2.7121341763610034e-05 -0.00010197509721973028 -2.0282120686634382e-05 3.630832134721348e-06 4.8484871395760166e-06 -1.3622679471530118e-05 -0.00014103024429309687 -4.798842884591817e-05 -1.9220914217403789e-05 -2.0355853749788101e-05 -8.6075140846323081e-05 -2.922415339513748e-05 -2.0246588040186066e-05 -6.1826021030330771e-06 -1.5068489320382668e-05 -0.00018101482157976718 -7.822795265616141e-06 -7.1423819359490382e-05 -2.3071556476353126e-05 -0.00014390967784282159 -2.5281117132944997e-05 2.5305018066536364e-06 -2.3959456128979028e-05
leaf_weight=6.0000000000000027 233 3 2242 7.0000000000000027 6.9999999999999982 4.0000000000000018 9.9999999999999964 15.999999999999998 3918 12.000000000000005 3 3 6.0000000000000009 5 34 5.9999999999999991 137 2.9999999999999991 6.9999999999999991 4.9999999999999991 4 2.9999999999999991 24 8.9999999999999982 14.999999999999998 46 1128 12.000000000000004 5.9999999999999991 71 10.999999999999996 1926 6750 299 2.9999999999999991 3.9999999999999991 7.9999999999999982 6 48 2527 30 548 5.9999999999999991 17 36 15.000000000000002 7.9999999999999991 88 41 982 42 7.9999999999999982 97 3.9999999999999991 179 2.9999999999999991 8.9999999999999982 1334 5.9999999999999991
leaf_count=6 233 3 2242 7 7 4 10 16 3918 12 3 3 6 5 34 6 137 3 7 5 4 3 24 9 15 46 1128 12 6 71 11 1926 6750 299 3 4 8 6 48 2527 30 548 6 17 36 15 8 88 41 982 42 8 97 4 179 3 9 1334 6
internal_value=0 -4.54603e-05 1.92658e-06 -0.000145123 -0.000188573 -0.000263593 -0.000205846 -3.56506e-05 5.1773e-06 -9.92892e-05 -0.000176436 -8.55908e-06 -0.000293909 -0.000357798 -5.86942e-05 -2.98804e-05 -4.03614e-05 -9.18884e-05 -9.18921e-05 -0.00010363 -3.72838e-05 -9.70843e-05 -0.000115556 -4.65457e-05 -5.41892e-05 -6.44209e-05 -1.33897e-05 -5.63441e-05 -4.93997e-05 -2.27939e-05 -6.97872e-05 -5.29294e-06 7.19662e-06 -1.99486e-05 1.66593e-06 -8.14837e-06 -3.71384e-05 -6.38612e-05 -3.54017e-05 3.38105e-06 -1.52907e-05 -1.67255e-05 -0.000104335 -3.08435e-05 -1.6562e-05 -3.94076e-05 -5.16383e-05 -3.85232e-05 -2.9587e-05 -6.86492e-06 -2.09895e-05 -0.00015963 -1.32966e-05 -2.60559e-05 -2.06942e-05 -2.59444e-05 -6.37269e-05 4.37512e-07 -5.72745e-05
internal_weight=0 1007 22013 89 59 31 25 918 16804 28 10 5209 15 9 182 736 295 15 47 40 280 7 35 135 101 69 2100 30 18 441 23 3109 10668 370 6136 1183 71 14 273 2560 33 972 15 32 155 18 54 225 57 1028 46 11 137 40 424 191 12 3576 12
internal_count=23020 1007 22013 89 59 31 25 918 16804 28 10 5209 15 9 182 736 295 15 47 40 280 7 35 135 101 69 2100 30 18 441 23 3109 10668 370 6136 1183 71 14 273 2560 33 972 15 32 155 18 54 225 57 1028 46 11 137 40 424 191 12 3576 12
is_linear=0
shrinkage=0.0217964


Tree=9
num_leaves=60
num_cat=0
split_feature=7 0 7 14 24 1 39 3 3 7 9 59 31 92 92 0 48 9 11 3 31 46 0 23 52 1 44 13 16 8 24 92 16 1 0 50 25 3 9 44 39 7 49 41 75 61 13 13 85 23 0 61 44 0 25 50 48 24 31
split_gain=0.00450037 0.00208828 0.00161634 0.00102957 0.000486688 0.000634282 0.00059313 0.000305382 0.000267783 0.000243777 0.000146815 0.000134838 9.60492e-05 8.93307e-05 0.00012427 8.62974e-05 6.853e-05 5.43946e-05 0.000143306 5.31975e-05 5.1631e-05 4.88428e-05 4.3604e-05 4.27557e-05 4.19144e-05 4.03878e-05 5.65168e-05 3.8647e-05 5.64676e-05 3.68849e-05 3.61987e-05 3.58816e-05 3.35489e-05 9.56171e-05 2.75811e-05 2.57454e-05 2.54891e-05 2.49353e-05 2.47311e-05 2.74104e-05 2.47136e-05 2.42936e-05 2.10965e-05 2.0407e-05 4.62336e-05 1.98159e-05 3.82142e-05 5.53501e-05 3.17738e-05 2.10809e-05 2.03254e-05 1.95066e-05 1.77773e-05 1.76512e-05 1.75152e-05 1.70303e-05 1.69219e-05 3.83005e-05 1.67109e-05
threshold=-0.0016463554055086498 -0.0016825249999999996 -0.00016476439226291816 -1.727898516162514 -0.0034903699999999996 0.053056980000000011 251.12728190769789 -0.00013950467800337196 -3.4180222975897208e-05 0.00029454826364364571 -0.013664336659536536 5.2191263950000009 -2.0554739400107045 -0.25621936089026059 -0.67399138820600435 -0.00091961499999999982 20.162140425 -0.01169449409707796 0.00064047502598381714 5.281364409976983e-06 -4.3008477365184561 4.4625513349721606 4.8635000000000004e-05 5.2615000000000004e-05 0.029102804393150019 1.0678528800000002 -1.2385417179695926 -0.00049232499999999995 0.00042969003787125516 -0.0012758482013561924 -0.0023506149999999995 1.6878998739518347 9.3309474663563972e-05 21.095727970000002 -3.8584999999999991e-05 -1.0401019173844728 -2.90142477091698 1.5557099406000497e-05 -7.2980565261954007e-05 1.1470057972700445 1656.196328527993 -1.2162634000596952e-05 0.62976797928544481 0.016252958932993652 1.3982108270000004 -0.5048427005256152 -0.00080691999999999992 -0.0011330849999999996 -0.20682862962940904 -0.00017776999999999997 -5.2299999999999991e-05 0.34449757253572899 -1.0000000180025095e-35 -0.00036805499999999994 -1.1041872050416164 -1.0656513645829115 45.08551898000001 -0.00053655499999999987 -1.361430642736871
decision_type=2 2 2 10 2 2 2 2 2 2 2 2 10 2 2 2 2 2 2 2 10 2 2 2 2 2 2 2 2 2 2 2 2 2 2 2 10 2 2 2 2 2 2 2 2 2 2 2 2 2 2 2 2 2 10 2 2 2 10
left_child=1 3 8 -1 5 -5 13 10 20 22 12 34 -3 14 35 16 58 18 40 29 -2 -8 41 32 -12 26 -26 38 -29 -10 -6 -27 33 -19 45 -7 -15 -11 39 43 -13 -4 -28 -22 -45 46 47 -9 -49 55 -51 -38 -50 -34 -36 -47 -46 -58 -14
right_child=2 7 9 4 30 6 21 11 19 37 24 17 15 36 -16 -17 -18 23 -20 -21 27 -23 -24 -25 25 31 42 28 -30 -31 -32 -33 53 -35 54 -37 51 -39 -40 -41 -42 -43 -44 44 56 49 -48 48 52 50 -52 -53 -54 -55 -56 -57 57 -59 -60
leaf_value=-0.00020575742423534395 -5.0303168594837197e-05 -1.161006337614975e-05 -1.2673679439236941e-06 -0.00020324942480885624 -4.1964238678867184e-05 -1.2603979219089855e-05 -0.00021187938885255302 -1.1431194068111402e-05 -5.2188299815921168e-06 2.8793042609457448e-06 -1.2042815310987163e-05 -2.7500156623805045e-05 -9.7565281797539112e-05 -1.2733531607822939e-06 -0.00013252864100716342 -9.7617841622030213e-06 -3.4364811705679381e-05 -8.700594407590946e-05 -9.8588505929166656e-05 -2.0484762953669534e-07 -9.7854256249205505e-06 -8.5593212734569196e-05 2.0285481824958465e-06 -5.5960587215591901e-06 -1.4030809695650996e-05 -2.0525506980292421e-05 -7.0721118739157046e-05 -6.72846058752826e-06 -4.2637035250663762e-05 -2.5009341776209622e-06 -1.6321945289354868e-05 -4.3192112883487804e-05 -2.1204938974368753e-05 -2.0007083339221551e-05 -2.9963800775995523e-07 -5.734538098778389e-05 -1.6461923137887709e-05 4.3413358844004081e-06 -2.1197616934683947e-06 -6.6341578882808504e-06 -2.5317767610797642e-06 8.8792696858270943e-07 -2.3159035227515484e-05 -2.5880002372955784e-05 -1.0694714526530401e-05 -2.3903827160371079e-05 -8.1213163741102277e-06 -2.520039634517403e-05 -2.7747106823054224e-05 -9.1286848358448286e-06 -3.6026471426752829e-05 -4.5474822209639984e-05 -8.1750715320760573e-05 -1.3433017894964331e-05 -1.2406932677734984e-05 -1.1212436827625354e-05 -1.3849053914997391e-05 -4.7236908791643196e-05 -6.0817588744551358e-05
leaf_weight=6.9999999999999991 2.9999999999999991 7.9999999999999991 1053 4.9999999999999991 14.999999999999998 2.9999999999999991 2.9999999999999991 17 1071 2005 26 76 6.9999999999999991 2.9999999999999991 2.9999999999999956 4.9999999999999991 10.999999999999998 3.0000000000000027 2.9999999999999991 858 179 3 3748 32 6.0000000000000027 58 7.9999999999999982 1084 4.9999999999999991 1842 18 11.999999999999998 135 13.999999999999998 46 7.9999999999999991 6.0000000000000098 7601 43 131 5.9999999999999991 2157 3 44 151 29 27 9.9999999999999982 3 229 2.9999999999999991 13.999999999999998 2.9999999999999991 67 24 34 29 4.9999999999999991 18.000000000000004
leaf_count=7 3 8 1053 5 15 3 3 17 1071 2005 26 76 7 3 3 5 11 3 3 858 179 3 3748 32 6 58 8 1084 5 1842 18 12 135 14 46 8 6 7601 43 131 6 2157 3 44 151 29 27 10 3 229 3 14 3 67 24 34 29 5 18
internal_value=0 -2.40693e-05 1.02714e-06 -7.79335e-05 -6.45124e-05 -8.79281e-05 -7.02041e-05 -1.8855e-05 -4.47239e-06 2.83514e-06 -3.33527e-05 -1.57291e-05 -5.02299e-05 -4.9976e-05 -7.31093e-05 -5.73096e-05 -6.34712e-05 -2.12454e-05 -2.94138e-05 -2.7518e-06 -8.34439e-06 -0.000169984 1.17623e-06 -1.83735e-05 -2.56579e-05 -2.95437e-05 -4.59634e-05 -8.23902e-06 -6.9323e-06 -3.50165e-06 -2.8869e-05 -2.49648e-05 -2.02066e-05 -3.60072e-05 -1.13283e-05 -4.72104e-05 -3.34354e-05 4.03651e-06 -1.0668e-05 -1.13448e-05 -2.57257e-05 1.80735e-07 -6.07605e-05 -1.28373e-05 -1.517e-05 -1.2645e-05 -1.88255e-05 -2.7087e-05 -4.20703e-05 -1.13286e-05 -9.62963e-06 -3.79693e-05 -6.25702e-05 -1.8706e-05 -4.56699e-06 -1.73367e-05 -1.24973e-05 -1.99684e-05 -7.44637e-05
internal_weight=0 1011 22009 88 81 48 43 923 5445 16564 162 761 49 37 14 41 36 336 85 3771 1674 6 6958 251 113 87 17 1671 1089 2913 33 70 219 17 425 11 23 9606 582 539 82 3210 11 408 229 355 60 33 16 295 232 20 6 202 70 63 185 34 25
internal_count=23020 1011 22009 88 81 48 43 923 5445 16564 162 761 49 37 14 41 36 336 85 3771 1674 6 6958 251 113 87 17 1671 1089 2913 33 70 219 17 425 11 23 9606 582 539 82 3210 11 408 229 355 60 33 16 295 232 20 6 202 70 63 185 34 25
is_linear=0
shrinkage=0.0116364


Tree=10
num_leaves=60
num_cat=0
split_feature=4 4 3 22 44 19 9 41 52 4 86 9 44 49 4 82 3 86 86 1 1 49 29 92 13 19 4 86 86 9 91 76 92 54 57 9 55 25 4 44 58 41 58 52 92 17 9 49 9 86 92 13 19 89 76 41 25 86 44
split_gain=0.00474631 0.00179107 0.00129965 0.000650742 0.000630108 0.00055892 0.000298866 0.000296656 0.000792997 0.000284646 0.000221059 0.000199954 0.000118268 0.000117672 9.80344e-05 9.48304e-05 8.43784e-05 8.2892e-05 6.99693e-05 7.66602e-05 6.84017e-05 6.78537e-05 6.58055e-05 7.98133e-05 0.000227586 6.02078e-05 5.21206e-05 4.64205e-05 4.36783e-05 4.00029e-05 3.93311e-05 0.000104711 7.44501e-05 4.76126e-05 3.83527e-05 3.52658e-05 2.99961e-05 2.95712e-05 3.29114e-05 7.61125e-05 2.72454e-05 2.5938e-05 3.42756e-05 2.42217e-05 2.41764e-05 2.53177e-05 2.3441e-05 2.14173e-05 3.47282e-05 2.06984e-05 4.2245e-05 1.93864e-05 1.91864e-05 1.76793e-05 2.57703e-05 1.74467e-05 1.72207e-05 0.000188631 1.71744e-05
threshold=-0.00034771366593938961 -3.4402457924078011e-05 -0.00025806641611408437 0.0021569395953031987 -0.15026476029883815 -0.59947793390090542 -0.0058194479516813077 0.0066254887509446369 0.0087705439881480222 3.6943546261052649e-05 -0.63723215602134464 -0.013664336659536536 1.3771873647330806 0.12962115268081001 -0.00013338563870267587 0.018249986369520119 -0.00017250368788736088 0.392190045560801 -1.1114681439627425 68.374726930000023 0.54813844500000009 -0.22488295216744811 -0.00016104999999999996 2.5849911167953343 -0.00045242999999999992 -1.9576875178272526 5.7957870754212083e-05 1.6097894502666155 -0.10034614661676143 9.7751624688645125e-05 -0.45292025593090729 0.050434262672733779 -0.41746063879676049 3.8790780700000007 5.6631163745000013 -0.00055101172291451537 1.5960330588021481 -1.6537539420767733 -0.00029583373318838984 1.7224486377761588 3.7232819614049828 4.6755684615087771 0.024398073700418351 0.02609900721544146 -1.8278789566210578 9.9995000000000007e-05 -0.0052107169356712677 -0.22488295216744811 -0.0046797729524706037 1.9291086152483115 -1.5027524054173904 -0.0016762899999999998 0.2811380495595181 14.007292135000002 2.6326537017144154 3.3777021846191002 -3.1622776601736349 -1.3251016588798481 0.93572321839895378
decision_type=2 2 2 2 2 10 2 2 2 2 2 2 2 2 2 2 2 2 2 2 2 2 2 2 2 10 2 2 2 2 2 2 2 2 2 2 2 10 2 2 2 2 2 2 2 2 2 2 2 2 2 2 10 2 2 2 10 2 2
left_child=2 6 3 7 20 12 22 8 27 29 -7 18 -6 21 37 46 17 25 52 49 -5 -9 23 55 -25 -17 56 -1 47 -3 31 32 -18 36 -35 -16 -32 -8 39 -39 -23 42 -15 -40 45 -37 -13 -27 -49 50 -20 -24 -4 -53 -55 -2 57 -11 -52
right_child=1 9 11 4 5 10 14 13 -10 26 -12 15 -14 41 35 16 30 -19 19 -21 -22 40 51 24 -26 28 -28 -29 -30 -31 33 -33 -34 34 -36 44 -38 38 43 -41 -42 -43 -44 -45 -46 -47 -48 48 -50 -51 58 53 -54 54 -56 -57 -58 -59 -60
leaf_value=-2.0591647266377953e-05 -3.0397334453949684e-05 -1.2156333785666365e-06 -1.9195798410995241e-05 -0.00011622894043102854 -0.00019987389096058899 -0.00019088552372219665 -4.4991762415887876e-06 -3.6446085723582661e-05 -0.00030164727509448619 -0.0001215334242078825 -0.00044017769396305091 -2.5205708711542618e-05 -6.0071139305364344e-05 6.7855783709091984e-06 -6.2029290125489622e-06 -0.00011634479182248471 -0.0001480915271677077 -1.3954777556743165e-05 -0.00014188911160454152 9.9196552582725424e-06 -2.6173097048740604e-05 -7.1219141245819643e-05 -5.6172040785895661e-05 -1.0322043126507194e-05 -0.00018260829005157579 -1.7596204818346452e-05 6.2839960013380395e-06 -9.2269320157356566e-05 -0.00011606611340539522 1.7874976905922337e-06 -1.5701183125946215e-05 -3.5099402430513688e-05 -4.4661524807452227e-05 -9.2402725567808391e-05 -3.419712090279297e-05 2.7948781735176443e-06 -6.5739248530007909e-05 -1.8069191167569445e-05 -7.0762542677732417e-06 -9.7096804397551735e-05 -0.0001660466630710289 1.661849120864645e-05 -4.2750098574205448e-05 -1.2540350868520373e-05 -2.0966355680887346e-06 -6.3571141054126202e-05 -7.4056368202946032e-06 -6.9329551285287995e-05 -2.1714469233605384e-05 -4.9291650729208846e-05 -6.1877874613855966e-05 -1.4923734753908722e-05 -5.9206348281198493e-05 -2.8495816748710989e-05 -9.1982383201383319e-06 -8.3277609761959569e-06 4.0436354490974857e-06 5.0309405707741618e-06 -9.5108615321805727e-05
leaf_weight=8.0000000000000018 72 2445 14.000000000000002 4.0000000000000018 3.0000000000000018 5 228 6 4.9999999999999991 2.9999999999999991 3.9999999999999982 53 6 5.0000000000000062 1821 6.9999999999999991 4 10.999999999999998 3.9999999999999991 2.9999999999999991 7 4.9999999999999982 2.9999999999999991 6 2.9999999999999982 6.9999999999999991 6715 3.9999999999999991 3.0000000000000027 3054 76 58 5.9999999999999982 2.9999999999999991 108 3 2.9999999999999991 79 392 2.9999999999999991 3 2.9999999999999991 21 703 1153 2.9999999999999991 41 17 8.0000000000000018 11.999999999999998 27 429 4.9999999999999991 76 31 13.999999999999998 5228 36 13.999999999999998
leaf_count=8 72 2445 14 4 3 5 228 6 5 3 4 53 6 5 1821 7 4 11 4 3 7 5 3 6 3 7 6715 4 3 3054 76 58 6 3 108 3 3 79 392 3 3 3 21 703 1153 3 41 17 8 12 27 429 5 76 31 14 5228 36 14
internal_value=0 1.10306e-06 -4.9857e-05 -0.000111036 -0.000178557 -0.000240326 -8.11056e-06 -7.60081e-05 -0.000136475 3.74871e-06 -0.00033462 -3.84014e-05 -0.000121999 -4.95441e-05 -6.4838e-06 -3.32802e-05 -3.79475e-05 -5.82706e-05 -6.39118e-05 -7.32749e-05 -6.58775e-05 -8.97749e-05 -1.93339e-05 -3.27772e-05 -8.02687e-05 -6.92827e-05 5.26141e-06 -4.9744e-05 -5.68999e-05 4.52248e-07 -3.35637e-05 -4.52747e-05 -9.57353e-05 -2.91573e-05 -3.65812e-05 -4.68445e-06 -1.83994e-05 -1.02942e-05 -1.1412e-05 -2.20955e-05 -0.000121278 -2.77772e-05 -3.33255e-05 -1.05925e-05 -2.29536e-06 -3.47293e-05 -1.76015e-05 -4.8004e-05 -5.55139e-05 -7.77491e-05 -8.41012e-05 -1.69082e-05 -3.21588e-05 -1.65842e-05 -2.30419e-05 -2.69416e-05 3.95675e-06 -7.49972e-06 -7.52193e-05
internal_weight=0 22500 573 89 29 18 5019 60 17 17481 9 484 9 43 4385 405 311 53 79 60 11 14 634 95 9 42 11982 12 35 5499 258 68 10 190 111 2980 79 1405 1177 82 8 29 26 1095 1159 6 94 32 25 57 45 539 19 536 107 86 5267 39 41
internal_count=23073 22500 573 89 29 18 5019 60 17 17481 9 484 9 43 4385 405 311 53 79 60 11 14 634 95 9 42 11982 12 35 5499 258 68 10 190 111 2980 79 1405 1177 82 8 29 26 1095 1159 6 94 32 25 57 45 539 19 536 107 86 5267 39 41
is_linear=0
shrinkage=0.0175


Tree=11
num_leaves=60
num_cat=0
split_feature=0 0 0 21 91 88 19 80 86 18 21 21 38 21 79 44 85 0 79 32 29 18 21 14 18 41 21 17 33 32 18 91 12 20 18 25 12 0 38 46 79 17 17 86 82 86 21 41 44 74 32 79 33 32 32 33 16 18 0
split_gain=0.00453796 0.00178132 0.00159262 0.000936392 0.00082021 0.000442123 0.000625708 0.000429041 0.000333347 0.000332366 0.000288324 0.000280525 0.000180481 0.000161565 0.000121042 8.40337e-05 0.000107046 8.17816e-05 0.000118452 0.000124587 7.78918e-05 0.000138076 7.17287e-05 6.44356e-05 5.60254e-05 5.76464e-05 4.77885e-05 4.26375e-05 4.21717e-05 0.000126781 3.62494e-05 3.18408e-05 3.13563e-05 3.04675e-05 4.59772e-05 4.21855e-05 2.93237e-05 2.87148e-05 2.69652e-05 2.62393e-05 2.11122e-05 2.09628e-05 3.89066e-05 2.07401e-05 2.06826e-05 2.38686e-05 3.30284e-05 2.47318e-05 2.05105e-05 3.04702e-05 2.04142e-05 0.000174967 2.00393e-05 1.97192e-05 1.96792e-05 1.95421e-05 1.92748e-05 3.06699e-05 1.88685e-05
threshold=-0.00055983499999999985 -0.0016825249999999996 -3.2384999999999989e-05 -0.00095638899999999987 -0.53153961352580248 0.042475471010124367 -0.91912437143632963 0.24960877519774394 -0.95459123599854312 -0.00038893499999999992 -0.00044465849999999991 4.1871000000000013e-05 818.49793806251012 -0.00044465849999999991 -0.67412048075730602 1.7282636697804155 -0.024649342794987549 -0.0011507249999999998 -0.16833749821542718 0.93190605966564644 -9.4809999999999982e-05 -0.00050095999999999984 -1.4796499999999995e-05 1.7311745405283008 -0.00084064999999999986 0.0077642916136247755 -7.1924999999999986e-05 -3.8714999999999991e-05 0.099654789586466938 1.8380793044081434 -0.0013385949999999997 1.7116145205895761 -0.00018434499999999996 3.693749149001111 -0.0011992199999999998 -0.78345510697100951 -0.00028058999999999994 -0.00013061499999999997 103.81905865707871 3.6049114744978943 -0.13660181317034206 -0.00037599499999999995 -0.00031114499999999992 0.046191250879332617 0.0033214422484557737 2.0071882852064857 -0.0013387814999999998 0.018738769816545743 0.8444961669029607 1.0115440514298781 20.000000000620179 1.3181436834424747 0.54139697275278797 0.5048898701728961 2.546867569682195 0.81482758333963701 0.00070300800490487607 -0.0022094349999999996 9.8280000000000014e-05
decision_type=2 2 2 2 2 2 8 2 2 2 2 2 2 2 2 2 2 2 2 10 2 2 2 8 2 2 2 2 2 8 2 2 2 8 2 10 2 2 2 2 2 2 2 2 2 2 2 2 2 2 10 2 2 10 10 2 2 2 2
left_child=1 3 9 4 8 6 -6 -8 -1 13 17 26 38 20 -5 24 -17 18 52 -20 21 39 37 50 25 -12 33 43 29 -27 36 -16 -15 34 35 -4 -30 -11 -7 -2 -31 -21 -43 -19 -45 46 -46 -48 -32 -50 -13 -52 -3 -26 -34 -47 -56 -58 -28
right_child=2 10 11 14 5 12 7 -9 -10 22 15 23 -14 32 31 16 -18 27 19 41 -22 -23 -24 -25 53 28 58 -29 30 40 48 -33 54 -35 -36 -37 -38 -39 -40 -41 -42 42 -44 44 45 55 47 -49 49 -51 51 -53 -54 -55 56 -57 57 -59 -60
leaf_value=-9.820118786592501e-05 -2.595019766613089e-05 -8.4350653196452155e-06 -9.2706831118879254e-06 -9.8684750992106276e-05 -3.640295435616281e-05 -4.5543294335301535e-05 -9.5176780554798529e-05 -0.00027187703332553299 -0.00028622901688019439 -5.3829860641321077e-06 -8.1717240342982231e-06 2.667053272595408e-06 -0.00013271560019347816 -1.0238641129726907e-05 -2.9015096934017497e-05 -8.5104827424705334e-05 -5.5871161824446371e-06 -2.6624461323018327e-05 -2.7367211308349701e-05 -9.9410418705600816e-05 -1.3341788266785519e-05 -8.6376341884412491e-05 -5.2531338536349681e-07 4.6028388058593169e-06 -1.4356444498754164e-05 -0.00010764751641545447 3.4757367736482432e-07 -1.1550077571579703e-05 -1.1448447530710835e-05 -3.8969613281854742e-05 -1.1799337955427547e-05 4.2761786062328607e-06 -7.5282239247699895e-06 2.4270014206984175e-06 -1.935492462410694e-06 -4.8320585968516139e-05 -5.649611248372822e-05 -2.5013699467071708e-06 -1.2268516366020775e-05 -4.7303146213077218e-06 -4.8610260689331743e-06 -1.3674840010935439e-05 -6.9583568377614303e-05 -1.4911106140971239e-05 -7.6787088182754822e-05 3.4864314784499558e-07 -6.2944376259110863e-05 -3.3544602994576664e-05 -6.0191231023054514e-05 -1.8637776998886579e-05 4.8130322890453188e-06 -8.4590080132329606e-05 -3.2408204424427824e-05 -6.7634483439662995e-06 -3.3962962490407404e-06 -2.9710714911094068e-05 1.1149930651299654e-06 -4.7564010856149253e-05 2.0637570149248937e-06
leaf_weight=4 71 11.000000000000002 18.000000000000004 2.9999999999999991 7 17.000000000000007 6.0000000000000018 5 4.9999999999999982 1226 39 3652 2.9999999999999991 501 29 5 4.9999999999999982 144 13.999999999999998 7.9999999999999991 188 4.9999999999999991 1445 7637 100 2.9999999999999982 2011 23 4 4.9999999999999982 38 4.9999999999999991 795 260 1170 4.9999999999999991 6.9999999999999982 971 5.9999999999999991 10.999999999999998 6 2.9999999999999991 11.000000000000002 8.9999999999999982 3.9999999999999991 4.0000000000000027 5.9999999999999991 47 3.0000000000000027 14.999999999999998 23.000000000000004 2.9999999999999991 11.999999999999998 121 324 20 4 2.9999999999999991 1993
leaf_count=4 71 11 18 3 7 17 6 5 5 1226 39 3652 3 501 29 5 5 144 14 8 188 5 1445 7637 100 3 2011 23 4 5 38 5 795 260 1170 5 7 971 6 11 6 3 11 9 4 4 6 47 3 15 23 3 12 121 324 20 4 3 1993
internal_value=0 -3.01943e-05 9.05593e-07 -8.21226e-05 -0.000115437 -8.94499e-05 -0.000136249 -0.000191458 -0.000220838 -4.90201e-06 -2.3075e-05 2.82548e-06 -5.32045e-05 -9.13598e-06 -3.26193e-05 -1.52072e-05 -4.94683e-05 -3.17387e-05 -4.52905e-05 -5.93217e-05 -1.79893e-05 -2.77663e-05 -2.68895e-06 3.94807e-06 -1.40608e-05 -2.09393e-05 4.97503e-07 -2.84641e-05 -2.69121e-05 -4.65623e-05 -2.21817e-05 -2.4137e-05 -7.62945e-06 -1.44366e-06 -2.28855e-06 -1.94194e-05 -4.24343e-05 -4.11113e-06 -3.77358e-05 -2.31949e-05 -2.23204e-05 -7.75824e-05 -5.93135e-05 -3.00703e-05 -3.52305e-05 -3.72789e-05 -4.19774e-05 -3.79769e-05 -1.75288e-05 -2.83668e-05 2.58763e-06 -8.25361e-06 -2.1772e-05 -1.02484e-05 -6.46046e-06 -2.48873e-05 -3.88096e-06 -2.30851e-05 1.20211e-06
internal_weight=0 757 22316 90 53 44 18 11 9 5544 667 16772 26 1902 37 351 10 316 59 36 275 87 3642 11315 341 120 5457 257 81 14 67 34 1627 1453 1193 23 11 2197 23 82 11 22 14 234 90 81 57 53 56 18 3678 26 23 221 1126 24 331 7 4004
internal_count=23073 757 22316 90 53 44 18 11 9 5544 667 16772 26 1902 37 351 10 316 59 36 275 87 3642 11315 341 120 5457 257 81 14 67 34 1627 1453 1193 23 11 2197 23 82 11 22 14 234 90 81 57 53 56 18 3678 26 23 221 1126 24 331 7 4004
is_linear=0
shrinkage=0.0125


Tree=12
num_leaves=60
num_cat=0
split_feature=4 4 7 91 4 57 30 32 9 9 4 7 30 23 41 2 82 32 62 23 62 27 27 52 37 62 2 4 9 32 7 2 9 23 41 91 27 62 32 27 57 41 91 9 85 21 27 2 91 57 85 13 16 23 82 40 54 62 4
split_gain=0.00441971 0.00166529 0.00125509 0.000527031 0.00055545 0.000378127 0.000710501 0.00034058 0.000316665 0.000284493 0.000248251 0.000134395 0.000112895 0.000110879 0.000110247 0.000108912 9.57396e-05 0.000101197 8.13875e-05 7.07301e-05 7.02155e-05 0.000192334 5.73228e-05 4.64039e-05 9.48077e-05 4.5657e-05 4.30515e-05 4.29489e-05 4.23379e-05 3.9378e-05 8.31136e-05 4.1627e-05 3.47774e-05 5.95791e-05 3.67989e-05 4.24959e-05 3.29124e-05 3.27509e-05 3.17003e-05 2.92403e-05 2.64096e-05 2.47385e-05 2.4695e-05 2.43362e-05 2.41929e-05 2.36956e-05 2.35524e-05 0.000118258 0.000146025 2.17897e-05 2.1619e-05 2.00452e-05 2.02341e-05 1.99055e-05 1.90421e-05 1.90475e-05 9.50122e-05 1.84925e-05 2.81538e-05
threshold=-0.00034771366593938961 -3.1217626352465976e-05 -0.0063535549663615585 -0.53153961352580248 -0.00092688116643534636 0.42089516100000002 -0.0074789199999999991 0.45271389433899206 -0.01169449409707796 -0.0058194479516813077 3.6943546261052649e-05 -0.0042124296763719265 -0.00034194499999999991 -0.00043084499999999996 1.5448016061979517 0.064480000000000023 0.018249986369520119 15.640330954439774 -1.4223178311537545 -0.00017776999999999997 2.5811009047551079 -0.00063770249999999982 7.8260250000000017e-05 0.55179778201564467 9.4015332443994755 0.60374764162674788 4.1034245200000008 -0.00019305189185666327 -0.0029244338058728135 0.5048898701728961 -0.0017499307232913114 2.7933018150000004 -0.0052107169356712677 7.4350000000000008e-06 0.016772498008742368 0.22496475950280415 -2.6519999999999972e-06 0.27291913727417738 7.2862636321475573 -0.0011707234999999998 3.726094234500001 0.05079818806480129 -0.28998558310186695 -0.0093984106288990104 1.1196729206730078 -0.00060787999999999999 9.4793000000000012e-05 0.41934494500000002 -0.18688819301678822 32.770948263750007 0.76626971238650599 -0.0016762899999999998 0.00042969003787125516 -0.00030433499999999992 0.028260072990999311 1.5683957750000002 1.4734618000000002 -1.8267009552860236 -4.1937465048225286e-05
decision_type=2 2 2 2 2 2 2 10 2 2 2 2 2 2 2 2 2 8 2 2 2 2 2 2 2 2 2 2 2 10 2 2 2 2 2 2 2 2 10 2 2 2 2 2 2 2 2 2 2 2 2 2 2 2 2 2 2 2 2
left_child=2 9 3 4 -1 6 7 -5 -9 19 36 14 27 -8 15 -4 45 28 26 20 43 -22 -12 24 -20 -16 -7 38 29 40 32 -32 33 37 -35 -36 -3 -31 54 50 -18 -19 -17 49 -34 -13 -38 48 -48 -2 -21 -41 -53 -44 -11 56 -56 58 -14
right_child=1 10 11 5 -6 18 13 8 -10 12 22 16 57 -15 25 42 17 41 23 39 21 -23 -24 -25 -26 -27 -28 -29 -30 30 31 -33 44 34 35 -37 46 -39 -40 51 -42 -43 53 -45 -46 -47 47 -49 -50 -51 -52 52 -54 -55 55 -57 -58 -59 -60
leaf_value=-0.00027418165186048494 -4.3317120183478734e-05 -1.1597711291096767e-06 -0.00013027461982071119 -9.8812689945388109e-05 -5.2134378707669024e-05 -4.6744880224154753e-05 -9.7620631086009762e-05 -0.00034723662761877288 -0.00010869852925716623 -9.2092144344099016e-06 3.7082721087534754e-06 -3.3485317801776793e-05 3.5139254752647678e-06 -1.3620081967047756e-06 -0.00014230825543177852 -6.4781453182215999e-05 -1.4927870572798632e-05 -4.5441029674339457e-05 -1.2436933358686327e-05 -1.6268510939375526e-05 -0.00016973691850176282 -4.3784195428572264e-06 6.1796157102599084e-06 -1.0375806531822426e-05 -8.3112856079212795e-05 -4.8152636619040154e-05 -0.00014838548006743867 -6.9582666830828088e-06 -1.9721002242036001e-05 -3.0504739680436897e-05 -0.00013603294842095691 -3.5619632546164352e-05 -3.0192660821253093e-05 -2.4343274808814109e-05 -0.00010835520920572034 -4.2421259757872458e-05 1.8558386735906554e-06 -6.0554401833808642e-05 -5.5767115102997166e-07 -5.484966650420584e-05 -3.5355029909495517e-05 -0.00013878763620412408 -4.8709055754259673e-05 -1.788611421740384e-05 1.3588621140565873e-05 -1.181354066959314e-05 2.4202415321722869e-06 4.1748868996336175e-06 -0.00013220342917346061 -2.233191781219876e-05 -6.3497990034955701e-05 -1.5663940919500553e-05 -3.6975294851372921e-06 -2.3897863014371665e-05 -1.8907374555619539e-05 -1.349398169341998e-05 -0.00010779457887919206 -1.8363657718883473e-06 -6.1987594370183416e-05
leaf_weight=9.9999999999999982 36 2149 3.9999999999999991 8.0000000000000018 5.9999999999999991 3.9999999999999991 4.9999999999999991 5.9999999999999982 4 218 5150 20 4 9.9999999999999982 5.9999999999999982 11.999999999999998 27 2.9999999999999991 11.000000000000002 6.9999999999999982 3.0000000000000009 4.9999999999999991 6832 12.999999999999998 12.999999999999998 4 3 2508 47 53 3.9999999999999991 3 27.000000000000004 5.0000000000000027 10.000000000000002 6.9999999999999991 3125 15.999999999999998 67 2.9999999999999991 104 3 18.999999999999996 63 3.9999999999999991 73 5 35 3.9999999999999982 34 6 430 50 29.000000000000004 86 272 2.9999999999999991 1402 2.9999999999999991
leaf_count=10 36 2149 4 8 6 4 5 6 4 218 5150 20 4 10 6 12 27 3 11 7 3 5 6832 13 13 4 3 2508 47 53 4 3 27 5 10 7 3125 16 67 3 104 3 19 63 4 73 5 35 4 34 6 430 50 29 86 272 3 1402 3
internal_value=0 1.07064e-06 -4.86016e-05 -0.000107771 -0.000198879 -8.65323e-05 -0.000131299 -0.00020334 -0.000270377 -7.70003e-06 3.7072e-06 -3.69373e-05 -6.15246e-06 -3.75441e-05 -5.89543e-05 -4.89946e-05 -3.27894e-05 -3.74774e-05 -5.07856e-05 -1.87587e-05 -2.98189e-05 -7.83576e-05 5.1178e-06 -3.83706e-05 -5.25129e-05 -0.000112447 -0.000103408 -8.01046e-06 -3.58149e-05 -3.86374e-05 -4.58009e-05 -0.00010283 -4.17193e-05 -4.73263e-05 -7.29277e-05 -8.5071e-05 5.28604e-07 -3.82383e-05 -1.20784e-05 -1.55609e-05 -3.12898e-05 -0.000105274 -4.15291e-05 -2.63363e-05 -2.42954e-05 -1.67808e-05 1.67355e-06 -1.10267e-05 -6.46496e-05 -3.35824e-05 -4.10453e-05 -1.47916e-05 -1.44277e-05 -3.45126e-05 -1.34083e-05 -1.59115e-05 -2.3068e-05 -1.99064e-06 -2.87976e-05
internal_weight=0 22500 573 93 16 77 33 18 10 5200 17300 480 4563 15 74 64 406 313 44 637 141 8 11982 37 24 10 7 3154 307 260 129 7 122 91 22 17 5318 69 646 496 131 6 60 133 31 93 3169 44 9 70 13 483 480 48 579 361 89 1409 7
internal_count=23073 22500 573 93 16 77 33 18 10 5200 17300 480 4563 15 74 64 406 313 44 637 141 8 11982 37 24 10 7 3154 307 260 129 7 122 91 22 17 5318 69 646 496 131 6 60 133 31 93 3169 44 9 70 13 483 480 48 579 361 89 1409 7
is_linear=0
shrinkage=0.0176768


Tree=13
num_leaves=60
num_cat=0
split_feature=5 4 5 91 49 14 6 6 19 14 25 8 31 19 85 71 85 8 19 76 25 14 6 76 39 39 15 62 18 8 62 13 91 91 8 85 58 2 62 31 25 6 31 2 2 42 85 34 76 25 91 8 31 51 19 66 4 15 14
split_gain=0.00403302 0.00152553 0.0013284 0.000819303 0.000546031 0.000514482 0.000266033 0.000248813 0.000199164 0.000208107 0.000118055 0.000112415 9.5516e-05 9.50882e-05 8.22679e-05 7.58425e-05 7.48376e-05 6.13249e-05 5.55034e-05 4.59517e-05 4.59222e-05 6.10609e-05 3.93935e-05 3.90659e-05 3.80754e-05 0.000117658 3.64443e-05 4.15326e-05 3.44642e-05 3.29025e-05 6.58769e-05 0.000232292 3.27617e-05 3.27118e-05 3.19903e-05 3.08296e-05 2.93523e-05 3.74686e-05 2.64084e-05 2.5925e-05 3.13673e-05 2.54612e-05 2.768e-05 2.39509e-05 2.19889e-05 2.61444e-05 2.15375e-05 2.03924e-05 2.475e-05 2.11562e-05 2.64089e-05 2.99597e-05 2.0172e-05 2.4295e-05 5.50332e-05 1.87876e-05 1.79799e-05 2.10764e-05 1.79766e-05
threshold=-0.00087498203289312069 -3.4402457924078011e-05 -0.0023908504499033458 -0.53153961352580248 0.31992953104814054 1.7320508075688319 -0.0006786744399098608 0.00014059477071046186 -0.12103602733990221 -0.87460450040223248 -1.025499580954486 -0.0078432497379276496 -2.0554739400107045 -1.9212282100719129 0.52566887120293437 0.028543275199820119 1.650991764227953 -0.00026820558196141161 -1.5525618494760174 0.023570443205641774 -2.7334621726938502 -1.2445480798260904 -0.0012635681024476847 0.03262032283234232 13.148677403601296 12.715800828835107 -0.0016089279999999999 -1.4333883118451303 9.7390000000000015e-05 -0.0039653646112019171 2.5811009047551079 -0.00045242999999999992 -0.42912234025785839 0.97475749732446726 -0.00024999895599140087 0.12445840357060302 0.23985792133061998 2.3554794600000002 -1.8267009552860236 -0.72049907373370414 -2.90142477091698 0.00013538486625800343 -1.1167898399171339 2.058368245 0.094503290000000004 0.20363173000000004 -0.53547784925358599 10.246359821067088 0.55733564193615936 -0.49329630602866931 -0.12916206496953184 -0.0014790573913715491 -0.51388306304835529 0.57224060650000008 -0.95715470087791288 1243.9202251615782 3.316022473990758e-05 -0.00051544999999999987 1.5678436718856006
decision_type=2 2 2 2 2 8 2 2 10 8 10 2 10 10 2 2 2 2 10 2 10 10 2 2 2 2 2 2 2 2 2 2 2 2 2 2 2 2 2 10 10 2 10 2 2 2 2 2 2 10 2 2 8 2 10 2 2 2 10
left_child=2 6 3 4 -1 8 19 34 13 -10 -6 12 -4 39 35 32 33 47 -14 58 21 -21 23 -17 25 -22 -20 -28 -9 30 -26 -32 44 -15 41 -11 -25 -38 -19 40 -5 56 -43 -24 -13 -46 -34 48 -8 50 -50 -52 53 -48 -55 -39 57 -3 -2
right_child=1 7 11 5 10 -7 17 28 9 14 -12 15 18 16 -16 22 -18 38 26 20 24 -23 43 36 29 -27 27 -29 -30 -31 31 -33 46 -35 -36 -37 37 55 -40 -41 -42 42 -44 -45 45 -47 52 -49 49 -51 51 -53 -54 54 -56 -57 -58 -59 -60
leaf_value=-0.00027244876682137452 -7.696549289444591e-06 -2.9670621297555045e-05 -2.0131569111142128e-05 -2.8444302733987571e-05 -1.9961324369432986e-07 -0.00020675960462540388 -5.9704810737838004e-06 3.2255628695362193e-06 -0.000187222984037362 -6.3093010336160639e-05 -0.00012474389397539194 -1.961745530264268e-05 -1.0745468524484231e-05 -2.5205460573157653e-05 -0.00011609960230998695 -7.3612217092886581e-05 -7.9548978013917808e-05 -3.2649642394630971e-05 -2.1291114722511601e-05 -1.600515024620108e-06 -1.759043414825679e-05 -9.1667486994992945e-05 -2.2663099152850924e-05 -1.6890738419143806e-05 -1.6523750784972638e-05 -0.00010773285990580919 -0.00011327068973332643 -5.8463644973623249e-05 4.9484897799041505e-06 -1.1718409118133218e-05 -8.549636775569525e-06 -0.00014698810467962176 6.4084559926413938e-06 9.2863772927861033e-06 1.3518714255974902e-06 -1.0456197134252373e-05 -6.7417405412665443e-05 -3.0755616361268779e-05 -1.081355997952964e-06 -2.3104377323761582e-05 -9.8060462623834606e-05 -3.7368237514913611e-06 -5.5367331951856628e-05 -8.7132747285068019e-05 -8.1296119024045776e-05 -2.6327731829951522e-05 -7.1504228604041716e-06 -2.9569117141728756e-06 -1.1854182678636038e-05 -6.4369717615266265e-06 -1.5603712277619965e-05 -6.6595085227163511e-05 -2.9297892828684497e-05 -6.9450220093131065e-05 -7.5871683392589079e-06 1.6828282386995854e-06 1.4339433264991072e-06 -1.4967779754508096e-06 -1.9148566106570584e-05
leaf_weight=7.9999999999999982 410 4.9999999999999991 25 2.9999999999999991 3 4.9999999999999991 2221 4220 4 4.0000000000000018 3 18.000000000000004 5.9999999999999991 21.000000000000004 3.9999999999999991 3.9999999999999991 3.9999999999999991 4.9999999999999991 5.9999999999999991 3 21.000000000000004 2.9999999999999991 2.9999999999999991 41 195 2.9999999999999991 3.9999999999999991 44 6896 550 8.9999999999999982 2.9999999999999991 10.999999999999998 7.9999999999999991 4152 6 5.9999999999999991 191 994 2.9999999999999991 7.9999999999999991 6 2.9999999999999982 4 2.9999999999999982 7 60 535 16.000000000000004 27 6 4.9999999999999982 18 3.9999999999999991 9.9999999999999982 3.9999999999999991 603 1596 33
leaf_count=8 410 5 25 3 3 5 2221 4220 4 4 3 18 6 21 4 4 4 5 6 3 21 3 3 41 195 3 4 44 6896 550 9 3 11 8 4152 6 6 191 994 3 8 6 3 4 3 7 60 535 16 27 6 5 18 4 10 4 603 1596 33
internal_value=0 8.44601e-07 -4.01219e-05 -9.47655e-05 -0.000196788 -7.18768e-05 -6.42619e-06 2.9407e-06 -5.85257e-05 -0.000100277 -7.13963e-05 -3.01542e-05 -4.58709e-05 -4.07797e-05 -6.46104e-05 -2.65651e-05 -2.55496e-05 -4.46554e-06 -5.60897e-05 -1.24893e-05 -1.467e-05 -5.3296e-05 -3.13873e-05 -3.0146e-05 -1.43055e-05 -3.27168e-05 -6.0841e-05 -6.52493e-05 4.29476e-06 -1.36794e-05 -1.88082e-05 -5.18038e-05 -1.70847e-05 -1.56981e-05 5.75623e-07 -3.53326e-05 -2.91276e-05 -3.15277e-05 -1.27185e-06 -7.25826e-05 -8.30268e-05 -8.80715e-07 -2.47627e-05 -6.57895e-05 -3.13289e-05 -4.87097e-05 -1.29485e-05 -5.60009e-06 -6.22011e-06 -1.61919e-05 -2.53685e-05 -4.23997e-05 -1.53069e-05 -1.15585e-05 -2.8714e-05 -3.0085e-05 -7.72007e-07 -1.60323e-06 -8.59084e-06
internal_weight=0 22520 553 84 14 70 5039 17481 65 18 6 469 85 47 14 384 33 3809 60 1230 787 6 253 246 781 24 54 48 11116 757 207 12 131 29 6365 10 242 201 999 14 11 2213 9 7 28 10 103 2810 2275 54 27 11 92 74 14 195 2204 1601 443
internal_count=23073 22520 553 84 14 70 5039 17481 65 18 6 469 85 47 14 384 33 3809 60 1230 787 6 253 246 781 24 54 48 11116 757 207 12 131 29 6365 10 242 201 999 14 11 2213 9 7 28 10 103 2810 2275 54 27 11 92 74 14 195 2204 1601 443
is_linear=0
shrinkage=0.015


Tree=14
num_leaves=60
num_cat=0
split_feature=5 5 5 61 0 20 6 19 20 32 6 86 9 19 86 55 71 92 0 86 12 9 0 92 55 0 0 74 9 19 61 18 27 10 9 9 55 19 41 17 92 20 55 74 28 0 25 32 6 32 32 28 0 92 74 92 28 37 61
split_gain=0.00367305 0.00137143 0.00122413 0.000748558 0.000545553 0.000487427 0.000246864 0.000236793 0.00024447 0.000433181 0.000222467 0.000167885 0.000134751 8.56643e-05 7.71892e-05 6.73199e-05 6.48789e-05 5.86301e-05 4.41726e-05 4.80794e-05 4.50541e-05 4.28963e-05 3.95907e-05 3.70935e-05 0.000158942 3.36477e-05 3.36228e-05 7.06513e-05 8.8348e-05 3.21707e-05 3.16579e-05 3.10909e-05 3.03848e-05 2.77294e-05 2.72833e-05 2.62027e-05 2.54789e-05 2.53913e-05 2.39725e-05 5.17695e-05 2.21663e-05 2.11286e-05 2.04882e-05 3.10502e-05 2.41063e-05 0.000111533 3.16651e-05 2.02881e-05 2.00079e-05 2.78858e-05 1.85571e-05 1.85022e-05 1.84062e-05 1.81003e-05 1.7642e-05 1.76135e-05 1.70873e-05 1.80421e-05 1.93866e-05
threshold=-0.00087498203289312069 -0.00011070788048934362 -0.0023908504499033458 -0.52203895627496799 -0.0016825249999999996 -3.1930076486217183 0.00014059477071046186 -0.18964780802173431 -2.5153912767976698 0.45271389433899206 -0.0006786744399098608 -0.95459123599854312 -0.013664336659536536 -1.9212282100719129 -1.1114681439627425 1.6502334832510908 0.028543275199820119 -1.5027524054173904 -0.0011507249999999998 0.392190045560801 -0.00030569499999999998 -0.0087055505840680329 -0.0016825249999999996 2.5849911167953343 0.16437602131923315 -0.00080614999999999994 -0.00060376999999999989 1.7284638512218169 -0.0032319845718272004 -1.7846809463217437 0.97585439200048729 9.7390000000000015e-05 -1.2338750000000003e-05 -0.00058592833333333326 -0.0012637883990706392 -0.001311610137999258 1.2137708538594325 -0.50469420865970549 0.0058271907624581126 9.9995000000000007e-05 -0.5462815495575134 -0.86196851687031983 -0.26037038177961164 -0.97422457310972788 0.00018192581819040897 -4.5354999999999995e-05 -2.76701330861937 -1.0395948511694366 0.00013538486625800343 1.0000000180025095e-35 7.0683940561092431 0.00025445271416839414 -0.00011190499999999999 -0.71540283914209091 0.56585746797867575 2.430370941402646 0.00048877778152454714 5.4898578393277671 -1.0000000180025095e-35
decision_type=2 2 2 2 2 10 2 8 10 10 2 2 2 10 2 2 2 2 2 2 2 2 2 2 2 2 2 2 2 10 2 2 2 2 2 2 2 10 2 2 2 10 2 2 2 2 10 10 2 8 10 2 2 2 2 2 2 2 2
left_child=2 10 3 4 11 -5 35 13 -9 -10 21 -1 14 22 37 30 25 -16 19 20 -18 23 -7 -2 -25 36 27 33 -29 -19 -15 -8 50 51 -12 48 38 -4 54 -40 -41 -22 43 44 -37 -46 -47 -27 52 -50 -28 -23 53 -3 -14 -21 -20 58 -58
right_child=1 6 12 5 -6 7 31 8 9 -11 34 -13 16 15 17 -17 18 29 56 55 41 26 -24 24 -26 47 32 28 -30 -31 -32 -33 -34 -35 -36 42 -38 -39 39 40 -42 -43 -44 -45 45 46 -48 -49 49 -51 -52 -53 -54 -55 -56 -57 57 -59 -60
leaf_value=-0.00017561515675809528 -2.0927453408749505e-05 -3.1255641333788076e-05 -8.8892454036945145e-06 -0.00030144362849219203 -3.9015879726251188e-05 -5.1352554118448804e-05 3.978482302052907e-06 2.7548301967236983e-06 -6.840028400102499e-05 -0.00028343584035410668 -7.1773397397210691e-06 -0.00040285303503668937 -9.9573357131055198e-06 -3.2288382325940031e-05 -0.00014115271060011138 -9.9130264111758716e-05 -4.2297314739898686e-05 -1.3777759587495754e-05 -3.6587404015897181e-05 5.885216524892623e-06 -4.7012014704875396e-05 -8.4267951136168372e-05 -0.00012716295637841502 -0.00014348882438543326 -1.0053221536474244e-05 -4.275842100389208e-05 -1.2570252259717601e-05 -1.9725909501525718e-06 -0.00014242204251786462 -6.8723766268580135e-05 1.1518679348927641e-05 6.1023910890492342e-06 -6.0240509178234216e-05 -1.6652273568960727e-05 -3.6732921452192912e-06 -2.6706174772887049e-06 -1.9457515689511415e-06 -4.9023571297696495e-05 -2.7481120541449858e-05 -0.00012808618300298873 -4.7739787623868305e-05 -0.00010629845953119977 2.0378640867873433e-06 1.3471110474636863e-06 -0.00011537691971345621 -4.9713306568194716e-05 -1.7715928471382757e-06 -7.5362420876285051e-06 -6.9175888809415797e-05 -5.4330060125861423e-06 -1.2354916599450078e-06 -2.5439985529374097e-05 -1.3090383583609204e-06 -5.6842280945832984e-06 -3.8829686480076259e-05 -4.2765724118418379e-05 -3.4054240604046523e-06 -1.2488452117091988e-05 -6.5225889424115087e-05
leaf_weight=4.9999999999999991 191 13.999999999999998 13.000000000000002 2.9999999999999991 3.9999999999999991 7.9999999999999991 4222 4.0000000000000027 8.9999999999999982 5.9999999999999991 2057 4.9999999999999991 18 22.000000000000004 3.9999999999999991 3.9999999999999991 19.999999999999996 4.9999999999999991 167 5.9999999999999982 6.0000000000000027 2.9999999999999982 5.9999999999999991 3.9999999999999991 10.999999999999998 5.9999999999999991 805 3 2.9999999999999991 51 7.9999999999999991 6896 3.9999999999999991 159 1433 686 9.9999999999999982 10.999999999999998 15.999999999999998 3 5.0000000000000018 11.000000000000002 3433 1346 2.9999999999999991 4.9999999999999991 41 62 2.9999999999999982 7.9999999999999991 59 7 1087 37 14.999999999999998 4 3.0000000000000009 28 4.9999999999999991
